{"weights":[[[0.49168882,0.3949481,-0.16874804,0.011285533,0.6048662,-0.08005343,0.31088,-0.1485589,-0.4015934,-0.25828424,0.16025159,-0.34616357,0.48252875,0.5804547,-0.20433511,0.3821508],[-0.26519114,0.2453724,-0.19269197,-0.55953705,-0.08065291,0.3871308,0.40863228,-0.16866744,0.23015594,-0.37227964,-0.55498236,0.20945601,-0.09802899,-0.18225986,-0.45010522,0.18074258],[0.3880622,0.46025613,0.005219847,-0.5784108,0.25778636,-0.14912863,0.24770248,-0.70846593,0.00730663,0.09302672,0.16089407,0.2808143,-0.15383519,-0.040684428,0.2518648,0.18272603],[-0.4893345,0.306946,-0.5520325,0.48319638,-0.20322658,0.16043566,-0.1421185,0.55380213,0.33498782,-0.27789766,-0.13421018,0.16277446,-0.27201355,-0.043530084,0.35186478,0.5697827],[-0.5586803,0.0853749,0.110221475,0.5608131,-0.24647081,0.14292254,-0.43306598,0.27143875,-0.427459,0.38418445,-0.0048230514,0.20705414,-0.393304,-0.3830736,-0.19164847,0.09510873],[-1.020118,0.29043928,-0.4132791,-0.17240939,0.012558188,0.51147825,0.34850928,0.14017431,-0.18810473,0.10010283,-0.011721377,0.67195207,0.6969024,0.033667777,0.22855563,0.42076945],[1.0311085,-0.11297348,0.082394674,0.5383692,0.48291743,-0.38792455,-0.51774275,-0.5264742,0.13901968,0.1978889,-0.5337169,-0.82086253,-0.51705414,-0.19946763,-0.22094586,0.1637003],[-0.4979601,0.480676,-0.34619632,0.13520394,-0.36961782,-0.8974145,-0.2886421,-0.2932496,0.20820077,0.59956354,-0.5499035,0.21375698,0.5319847,0.5790607,-0.14358485,0.44818607],[0.37282738,0.3289581,0.12864922,0.2666463,0.35983488,-1.3941522,-0.29175448,-0.49759835,-0.4087469,-0.27439192,-0.46643707,-0.43490934,-0.22560161,-0.1604953,-0.16534744,0.35645506],[-0.47948718,-0.19605412,-0.6467621,0.106426544,-0.5387608,0.4799227,0.12794651,0.2681841,0.19211508,-0.07481607,-0.509157,-0.1526745,0.12973584,0.4131388,-0.42138293,0.105293185],[-0.3512094,0.14405526,-0.43432274,0.4740665,-0.15283698,0.012001458,-0.4761914,0.4265493,-0.11451816,0.10314266,0.25683174,0.23309425,-0.20051071,0.54275763,0.055863354,0.32107767],[0.506628,-0.26927507,0.5715914,0.5535614,-0.12364038,0.08493153,-0.06227967,-0.41930556,0.06494762,-0.22508991,0.17451127,0.24783608,-0.058098495,-0.3749681,0.07199015,0.20380661],[0.48877966,0.4346848,0.33320826,-0.3858166,0.1862548,0.2765345,-0.30327725,-0.022391021,0.3095039,-0.29553068,-0.38322866,0.048638403,0.079010665,-0.4496652,0.05572647,0.3604945],[-0.11290664,-0.25906736,-0.13247435,-0.40836024,0.29231265,-0.4612387,-0.06647411,-0.4286277,-0.18012506,0.06493332,0.22726288,-0.24904194,-0.047512688,0.5667109,-0.28484097,0.40143389],[-0.012913055,-0.063065395,-0.06279141,0.06510243,0.11479948,0.4123681,0.3792483,-0.5083344,0.32717413,0.48888177,-0.17529328,0.2013534,0.30507773,-0.31133407,-0.2663639,0.1222593],[0.039403178,0.18462169,-0.9029791,-0.28101864,0.35138014,0.8472482,-0.04707186,0.20382993,0.52460426,0.24467807,0.31261706,0.30927324,0.20257491,-0.24609374,0.33409545,-0.20136376],[0.6383973,0.373483,0.41642994,-0.09722654,0.5434983,-0.08765223,-0.44756472,-0.15632467,-0.50629884,0.62561417,-0.072516546,0.36752665,0.5004893,-0.08744802,-0.31766236,0.54069936],[0.29264683,0.31897554,0.43080556,0.5122791,-0.08002196,-0.3583573,-0.23484704,-0.27756947,-0.23874879,-0.05364867,-0.011863849,0.21443231,0.093588285,0.50183654,0.1389564,0.49116656],[0.6338902,0.3688364,0.600289,0.6044425,0.34878108,-0.07333927,-0.9474261,0.2867221,-0.74097425,0.543516,0.2106721,-0.40239397,0.23621877,-0.119998485,0.019936223,-0.19509979],[-0.3551444,0.26826218,-0.009472427,-0.24104846,-0.39777204,-0.14980918,-0.2530578,0.4511539,-0.21060443,0.4008769,0.12177737,0.15766679,0.20743531,0.4189176,0.17431375,0.24662323],[0.30886889,0.19384877,-0.36676714,-0.25407308,-0.009545772,0.14594883,0.030552473,-0.25204575,-0.26867917,0.23623851,-0.26873183,-0.34949818,0.32396197,0.08775649,0.1736473,-0.006136073],[-0.6941573,-0.2176501,-0.56023145,-0.23806904,0.3431828,0.28629652,0.57746476,-0.5060614,-0.02506886,0.28325903,0.3470664,-0.0188658,-0.3607048,0.2692581,-0.049836073,0.08704691],[-0.09503961,0.07108798,-0.054389205,-0.4179341,-0.25366077,0.5218352,-0.032951064,-0.16044839,-0.33486247,0.251384,-0.44259745,0.00554478,-0.14095846,0.03440186,0.21601668,0.5317757],[-0.12125968,-0.40788728,-0.0034122528,0.37194505,-0.20762216,0.9834058,0.07105921,0.09979292,0.37383538,0.3006119,0.19664124,0.62583506,0.2211118,-0.25503498,0.18385443,-0.09605443],[-0.5233558,0.13011959,-0.40527844,-0.07662733,0.42352656,0.94337934,-0.24090138,-0.16008759,-0.10632518,-0.3561997,0.34326965,-0.17196049,0.11173912,0.20985702,-0.028779367,0.04754215]],[[0.4118539,0.78977853,0.66474384,-0.49645293,-0.58748025,0.47710785,0.14438519,0.46811348,0.4654366,0.12611294,0.8634661,-0.44713113,-0.20984508,0.11446326,-0.031999294,-0.5448999],[0.09880134,0.42684913,-0.34765118,0.14413825,0.5962337,-0.66181976,-0.08475629,-0.06315722,-0.2854945,-0.4231502,0.6161499,0.35950014,-0.051052194,0.021270262,0.55200374,0.10598831],[0.15290967,0.03731062,0.5890262,-0.28359914,-0.17616509,0.09469938,0.38767776,0.38654888,0.1265374,0.6114766,0.5509114,0.085041985,0.11727709,-0.6351406,0.429297,-0.7351624],[-0.3865204,0.40406236,0.22903545,-0.46107048,0.009969953,-0.097346514,-0.20226564,-0.29796216,-0.3347287,-0.41828734,0.5616061,0.29201955,-0.3922133,-0.17277656,-0.36164895,-0.3738612],[-0.3525581,0.14471312,0.5706247,-0.3266009,0.124954045,-0.098106354,-0.43486592,-0.06341484,-0.32181928,0.46723965,0.47785786,-0.4326134,0.41085577,0.41793913,-0.07604173,-0.15020856],[-0.46170357,-0.9573387,-0.17905286,0.6986434,-0.027164482,0.20048377,-0.56952184,0.48366272,-0.48235863,-0.10627847,-0.98011947,0.5511425,-0.2965486,0.56861573,0.20257352,0.5951728],[-0.4389611,-0.5117599,-0.5231364,-0.20772168,-0.07584221,0.57942545,-0.21709158,0.5037614,-0.3455083,0.25157776,0.010003311,0.03278324,0.41470557,0.24210407,-0.31379187,0.66215014],[-0.32386532,-0.20387699,-0.12430051,0.4230145,-0.41452348,-0.03642602,0.25270227,0.13785839,-0.19564156,-0.30175096,-0.09857352,-0.43422163,0.5565503,0.026107153,0.053581946,0.88654],[0.050160367,-0.24973501,0.07455468,0.3488946,-0.12735185,-0.28169668,0.030744242,0.21468271,0.03319261,-0.0046618525,-0.33058697,-0.21713215,0.3011513,-0.20557941,-0.13189556,0.5163312],[-0.2431666,0.12998772,0.41381234,0.043324623,0.019037902,-0.05197006,-0.30642197,-0.22301017,0.37616715,0.083000295,-0.19995518,-0.06135761,0.36729664,0.48498672,0.45160496,-0.40368712],[-0.23366058,0.14427872,-0.3521502,-0.25101262,-0.38239926,-0.037843052,0.47048673,0.3766336,0.3172877,0.33860537,0.25032306,0.21048404,0.1213808,0.22770937,0.11533332,0.4230881],[0.11659987,-0.44945154,-0.3470692,0.08584421,0.54117286,-0.34366035,0.028311394,-0.33874798,-0.48634693,0.24290578,-0.45828354,-0.37926427,-0.3938151,0.32820356,0.1379411,0.32358682],[-0.33562005,-0.11745788,0.08894818,-0.1709796,0.34793544,-0.18944049,-0.098444454,-0.38555676,-0.41696414,-0.49383593,0.6435181,0.46683365,-0.41129535,0.13734849,-0.06778598,0.18396704],[-0.3289488,0.19711034,-0.11081244,0.41210827,0.33321416,0.23204613,-0.4112547,-0.34642246,-0.113738805,-0.38895062,-0.13254586,0.058712542,-0.16252716,0.0363972,-0.45725593,-0.041888755],[0.38704857,-0.32862127,-0.38582382,0.01637961,-0.10855329,-0.31635624,-0.37796804,-0.18637015,0.4605726,0.19552171,-0.10334623,-0.42958704,-0.025185058,-0.21172409,0.18662083,0.23989397],[-0.5080214,0.14050898,-0.050834008,0.15251614,0.4452185,-0.60201305,0.14509197,-0.5459663,-0.08094355,0.13201061,0.10028128,0.54955494,-0.33348143,0.24102724,0.09135716,-0.25579053]],[[-0.16259001,-0.115967974,0.6775043,-0.0003367414,-0.1611868,0.3247344,0.22691065,0.5201254,0.21058285,0.13593458,-0.15901336,0.40249404,0.06760252,-0.47833714,0.41406783,-0.063430466],[0.37205845,0.3814248,0.47829235,-0.9263682,-0.37626576,0.16694435,-0.23302522,-0.08029875,0.36225027,-0.049006503,-0.5502892,-0.20447908,-0.4348019,0.19094008,-0.8445677,-0.24160965],[0.41147777,0.28235057,-0.67004573,-1.1406204,0.26277846,0.17831516,-0.096853256,-0.4209697,-0.00804182,0.12898096,-0.3598603,0.41997883,-0.14241916,0.4885556,-0.11734658,-0.64441586],[0.34340444,-0.29415214,-0.07572556,0.25078237,-0.07661401,-0.5426254,0.5469265,0.47187975,-0.099788636,-0.40400726,0.35473317,-0.60558414,-0.16859888,0.06751914,0.01442416,0.14929967],[0.57601744,-0.31355757,0.088291176,0.06154245,0.6163284,-0.0014746174,-0.34423456,-0.0018825864,0.121186115,-0.3289941,0.2281671,-0.44928858,-0.01644994,-0.22196464,-0.43254572,-0.45726335],[-0.091709666,0.21650662,0.36897233,-0.13837506,0.31633434,-0.0490209,0.020649074,-0.18024321,0.24626717,0.48483276,-0.15430003,-0.2007139,0.5461773,0.21737078,0.15720077,0.47662714],[0.24180582,0.28709832,0.257752,0.12376776,-0.45655048,-0.1457979,0.41904604,0.3992692,-0.15260829,0.48961666,0.3092577,-0.15864784,0.34670162,-0.1569698,0.070823826,-0.1804228],[-0.034139846,-0.2126089,0.56171536,0.13599962,-0.0997396,-0.31844747,0.46914858,0.27708286,0.5958322,0.092380725,0.5316217,-0.027073778,-0.120940745,-0.11666257,0.26583058,-0.019926837],[-0.47921452,0.5348395,0.18560256,0.14536068,0.22496222,0.051183846,0.21294932,-0.15069695,0.0035380716,-0.090876535,0.52055657,0.28225946,-0.08354521,-0.56344795,-0.13200344,-0.18309441],[-0.31372973,0.38925487,-0.098209105,0.28097954,-0.28213704,-0.069935784,0.18711036,-0.18826804,-0.028891511,-0.23346058,-0.09579115,0.50420225,0.18799002,-0.49316177,0.27819288,0.5111968],[0.43537298,-0.21978827,0.16295326,-1.0777996,-0.20788693,0.5088373,0.16606136,0.016455049,-0.034337245,0.27139634,-0.64034665,0.29424864,0.27680027,-0.20446658,-0.81029224,0.07877935],[-0.016428176,-0.19813746,0.035146084,-0.5866971,0.12515172,-0.31485265,0.061917465,0.005881906,-0.5162623,0.020287694,-0.12606256,-0.39053315,-0.19548006,-0.038627923,-0.025668839,-0.2832251],[-0.24167044,0.5701857,-0.31568003,0.70541865,-0.52858853,-0.19505037,0.54209894,-0.103508234,0.34294352,0.29554975,0.5902101,-0.044029973,0.39590615,-0.61202055,0.0863716,-0.03469964],[0.23335911,-0.41323936,0.32905868,-0.2767336,-0.06419802,0.23366366,0.40860823,-0.3071588,-0.525122,-0.32925355,0.01578739,-0.37800723,0.29500023,0.38626018,0.18865013,-0.07368062],[-0.2533207,-0.22630516,-0.17876096,-0.43617496,-0.38154486,-0.4423615,0.39703125,-0.19154479,-0.4575706,0.09774721,-0.25237894,-0.29952526,0.46875095,-0.39052147,-0.4593922,-0.31488892],[-0.4537093,-0.26517123,0.25988877,1.1247785,0.35880387,-0.12562534,-0.07941118,-0.3099591,0.24716918,0.12129345,0.8798837,-0.54575795,0.16963618,-0.31257644,0.9040294,0.12090939]],[[0.3255949,-0.007257655],[0.0679341,-0.28779218],[-0.17550126,-0.17290112],[-0.55253726,0.6148776],[0.14943099,0.052645184],[0.3381446,-0.20781735],[-0.11746958,0.024719251],[-0.25980598,0.029811492],[-0.39113855,-0.023428135],[0.24517378,-0.13354446],[-0.49419242,0.2545494],[0.40556145,-0.3668306],[-0.41302398,0.13149206],[-0.19150162,0.20744914],[-0.52667844,0.26647696],[-0.28887415,-0.034583665]]],"bias":[[-1.1850685,0.8626567,-1.0577027,0.40308356,0.07702839,1.153602,-0.23075081,0.36889794,0.60500944,0.3519464,-1.255115,1.1259534,1.2775879,1.1354277,-0.86068386,1.0088774],[-0.6762879,-0.5608479,0.38353476,-0.094896145,0.120724946,-0.32144624,-0.14486189,-0.41915244,-0.30157945,-0.49241352,0.5953829,-0.07185223,-0.28140262,0.19367586,0.4073885,-0.37052152],[0.46564388,-0.45829386,-0.4534936,-0.33209974,-0.102838665,-0.0918816,0.040692087,-0.7280092,0.1825391,-0.3751154,-0.16637427,0.4148532,0.1601412,-0.310598,-0.11326833,-0.5790158],[0.0117688505,-0.7151673]],"activation-funcs":["tanh","tanh","tanh","tanh"],"comment":"more layers"}
