{"weights":[[[21.704554,1.2999492,-2.667248,-5.028421,9.035578,5.0118675,-0.7304248,-8.308658,-13.180338,-11.032978,3.436934,16.00631,-5.2282233,-7.5754495,-1.9902785,1.4295341],[9.012996,11.57671,3.3690202,-6.076089,-8.747888,0.059112564,-11.084188,-6.135539,-5.5540166,-3.4414744,4.6622844,-4.4728713,2.9047048,-6.5643406,3.77132,15.156715],[11.579778,-10.131099,-9.4847145,8.198869,-8.623813,10.26811,-2.577077,0.71892923,-6.3417892,11.721669,-3.0197148,-7.7694325,6.805189,-3.0253272,-9.860853,-12.045578],[1.3914044,4.053292,-4.2747936,-4.2974753,5.506442,-20.898138,1.1979645,-13.799635,-8.325103,-10.306337,-12.63022,-0.4778341,17.503597,-14.039425,-0.41309318,24.803173],[-14.574745,-6.7503448,-11.884254,-0.27485284,-3.7874298,-6.1887937,-25.016579,-8.845137,10.68372,9.96118,-30.703558,-7.4308305,11.953763,-1.1565075,-1.2617737,-1.2205615],[-8.93354,6.3108354,12.768534,0.8567459,-8.79554,5.0654173,5.1626105,-6.280529,-16.084242,2.3748214,-2.6748097,-7.4948764,8.194534,-5.6369305,-12.15426,-8.101621],[22.439037,-14.795448,10.424118,3.78645,4.435122,-21.571081,-8.679876,-3.2874897,-36.80801,15.424523,-12.663869,-7.360203,-10.397551,0.16074859,-17.367151,-43.95691],[28.67073,-10.687518,-3.4537508,23.37505,-13.070448,-13.724759,-40.062733,-5.098645,-3.5514445,6.151308,-18.475584,-7.644961,2.0542045,-32.02562,-11.687218,-9.394427],[11.383161,-19.5781,-23.396976,6.0423927,9.988194,0.7431841,-44.90153,10.482922,5.721655,35.243053,-30.27615,-43.54605,-15.950968,-4.5751724,-2.250497,-20.118574],[-12.572779,4.7506337,16.624012,-5.664208,-2.9863372,5.0403914,0.13188455,-1.1240283,0.14728384,-15.484301,-3.2822795,-5.7303014,-1.0542502,-20.289215,-0.56049365,2.3601544],[0.885908,2.269055,-1.0342888,-8.21924,8.319321,5.5438156,15.9882965,7.529408,-13.238841,0.26771948,-3.2708538,4.7162733,3.0875878,-3.2216976,-0.12947945,-0.68270826],[-5.7424936,-13.723821,7.387022,-0.097623974,-12.143611,-29.435102,1.5689596,3.0373893,-6.48545,8.774772,-17.190924,-7.979515,-2.4849823,-6.635582,-2.2967033,-21.910503],[1.903102,2.3532443,-0.76664585,-2.254111,-1.4679939,-1.4865975,3.1238446,-1.9363698,-3.051547,2.9680903,-0.0026105933,-2.1693814,-3.9933252,-2.4219587,-2.1451764,-1.5683591],[30.890608,-3.356859,4.8770065,5.1832085,2.568175,0.418702,19.473331,19.071434,-5.450987,8.519088,0.43402842,-7.4710155,-20.66336,1.0320342,9.075822,-27.190567],[-8.310875,-8.302797,-11.408131,-2.269622,10.76809,-7.818104,17.257948,1.500265,5.4454184,-6.987987,17.962605,-2.6607525,-0.1314688,17.071142,5.857889,-3.6814663],[-12.245613,-0.9397407,1.9692556,4.4473405,0.80163693,-0.31146866,-0.3950759,0.5853544,-15.809075,1.6647353,-13.645837,9.749195,-6.848766,-0.55550545,2.8783853,12.467689],[13.402433,-16.694805,0.19168147,21.37777,2.7072198,-11.871828,6.8178315,4.713243,-10.511637,24.97318,-29.971884,-17.56818,-14.476499,15.416601,-5.6509233,-35.363895],[-3.5564933,-2.6613314,-26.058193,19.55319,-4.087949,-0.46865922,6.578571,9.4365,4.04178,7.606557,-11.909519,-4.732702,-5.4482317,-8.841847,2.166133,-29.746584],[24.878508,-15.980757,-29.90359,-4.9186335,-3.0509615,-34.4859,-14.995872,13.294702,-12.900551,-2.8701415,-5.674178,-6.962369,-48.050076,-9.272715,1.9557835,-51.689552],[-2.1435425,-1.4178617,7.7827377,-5.8505754,4.074589,5.7027216,0.4433168,-0.22173022,16.071268,0.08000924,-1.5145649,-2.2562876,-14.474553,-0.16557312,4.7262526,2.2557127],[0.005475137,2.6178663,0.0388876,1.9443785,-3.3203459,-9.860302,10.95309,9.122896,-4.5954947,4.9674096,-5.469464,-6.890511,-1.5347457,1.9615939,5.2653394,-10.062823],[1.3793299,3.8599257,-0.6964473,-6.0324416,15.747488,-11.702988,14.643815,4.7630167,-0.24026482,-4.969903,2.9787889,-4.7781863,-1.600429,-17.833117,-8.826671,16.538933],[-5.7839737,6.0207696,-11.779781,-8.972453,-2.6690438,-10.142495,14.012191,0.46759447,-4.627087,0.85264903,1.980926,-3.4336996,-8.479907,-22.471067,11.6496,-3.8473063],[-2.8406196,3.987627,-0.37870398,-8.0435705,-1.6983062,10.774087,9.4515915,5.9068727,11.089193,3.4063778,3.2707224,6.114203,17.501045,-9.682495,4.27975,4.7623296],[5.4314837,-10.958132,5.0354023,-7.310873,5.490738,-7.164563,15.633911,-0.057245616,2.6332493,-0.041330427,0.737958,-3.2050893,3.576662,-1.4308761,1.5911044,-10.041186]],[[-5.7853894,-0.457929,1.8035264,-2.7390742,5.4893317,0.09941359,-5.4621496,-2.425193,7.1664658,1.7659929,-4.8453574,1.7079749,-4.249672,0.10665222,8.687249,-12.343425],[2.6273146,-4.4075804,-0.7221669,5.0712094,8.006039,-4.592339,-2.3431253,0.35152414,-1.6313653,1.6780021,2.57203,1.7791014,-1.8917277,-1.3429364,2.5395403,-0.27548197],[3.1369884,3.316591,-3.1073036,3.7635944,0.2734014,2.5572073,1.7162937,2.4879777,-1.6835866,7.2550364,-1.0696439,-3.7269847,2.14488,-0.9233615,-1.3893899,-1.5692257],[1.4330993,1.9800644,-0.34953213,-3.846228,-0.28199244,2.5259514,3.6862931,0.09959648,2.7283673,-4.646744,-1.9365877,-0.96404254,-0.32526994,-2.5536575,-0.7166147,-0.88739973],[7.0353403,-3.199075,2.6373944,-2.9559038,-0.5323192,0.4401035,-4.2445607,-1.9648707,-6.130293,-4.1586275,-0.2483379,-0.04906459,1.4940114,-3.3720713,2.4176288,6.3309135],[-0.5711246,2.376181,0.7501684,4.036765,3.023388,-8.88298,-1.4015732,-4.815989,6.384458,-0.14251243,-0.40406322,-0.45633957,3.2112556,5.777704,0.30921635,2.8552682],[3.259426,3.38146,5.3029013,-0.075947724,0.7279675,-0.3267621,5.736397,-1.556412,7.5682516,5.3859816,-4.246969,-4.971462,-1.1087887,5.5328627,-4.539811,11.685659],[-0.47380587,4.4679785,0.72926164,-3.787749,-3.0777178,2.0029216,0.35382932,-2.512765,-1.1860771,0.5344503,-0.4586951,0.12613739,2.48259,0.8146087,-2.3041875,7.253703],[0.15185033,4.983981,-2.363956,-2.239346,3.289681,-2.0263147,1.1694342,2.4586754,2.8103008,4.0090375,7.73873,2.3569787,-2.4400172,-0.17705277,-2.0641148,-5.2819796],[-3.4734812,2.9438574,-5.630944,8.971043,-2.1998968,-0.93851846,-2.8742375,-3.772284,0.80356866,2.4155185,-7.413999,2.8583853,-1.1732733,2.2736769,6.6257257,-5.3433266],[-1.3478014,-6.0304604,-8.02181,1.0052172,1.2884289,0.051242653,-5.4392686,1.7550882,-3.4800293,0.56104237,-0.018258326,-1.0441713,0.82237804,-2.4108553,4.964874,2.0526333],[1.5955538,8.404353,-0.2773034,0.9380252,-1.4265665,3.020132,-12.077063,-0.71176594,0.99166775,-0.11330639,6.1156173,-0.45389792,3.2356403,6.51571,-2.0032017,-0.3480072],[3.60022,-2.0006235,-2.375215,-1.7002748,2.4606662,0.465189,-7.8700233,7.012432,4.3911753,-6.369218,2.4297576,-2.2663355,3.2449362,3.0918293,-8.38197,-5.1249857],[3.6135051,1.1482611,-3.298499,-2.3447952,-0.475981,-2.095555,4.581633,-2.7491503,7.2912,1.4603939,7.4945283,-0.6124084,5.5672574,-2.3373294,-1.0609047,-1.2264618],[-1.2809317,-0.8326643,-0.35990876,6.031156,-1.6395166,3.4016888,-5.238618,-3.9169936,-1.0464234,-2.2049453,-0.8149093,-1.8803861,6.773397,-4.824864,0.4861684,-3.9827602],[-0.7143347,-4.614053,6.8564887,6.6818595,1.6284907,-0.9506772,1.1492524,-10.290444,1.0186931,5.573117,-9.741475,-1.3570933,5.247648,-0.5993086,5.290439,1.1940826]],[[-1.2766299],[-0.9264262],[-0.34481817],[1.5171573],[-0.06558299],[0.62636596],[0.1896152],[-1.036707],[-0.7691566],[-0.30755216],[1.794054],[-2.2355237],[1.2204113],[-0.39179847],[-0.10616103],[-0.03573662]]],"bias":[[-13.619517,-21.81432,10.933862,20.368608,15.831184,14.360995,-24.188517,20.261633,26.602167,-29.89299,1.4874306,20.148258,31.94286,19.480936,15.988045,11.779246],[1.0541114,3.4093158,-1.892644,-1.2147292,-0.9130491,-2.6413026,4.913009,0.17930336,2.2911186,-0.89423215,-0.39736044,-5.721574,0.2241769,-3.4264984,-2.7886505,1.8378087],[-2.6361322]],"activation-funcs":["tanh","tanh","tanh"],"comment":"mines sweeper model "}
