{"weights":[[[0.49170074,0.3949481,-0.16874446,0.011303405,0.604871,-0.08007578,0.31085974,-0.14858504,-0.4016065,-0.25828066,0.16025159,-0.34616715,0.48252994,0.5804547,-0.20433809,0.3821508],[-0.26517564,0.245373,-0.1926866,-0.55952275,-0.080636516,0.3871022,0.40860605,-0.16869962,0.2301333,-0.37227607,-0.55498236,0.20944886,-0.09802601,-0.18225986,-0.45010522,0.18074258],[0.3880777,0.46025613,0.005226897,-0.57839173,0.25780067,-0.14916383,0.24767327,-0.70849454,0.0072850836,0.09303477,0.16089407,0.2808107,-0.15383221,-0.040684577,0.2518636,0.18272603],[-0.48932257,0.306946,-0.5520325,0.48321903,-0.20320621,0.16039632,-0.1421489,0.55376637,0.33496636,-0.2778917,-0.13421018,0.16276611,-0.27201235,-0.043530233,0.3518636,0.5697827],[-0.55867314,0.085376985,0.11022565,0.5608298,-0.24645342,0.14288975,-0.43308744,0.27140537,-0.42747688,0.38418922,-0.004824057,0.20704758,-0.3933028,-0.3830736,-0.19165145,0.09510873],[-1.0201132,0.29043928,-0.4132767,-0.17238972,0.012574567,0.511452,0.3484902,0.14014094,-0.1881256,0.10010879,-0.0117225945,0.67195207,0.6969024,0.033667777,0.22855048,0.42076945],[1.031118,-0.1129705,0.08240332,0.5383978,0.4829389,-0.38796866,-0.51777613,-0.5265147,0.13898988,0.19789843,-0.5337169,-0.8208697,-0.51705414,-0.19946763,-0.22095302,0.1637003],[-0.49793863,0.480676,-0.34618917,0.13524012,-0.3695914,-0.8974646,-0.28867906,-0.29330325,0.2081656,0.5995659,-0.5499035,0.21374446,0.5319847,0.5790607,-0.143592,0.44818607],[0.37284645,0.3289581,0.12865935,0.26668274,0.35986608,-1.3941998,-0.29179382,-0.49765438,-0.40878505,-0.2743812,-0.46643707,-0.43492126,-0.22559744,-0.1604953,-0.16535519,0.35645506],[-0.47947526,-0.19605292,-0.6467621,0.106453665,-0.5387465,0.47988933,0.12791611,0.26814833,0.19209065,-0.074808024,-0.509157,-0.15268463,0.12973823,0.4131388,-0.42138293,0.105293185],[-0.35118914,0.14405586,-0.43431678,0.47408915,-0.1528197,0.011982573,-0.47621047,0.4265159,-0.1145417,0.103147425,0.25683174,0.23308948,-0.20051071,0.54275763,0.055856798,0.32107767],[0.5066518,-0.26927507,0.57159615,0.5535876,-0.12361982,0.08491037,-0.062305402,-0.4193461,0.06492003,-0.22508276,0.17451008,0.24782953,-0.058095217,-0.3749681,0.0719821,0.20380661],[0.48877966,0.4346848,0.33320826,-0.3858166,0.1862548,0.2765345,-0.30327725,-0.022391021,0.3095039,-0.29553068,-0.38322866,0.048638403,0.079010665,-0.4496652,0.05572647,0.3604945],[-0.11288191,-0.25906736,-0.13246183,-0.40831426,0.29234385,-0.46128267,-0.06651983,-0.4286873,-0.180165,0.06494584,0.22726229,-0.24905625,-0.047505386,0.5667109,-0.28484216,0.40143389],[-0.0128934765,-0.06306003,-0.06278098,0.065140575,0.1148257,0.4123347,0.37921014,-0.5083797,0.32714313,0.48888534,-0.17529328,0.20134506,0.30507892,-0.31133407,-0.2663639,0.12225989],[0.03942464,0.18462288,-0.9029791,-0.2809972,0.35139564,0.84723866,-0.04709148,0.20379536,0.5245852,0.24468283,0.31261706,0.30927324,0.20257491,-0.24609374,0.33409187,-0.20136376],[0.6384211,0.373483,0.41644067,-0.09719495,0.54351735,-0.087669514,-0.44758976,-0.15636818,-0.50632507,0.62561417,-0.072519526,0.36752427,0.5004893,-0.08744802,-0.31766832,0.54069936],[0.29267544,0.31897554,0.43081987,0.5123043,-0.079997525,-0.358374,-0.23487684,-0.27761716,-0.23878396,-0.053640027,-0.011867649,0.21442457,0.09359097,0.50183654,0.13894767,0.49116656],[0.63391167,0.3688364,0.60029376,0.6044663,0.34880373,-0.07335983,-0.9474467,0.2866756,-0.7410005,0.543516,0.21066971,-0.40239874,0.23621877,-0.119998485,0.019926015,-0.19509979],[-0.3551301,0.26826218,-0.009461152,-0.24102104,-0.39775297,-0.14983422,-0.25308284,0.45111457,-0.21063104,0.4008781,0.12177648,0.15766023,0.2074359,0.4189176,0.17430958,0.24662323],[0.308882,0.19384937,-0.36676237,-0.25405997,-0.009534143,0.14594346,0.030536758,-0.25206602,-0.26869348,0.2362409,-0.26873183,-0.34949818,0.32396197,0.08775649,0.17364253,-0.0061346013],[-0.69415015,-0.21764831,-0.5602267,-0.23805116,0.34319353,0.28629175,0.5774576,-0.50607806,-0.025087038,0.28326023,0.3470664,-0.018869897,-0.3607048,0.2692581,-0.049842034,0.0870478],[-0.09502024,0.071091555,-0.05437781,-0.41791195,-0.25364646,0.52183044,-0.032973118,-0.16048248,-0.3348875,0.251384,-0.44259745,0.0055389497,-0.14095846,0.03440186,0.21601072,0.5317757],[-0.12124597,-0.40788728,-0.0034036639,0.37196532,-0.20760666,0.9834058,0.07103954,0.09976492,0.3738163,0.3006119,0.19664004,0.62583506,0.2211118,-0.25503498,0.18385048,-0.096053235],[-0.52334625,0.13012138,-0.40527248,-0.076603785,0.42353967,0.94337696,-0.24092045,-0.16012096,-0.10634813,-0.3561997,0.34326965,-0.17196347,0.11174031,0.20985702,-0.028786147,0.04754409]],[[0.4118539,0.7897499,0.6646413,-0.49645054,-0.58748025,0.47710785,0.14438519,0.46811348,0.4654366,0.12611294,0.8633898,-0.44713113,-0.20984508,0.11446356,-0.032020256,-0.544795],[0.09880134,0.42688966,-0.34754455,0.14413169,0.5962337,-0.66181976,-0.08475659,-0.06315722,-0.2854945,-0.4231502,0.6162411,0.35950014,-0.051060114,0.021269517,0.55200374,0.10586433],[0.15290967,0.037264686,0.5889213,-0.28359556,-0.17616509,0.09469938,0.38767776,0.38654888,0.1265374,0.6114766,0.55081403,0.08504109,0.11728335,-0.6351406,0.42928627,-0.73504555],[-0.3865204,0.4040862,0.22910485,-0.46107167,0.009969953,-0.097346514,-0.20226564,-0.29796216,-0.3347287,-0.41828734,0.5616633,0.29201955,-0.3922133,-0.17277656,-0.36164656,-0.37394106],[-0.3525581,0.14472564,0.57064855,-0.3266009,0.124954045,-0.098106354,-0.43486592,-0.06341484,-0.32181928,0.46723965,0.47788528,-0.4326134,0.41085577,0.41793913,-0.07603547,-0.15024671],[-0.46170357,-0.9573244,-0.17896166,0.6986434,-0.027164482,0.20048377,-0.56952184,0.48366272,-0.48235863,-0.10627847,-0.9800551,0.5511425,-0.2965486,0.56861573,0.2025914,0.5950727],[-0.4389611,-0.51178133,-0.523196,-0.20771691,-0.07584221,0.57942545,-0.21709158,0.5037614,-0.3455083,0.25157776,0.009942312,0.0327819,0.41470557,0.24210407,-0.31379306,0.66221213],[-0.32386532,-0.20388354,-0.12430379,0.4230145,-0.41452348,-0.03642602,0.25270227,0.13785839,-0.19564156,-0.30175096,-0.098581865,-0.43422163,0.5565503,0.026107227,0.053580157,0.88654476],[0.050160367,-0.24972434,0.074596405,0.3488946,-0.12735185,-0.28169668,0.03074372,0.21468271,0.03319261,-0.0046618525,-0.33055598,-0.21713215,0.3011513,-0.20557941,-0.13189138,0.51629543],[-0.2431666,0.13001812,0.41388625,0.043317173,0.019037902,-0.05197006,-0.30642197,-0.22301017,0.37616715,0.083000295,-0.19988336,-0.0613562,0.36729664,0.48498672,0.45160735,-0.40377772],[-0.23366058,0.14423157,-0.35225713,-0.25100785,-0.38239926,-0.037843052,0.47048673,0.3766336,0.3172877,0.33860537,0.2502265,0.21048404,0.12138706,0.22770937,0.115311265,0.4232165],[0.11659987,-0.4494134,-0.34696302,0.085836165,0.54117286,-0.34366035,0.028309308,-0.33874798,-0.48634693,0.24290578,-0.45819294,-0.37926427,-0.3938151,0.32820356,0.13796376,0.32347092],[-0.33562005,-0.11741169,0.08906336,-0.17098676,0.34793544,-0.18944049,-0.09844475,-0.38555676,-0.41696414,-0.49383593,0.64361584,0.46683365,-0.41129535,0.13734849,-0.06776425,0.18383451],[-0.3289488,0.19715564,-0.110697106,0.4121059,0.33321416,0.23204613,-0.4112547,-0.34642246,-0.113738805,-0.38895062,-0.13244572,0.058715884,-0.16252775,0.036396604,-0.457244,-0.04201703],[0.38704857,-0.32865584,-0.38591823,0.016388774,-0.10855329,-0.31635624,-0.37796804,-0.18637015,0.4605726,0.19552171,-0.103431895,-0.42958704,-0.025178008,-0.21172409,0.18660414,0.24000365],[-0.5080214,0.14055847,-0.05071357,0.15250899,0.4452185,-0.60201305,0.14509197,-0.5459663,-0.08094355,0.13201061,0.10038866,0.54955494,-0.33348143,0.24102724,0.091381,-0.25592762]],[[-0.16259001,-0.115967974,0.6775043,-0.00030098864,-0.1611868,0.32472605,0.22691065,0.5201254,0.21058285,0.13593458,-0.15898833,0.40249404,0.06761683,-0.47833714,0.41409767,-0.063430466],[0.37205845,0.3814248,0.47829235,-0.9263682,-0.37626576,0.1669366,-0.23302522,-0.08029875,0.36225027,-0.049006503,-0.5502892,-0.20447908,-0.4348019,0.19094008,-0.8445677,-0.24160965],[0.41147777,0.28235057,-0.67004573,-1.1406204,0.26277846,0.17831635,-0.096853256,-0.4209697,-0.00804182,0.12898096,-0.3598603,0.41997883,-0.14241916,0.4885556,-0.11734598,-0.64441586],[0.34340444,-0.29415214,-0.07572556,0.25074422,-0.07661401,-0.5426254,0.5469265,0.47187975,-0.099788636,-0.40400726,0.35470933,-0.60558414,-0.1686102,0.06751914,0.014396748,0.14929967],[0.57601744,-0.31355757,0.088291176,0.06150641,0.6163284,-0.0014586998,-0.34423456,-0.0018871354,0.121186115,-0.3289941,0.22814207,-0.44928858,-0.01646528,-0.22196464,-0.432576,-0.45726335],[-0.091709666,0.21650662,0.36897233,-0.13834228,0.31633434,-0.049036272,0.020651532,-0.18024321,0.24626717,0.48483276,-0.154275,-0.2007139,0.5461773,0.21737078,0.1572258,0.47662714],[0.24180582,0.28709832,0.257752,0.12380173,-0.45655048,-0.14580803,0.41904604,0.3992692,-0.15260829,0.48961666,0.30928153,-0.15864784,0.34670162,-0.1569698,0.070851244,-0.1804228],[-0.034139846,-0.2126089,0.56171536,0.136033,-0.0997396,-0.31845582,0.46914858,0.27708286,0.5958322,0.092380725,0.5316217,-0.027075715,-0.12092644,-0.11666257,0.26586038,-0.01992557],[-0.47921452,0.5348395,0.18560256,0.14539406,0.22496222,0.05116835,0.21294932,-0.15069695,0.0035387054,-0.090876535,0.52055657,0.28225946,-0.0835309,-0.56344795,-0.13197841,-0.18309441],[-0.31372973,0.38925487,-0.098209105,0.28101888,-0.28213704,-0.06995128,0.18711036,-0.18826804,-0.028891511,-0.23346058,-0.0957634,0.50420225,0.18800403,-0.49316177,0.27822268,0.5111968],[0.43537298,-0.21978827,0.16295326,-1.0777996,-0.20788693,0.5088373,0.16606136,0.016457358,-0.034337245,0.27139634,-0.64034665,0.29424864,0.27680027,-0.20446658,-0.81029224,0.07877935],[-0.016428176,-0.19813746,0.035146084,-0.5866971,0.12515172,-0.3148455,0.061917465,0.005877659,-0.5162623,0.020287694,-0.1260864,-0.39053315,-0.19549198,-0.038627923,-0.025695646,-0.2832251],[-0.24167044,0.5701857,-0.31568003,0.70541865,-0.52858853,-0.1950605,0.54209894,-0.103507936,0.34294352,0.29554975,0.5902101,-0.044031613,0.39590615,-0.61202055,0.08639897,-0.03469964],[0.23335911,-0.41323936,0.32905868,-0.27677175,-0.06419802,0.2336738,0.40860823,-0.3071588,-0.525122,-0.32925355,0.015760813,-0.37800723,0.29500023,0.38626018,0.1886257,-0.07368062],[-0.2533207,-0.22630516,-0.17876096,-0.43617496,-0.38154486,-0.4423615,0.39703125,-0.19154479,-0.4575706,0.09774721,-0.25237894,-0.29952526,0.46875095,-0.39052147,-0.4593922,-0.31488892],[-0.4537093,-0.26517123,0.25988877,1.1247785,0.35880387,-0.12562892,-0.07941118,-0.3099591,0.24716918,0.12129345,0.8798837,-0.54575795,0.16963618,-0.31257644,0.9040294,0.12090939]],[[0.3255949,-0.0073007154],[0.06791503,-0.28775516],[-0.17551973,-0.17286193],[-0.55253726,0.6149038],[0.14944947,0.05260346],[0.3381446,-0.20779112],[-0.117481574,0.024755815],[-0.25980598,0.029848745],[-0.39113855,-0.023384064],[0.2451553,-0.13350393],[-0.49419242,0.2545661],[0.40556145,-0.36679363],[-0.41302398,0.13152346],[-0.19148314,0.20741159],[-0.52667844,0.26649493],[-0.28887415,-0.034542117]]],"bias":[[-1.1849493,0.8626591,-1.0576663,0.4033029,0.07718523,1.153416,-0.23097211,0.3685944,0.6048211,0.35200602,-1.255115,1.1259391,1.2775879,1.1354277,-0.8607244,1.0088774],[-0.6762879,-0.5608145,0.3836623,-0.09490628,0.120724946,-0.32144624,-0.14486189,-0.41915244,-0.30157945,-0.49241352,0.5954926,-0.07185104,-0.28140262,0.19367586,0.4074052,-0.37067065],[0.46564388,-0.45829386,-0.4534936,-0.33213907,-0.102838665,-0.09186584,0.04069179,-0.7280092,0.1825391,-0.3751154,-0.1663993,0.4148532,0.16012676,-0.310598,-0.11329838,-0.5790158],[0.011786633,-0.7152078]],"activation-funcs":["tanh","tanh","tanh","tanh"],"comment":"more layers"}
