{"weights":[[[1.1357043,2.1605656,1.1499336,0.7344513,0.5232313,0.32788676,-0.08625044,0.17627631,0.010267121,0.23746105,-0.15518168,0.3447621,-0.3582995,-1.8277372,-0.68113184,-1.3972625],[-1.067767,0.2824775,0.3194265,0.6067678,0.27343217,0.5622879,-1.0139358,-1.3459864,-0.9505578,-1.0607119,-0.428317,-2.329537,-0.7887498,-1.8765526,-0.8884361,2.3018336],[-0.062839605,0.032517042,0.25693488,-1.4539229,1.7125419,0.13355045,-0.8159004,0.0837345,-0.8677145,-1.1863556,0.91975087,0.48292372,0.27161697,-0.23515554,0.06487457,1.390845],[-1.6204592,-1.9789771,-1.0477198,-2.0083222,2.3492663,-0.12331174,0.003790131,-1.116277,1.3515425,0.7885776,0.569671,-0.54156816,-0.71515447,-0.16548562,-0.9270945,-0.14323972],[-0.23594868,1.1921662,1.8814787,0.5749358,2.237208,0.4960548,-0.61068815,0.2279078,-0.91367877,0.44729906,-0.92749435,-0.6257058,0.061491244,-0.15633875,0.1326545,-0.43062094],[-0.5057955,-1.0707886,-0.5576831,1.1541831,-0.04743313,0.29625058,-0.05552532,-1.2838922,0.2814484,-0.28875569,0.85650975,-2.1457288,0.45236194,-0.11775304,-0.7278348,-1.0930791],[-0.62883687,5.070947,1.5007628,-1.2351283,-2.8264716,0.4392111,0.16366205,3.533363,-0.6212182,-1.8998542,-0.7308877,4.586476,0.3766531,-1.2268732,-0.48025283,-7.982453],[-2.4744139,2.4667125,3.9138052,0.05327042,3.5903835,0.94796145,-0.7828972,1.2453185,-2.0677433,-1.849258,0.6067397,1.7823573,-1.7034848,-0.42407086,-1.6452043,-5.719426],[0.74843025,4.4559274,8.846211,0.653402,-0.5048292,0.5263106,-0.3168093,0.38496453,0.072220966,-0.063342884,-0.8781904,0.06924187,-0.80665785,-0.57819587,0.3978543,-1.0159153],[-0.26211494,-2.2093825,-1.7856903,-0.83925676,-0.026637206,-0.08915525,-0.30332366,-0.43180108,-0.5402251,0.057076395,0.3330563,-0.726072,-0.06571953,-1.4587876,1.1425679,0.7728145],[-0.037912738,-0.05127699,-0.27831978,-0.8969956,0.4391581,0.20005535,-1.3174832,0.046132136,-2.2833488,-0.3184624,-0.40908524,0.85783535,0.19286631,-1.1070203,-0.74830204,0.79702544],[-0.0146670565,2.8258514,0.750714,-0.8600283,0.0946538,0.6561723,-0.48133695,1.6644167,-0.6312875,-0.37593332,-1.2562714,2.9537375,-1.4862369,-0.39934456,0.51953274,-3.4853406],[-0.3047427,0.21156883,-0.3365711,-0.21166685,0.21389842,-0.2671662,-0.36170307,-0.30732405,-0.42831472,0.35386014,0.22628963,-0.058195114,-0.012569308,0.15120828,-0.30880424,0.2364896],[3.3489354,1.3709197,3.5558567,-1.1222442,0.9036104,0.4083744,0.40681392,-1.717578,-0.80014765,1.0508859,-0.86980695,2.247803,-1.6331091,-0.5401909,0.391508,-4.5735817],[1.2054237,-0.61248034,0.67951375,0.8020096,0.24041082,-0.22065435,0.5976798,-1.5911496,0.0043286784,0.5210507,-1.699578,-0.42342243,0.36414126,0.24130055,0.5784727,-3.2245665],[-1.2920395,-0.40062833,-0.9929021,1.685604,0.2197297,0.2862877,-0.651537,-1.3358719,-0.1527213,0.783559,-1.5105873,-1.3609264,0.815354,0.96166885,0.5163245,1.7552142],[0.1843205,4.0165553,-0.6610983,-1.425259,-1.5608716,0.4650512,-0.71899587,3.5092099,-0.24552104,-2.2028553,-1.3899748,2.2403433,-0.32159597,-0.5585951,-1.1752555,-7.7613754],[3.2356143,3.1914608,-2.0762696,-1.4805404,-3.01524,0.580306,-1.4083482,1.8385712,-0.68427145,-0.8149753,0.60672104,0.4011726,-0.2859981,0.6273003,1.2643636,-5.736433],[7.298105,7.1646295,0.46463338,-1.0489745,-3.061165,1.0760132,-0.6105956,-0.69671154,-2.5909877,0.94798434,-2.7512653,1.6803285,-0.956098,-1.792319,1.040558,-7.447827],[-2.1404274,-0.95826894,0.2319032,-0.772069,0.4161803,0.02046478,0.55564326,-1.1034651,-0.2526633,0.015677245,-1.833392,-0.8532306,-0.4178607,0.7945079,0.5941367,0.17090495],[0.21926472,-0.27639902,-1.3222282,0.35724914,-1.637234,-0.50331175,0.30666402,0.7475978,-1.443505,-0.05122823,0.7008219,-0.41968396,0.07375239,1.508269,-1.2308519,0.32395878],[0.1800783,1.5656722,-1.1263713,-2.2162905,-0.23534684,1.0384704,-0.49215153,-2.7285957,0.01688049,0.6355864,-0.980382,-1.1351942,-0.14085008,-0.9113455,-0.51298404,3.6491365],[-0.20388147,-0.57889473,-0.9212965,0.42272833,0.4511542,-0.16929823,-0.42033562,-0.44490212,-0.92043334,-0.2662404,0.51984304,-0.1074283,-0.680438,-0.01568821,0.56427085,-1.3437369],[-0.5480283,0.7864403,-2.1556003,0.6277982,0.35967293,0.75455827,1.2566715,-0.7140208,1.4727505,0.7197545,-1.4952686,-1.6249721,-0.5940451,0.78128654,0.6169466,1.1729988],[1.95434,-1.1472057,0.7914478,-0.45298427,-0.098069385,-0.40730795,0.30813208,0.8077968,-0.13597833,0.7929471,0.71313417,1.2812953,0.2466913,0.7688121,0.98552144,-0.33723137]],[[0.9948192,-4.4544964],[0.45509005,-1.1992904],[1.3465466,-4.63688],[-0.5032111,1.4668435],[0.17830026,-0.4882878],[-0.8026299,3.5795975],[-0.331342,-1.4291515],[1.028104,-4.890422],[0.9527508,-3.037067],[1.1806122,-2.369975],[-0.266321,0.5800384],[0.9299718,-4.616771],[0.15369181,-1.4842705],[-0.7961548,-0.2170313],[0.4244154,-2.4979138],[0.10076041,2.1372366]]],"bias":[[-4.422904,-0.22444956,-4.620586,-3.0077636,0.2507867,3.2398746,-2.9869738,-3.006097,-2.361883,-2.2346063,-2.0469582,-3.1772938,-2.3566067,-2.7558734,-3.5120635,0.9457159],[2.4990256,-10.08789]],"activation-funcs":["relu","tanh"],"comment":"self learning model "}
