{"weights":[[[0.36104277,-0.46563357,-0.33450964,0.45808455,-0.04095294,0.09756451,0.26863548,0.16615126,0.3591647,-0.23667352,-0.35118213,-0.12991937,0.48807082,-0.030455891,-0.32689303,-0.35245198,-0.468008,-0.1481303,0.45041195,0.2270974],[0.37154216,0.1665443,0.4056362,0.11636922,0.07368243,0.3824202,-0.06172237,-0.08792634,0.12500003,-0.25505012,-0.49999997,0.23268972,0.24995086,-0.36670905,-0.0147532495,0.22029021,-0.35029322,0.006136639,0.33030215,-0.4588331],[0.029453117,-0.4481969,-0.40421557,0.131534,-0.1782882,-0.3689719,0.4320004,-0.13685577,-0.36674306,-0.16723758,0.15773027,0.42977628,0.30675218,-0.34322557,0.08724042,-0.05039213,0.08086732,0.111542806,0.035600502,0.47400305],[-0.16923493,-0.43622386,-0.23533204,-0.33952722,-0.33578128,-0.32770896,-0.17562991,-0.2739034,0.20267929,0.096781254,-0.08169361,-0.1631673,0.25837037,-0.086447865,-0.363626,0.076511145,-0.3564131,-0.063589215,-0.40808892,-0.47153652],[-0.44955158,-0.26205382,0.13055596,-0.058651313,-0.028770857,0.1648001,0.042628977,0.12493092,0.0930399,0.2576114,0.16047743,-0.27074566,-0.48587823,-0.13953243,0.44198605,-0.007950095,-0.16387689,0.069270976,-0.24926595,0.1643967],[-0.10595001,-0.36473194,0.24762487,0.3606319,0.15515707,-0.27185455,0.42873126,0.11506201,-0.4391879,-0.11702717,-0.38710314,-0.25674787,0.35290533,0.00020056312,-0.2884328,0.41995835,-0.04095354,0.4001002,0.21744172,0.29064536],[-0.047408532,0.10858253,-0.4734227,0.12716168,0.09333255,0.4668847,0.22973025,0.04873565,-0.10683057,0.18855123,-0.3618089,0.0030477713,0.52580905,0.024163852,0.2594173,0.28040487,-0.3826603,-0.0041627437,-0.42977586,0.5004214],[-0.36293313,-0.38345668,0.25062853,-0.1792259,-0.100722305,-0.43758854,-0.41092148,-0.13701537,0.36829922,0.22345546,0.06192035,-0.36378512,-0.06378931,0.4834809,-0.35443482,0.20822299,0.019615687,-0.2115202,-0.21028106,0.11934196],[-0.0844635,-0.03144509,-0.29875553,0.19816616,0.010078354,-0.20456228,-0.4354653,-0.3944068,0.22205049,0.12391584,-0.4382715,0.27715987,0.08103036,0.5,-0.28657663,-0.35566905,0.20045753,0.44610977,0.30428684,0.14788628],[-0.02485409,-0.46981367,-0.3358234,0.21635135,0.069109894,0.28143716,0.10280283,0.3637575,0.40897894,0.25610438,0.44142604,0.063422166,0.29659206,0.24408942,0.049334224,0.2442849,-0.16018122,-0.33578148,-0.44371626,-0.08759051],[-0.38697058,0.31964532,0.008488354,-0.45465615,0.18102588,-0.22278275,-0.4102531,-0.41783828,0.14903755,0.18782166,-0.08583317,-0.16927771,0.25275016,0.3457957,-0.01955311,0.4173901,0.23455103,0.4598166,-0.23292804,-0.15470515],[0.0270776,0.31363133,0.4793352,-0.05190996,-0.2772128,-0.33630362,0.018304951,0.0520934,0.4787554,0.12010844,-0.20036398,0.41384304,0.33534196,0.014672239,0.46208745,0.25519434,0.24908291,0.03156303,-0.043003563,0.06754862],[0.100440264,-0.26128256,-0.2058354,-0.104806155,-0.16531274,0.079292655,-0.47851974,0.15649074,0.15699106,0.1585173,-0.37040046,-0.49239194,0.15586084,-0.37835056,0.002031207,-0.47206843,-0.45009044,0.29442775,-0.49727863,-0.35619995],[0.48747745,-0.003581729,0.10601498,0.1803527,-0.10893309,-0.048108183,-0.3428415,0.49613512,-0.21532442,0.25902507,-0.5000777,0.47984815,-0.37495893,0.49999997,0.49136978,0.3269295,-0.16036628,0.20606034,-0.18185292,-0.072157614],[0.14090031,0.31309313,0.33794302,-0.2894149,0.03913097,0.4511288,0.3684888,-0.07605124,-0.33391476,-0.017980559,-0.056975972,0.31176966,0.24156064,-0.5138528,0.334343,0.011466058,0.32933736,0.16903418,-0.015722007,0.06742189],[-0.08049285,-0.40974718,-0.08456967,-0.06064428,0.28207007,-0.43148428,0.3587099,-0.4580271,0.058956437,-0.42991373,-0.018532554,0.3274635,0.11402057,0.13024911,-0.17529039,-0.011298948,0.0380755,-0.11200123,-0.1888172,0.07169579],[0.40863314,0.009528624,0.2262778,-0.45842847,-0.33123264,-0.28201172,-0.39575335,-0.1980184,0.048872568,0.3057238,0.09079979,-0.092000045,-0.1795801,-0.31668344,-0.1225174,0.12412683,-0.2503472,-0.099706784,0.0788764,0.25],[0.4992243,-0.5011552,0.3461134,-0.4641099,-0.18407606,0.23383167,0.301666,0.29574028,-0.18955337,0.35078058,-0.14791459,-0.14338173,0.08709032,0.16470449,-0.11938493,0.4196101,0.42573705,-0.48529255,0.45670128,0.40937063],[0.22391295,-0.50407535,0.20049033,0.29619893,-0.281267,-0.14993086,-0.36843184,0.42103618,-0.35399693,0.16473562,0.14339606,-0.3955807,-0.38628265,-0.3907494,0.008668175,0.15835492,-0.38633928,-0.13859598,-0.041948035,-0.23402295],[0.08774098,0.03680071,0.37029108,0.33853143,0.36801246,-0.3756325,-0.10526273,0.4414113,0.15257534,-0.49045882,-0.088140756,-0.18667096,0.24999976,0.33308497,-0.25042,-0.47417486,0.3272918,0.39301324,0.21182132,0.3965888],[-0.34849107,-0.45168066,0.06812465,-0.22608541,0.43294334,-0.4132504,0.34862944,-0.15685152,-0.45948327,0.3307603,0.13729632,-0.3355034,0.232006,0.095016874,0.27347556,0.21498355,0.33334887,0.4909104,0.13494186,-0.28521603],[0.33853146,0.059701618,0.41184458,0.1536921,0.12128631,-0.30599698,0.39959788,-0.4580724,0.35745782,-0.45926073,-0.29044932,-0.053556018,0.04268767,-0.23033035,0.36780217,0.37614378,-0.2696538,-0.14034505,0.42907023,0.017492497],[0.0032592935,0.16754399,0.42953387,-0.3526441,-0.34825334,-0.30573252,0.08953047,0.3511801,-0.014547092,-0.24070296,-0.4146658,-0.412575,0.3618976,0.27153763,0.28867725,0.12608194,0.24905156,0.053356804,-0.24983393,0.18689719],[0.11982962,0.3342118,0.022342212,-0.02205792,-0.058412276,-0.39227664,-0.18324178,-0.3224059,-0.03738713,-0.15649779,0.3632124,0.14836277,-0.026761372,-0.5315943,-0.41891557,0.123140976,0.021768887,-0.2615488,-0.044031132,0.16808541],[-0.22425184,0.3434274,0.33940035,0.30077702,-0.48886615,0.33861834,0.115243286,-0.29081622,0.38190508,-0.051290188,-0.041851573,0.35745868,0.14475654,0.36129302,-0.26038188,0.14638603,0.27029356,-0.4177231,-0.020220004,0.027620235]],[[0.3916946,0.42390242,-0.019207384,0.30407393,0.26623452,-0.3292074,-0.10038893,-0.33943003,0.41429844,0.34882945,-0.09980272,0.10670838,-0.1813815,0.09771252,0.39351085,0.30903813,-0.04661691,-0.22455771,0.13549402,0.1656603],[0.0044498825,0.42708713,0.37017575,0.10393997,0.26345232,0.25604838,-0.08581771,0.1088708,0.32705277,0.3802482,0.3066275,0.47274697,-0.4452707,0.47623396,0.43455124,-0.406521,0.16826475,0.3042388,0.4004679,0.24575102],[0.367125,0.42817372,0.49999958,-0.050400425,-0.14285405,-0.10257474,0.4391748,0.061533675,-0.49993876,0.17486146,0.08870677,-0.46268398,-0.0025507573,0.0775949,0.12886174,0.2359995,0.01481604,0.4259321,0.29835796,0.031045265],[-0.02403765,0.38703838,0.22669189,0.45304996,-0.4595634,0.4478665,-0.118596904,-0.14188324,0.3621033,0.02188648,-0.434078,-0.12499993,0.14899667,0.38791752,-0.42081642,0.18503232,-0.13698328,0.17499147,0.49902904,0.26774478],[0.3002686,0.15840289,0.32951325,0.4414376,-0.29404864,-0.41767246,-0.3266104,-0.32275406,0.14705685,-0.12592112,-0.15252244,-0.38946724,-0.16137013,0.25461963,0.19711237,0.17876463,-0.20213678,-0.07742186,-0.42092556,0.35067478],[-0.22032349,-0.025032993,-0.49451914,-0.13104694,0.16648968,0.015345004,-0.12647785,-0.28571546,0.11384151,0.30577654,0.1210501,0.0289461,0.29246002,-0.34368107,-0.05955085,-0.26845556,-0.43932283,-0.28177002,-0.42914352,-0.4342608],[-0.3800651,0.15462568,-0.15189767,0.25095555,0.044616822,0.30810338,-0.39235726,0.48225585,0.20134862,-0.34820667,0.47333133,0.35436326,-0.11476292,-0.038673755,0.41401988,-0.48878473,-0.31686708,0.021856718,-0.45612448,-0.2511936],[-0.36032665,-0.2676406,0.027098395,0.46306205,0.4055072,-0.23298591,0.34544995,0.062494975,-0.42392582,-0.32234406,-0.45525554,0.3790707,-0.43785387,-0.027794262,-0.20365182,-0.16850497,0.34516448,-0.14977735,-0.0853604,0.12574911],[0.27708587,-0.32618538,-0.084194705,0.26137677,0.075037666,0.29112962,0.10999781,0.3367471,0.41890493,-0.034483947,-0.0810027,-0.39002693,0.3788582,-0.12376611,-0.2815724,0.05460902,-0.09219585,-0.26915807,-0.076554,0.40911874],[-0.124690466,0.31420982,0.06520925,0.07362233,-0.3863209,0.27637824,0.45537373,-0.25000072,-0.5054858,0.69315976,-0.2798242,0.0634175,0.2313106,-0.08739349,-0.23327442,-0.41332763,0.075861245,-0.12381345,-0.069742456,0.042802624],[-0.14052111,0.2499999,-0.35988745,0.094059154,0.41551682,0.07896779,0.118702665,-0.2812623,-0.23144335,0.19985268,-0.31800786,0.3788957,0.17052366,-0.07757689,-0.10239166,0.35969615,-0.32735407,0.06749107,0.16317487,-0.24556173],[0.18706813,-0.28524575,-0.39894107,-0.46497342,-0.35816282,0.094288215,-0.49164024,-0.21243255,0.24297538,-0.24617296,0.054233007,0.36487445,0.23666099,-0.10852652,-0.2727267,0.23338835,0.0064634676,0.05874507,0.45771566,-0.4943493],[-0.2941008,-0.46602222,-0.4122938,0.477073,-0.42992106,0.46156076,-0.013380486,0.17020388,-0.3930214,0.43063638,0.27593008,-0.4688438,0.34205097,0.3456112,-0.28045708,0.23421103,-0.0065824133,0.1869167,-0.025381312,0.32837585],[0.25013378,-0.44543624,-0.18598057,0.27901065,0.40430957,-0.14696576,0.045685697,-0.10202406,-0.46216527,0.49999958,-0.15205592,0.28087687,0.37760597,-0.0235793,0.36329195,-0.103885956,0.1001786,0.2306307,0.25024018,-0.20369038],[0.4603319,0.0128174415,0.070069246,0.23168278,0.28276077,-0.17768264,-0.48846582,-0.48402753,0.049015276,0.49664235,-0.19623622,-0.22042604,0.37016535,0.035246383,-0.46003452,0.117022455,-0.22117439,-0.33796185,-0.45713046,-0.28841904],[0.01117313,-0.23616685,0.3894934,0.021822426,0.45870587,-0.21516855,-0.20882478,0.0074896985,0.5000616,0.17103347,-0.2770874,-0.38789046,0.44508648,-0.05925807,-0.03871316,0.42270473,-0.42738637,0.1349932,-0.20326155,0.2456393],[-0.44066963,0.45900884,-0.10992979,-0.18354094,0.025191223,0.4776281,-0.37342337,-0.2157513,0.50478655,0.24341068,-0.15045919,-0.36500183,-0.3887229,-0.04288493,0.06931539,-0.14047234,0.089196324,-0.35942656,0.4606917,-0.4837694],[-0.02655891,-0.12499973,0.039170515,-0.38348496,-0.36545926,0.15078974,-0.44003785,-0.43420377,-0.40316513,0.42994097,-0.12012927,-0.06912959,-0.25033784,-0.47952464,0.17796484,-0.3898557,0.20180142,-0.3077446,-0.4317,-0.32431042],[-0.33168724,0.11266018,-0.25000966,0.17836028,0.331947,0.22505108,-0.3314549,-0.17822973,0.09082187,-0.34755793,0.14852256,0.110824525,0.29338127,-0.41505173,0.4027677,-0.3315872,0.36140308,-0.33196992,-0.18118289,-0.29203305],[-0.25,-0.05475924,-0.10969279,-0.052536663,-0.24815334,-0.2351642,0.22722009,0.35695875,-0.14251187,-0.00029095984,0.15766725,0.35597515,-0.3773911,0.46295702,0.16432522,0.5127208,0.32921356,-0.41041356,0.13148554,0.25410405]],[[0.21376006,-0.062422052,0.18703543,-0.22277887,-0.21560408,0.20539787,-0.25792092,-0.1741726,-0.17148323,0.2270288,-0.15128201,0.23611292,-0.18158372,0.117052004,0.49427432,0.21666335,0.1798309,0.39937022,-0.36585382,-0.32339323],[-0.01715284,-0.19467066,-0.16196142,-0.14848985,-0.398959,0.3469664,-0.20054308,0.3988495,0.042947017,-0.42683372,-0.43976027,0.09821802,-0.23452707,0.15411219,0.24375784,0.1767245,-0.27051026,0.12746902,0.35319117,0.44123995],[-0.15725131,0.000067068766,0.09739782,-0.19741789,0.4593421,-0.23279421,0.12673816,0.44983903,0.051644348,-0.08329237,-0.3639776,-0.19631806,0.115259185,0.30157673,0.17895284,0.3799842,0.08895997,-0.17193022,0.36518076,-0.16898976],[-0.39103052,-0.09397739,0.24841297,0.50067395,0.24329308,-0.114591986,-0.15287313,0.05783946,-0.4696986,0.2249769,0.3294078,0.076706335,-0.10968592,-0.02026291,0.07013263,-0.35507828,0.38275993,0.28384316,0.229905,0.24193959],[0.34401527,0.049114287,0.498383,-0.12209389,0.33586565,-0.12901519,0.10358682,-0.4836993,-0.2408502,-0.06466677,-0.291406,0.066492155,-0.32111752,-0.43034562,-0.41748628,0.49072278,-0.42243463,-0.14280769,-0.086541295,-0.5000121],[0.4289314,0.44735065,0.31806806,-0.48772138,-0.18125963,0.25591475,-0.08831305,0.16310841,-0.031361148,-0.004345451,0.34523135,0.05149833,-0.43933392,-0.1475637,0.431966,0.2697988,-0.43300888,0.49561283,-0.09674728,-0.031000964],[-0.28784224,0.45616338,0.102952346,-0.37944368,-0.13101421,-0.36252475,-0.3896686,-0.0324639,-0.33986408,-0.39279768,-0.2952855,-0.3062808,-0.17395444,-0.24990438,0.20441537,0.49612352,-0.36623108,0.13469222,0.46719208,0.024355775],[-0.4742296,0.20864911,0.100427,0.33519647,-0.005676802,-0.18260033,-0.28670496,-0.23046595,-0.05705082,-0.3736554,-0.4961813,-0.48091966,-0.44430757,-0.34446925,-0.034847178,0.2800692,0.46046188,-0.09364442,-0.37111697,0.43193167],[-0.10519444,-0.28137562,-0.24449494,0.5133448,-0.34938213,-0.07119915,0.46416458,-0.34698254,-0.43313935,-0.3281383,0.016236538,0.40127876,-0.0029442967,-0.08427583,0.23435578,-0.2070692,0.020226503,0.18504535,0.37366396,0.14782205],[-0.30612335,0.3794643,0.4395581,-0.45371428,0.2840541,-0.17680244,0.107757,-0.047914892,-0.15030062,-0.4091606,-0.4581863,0.25785792,-0.27033803,0.39475158,0.018705612,0.021982826,0.35490844,0.05803884,-0.25000563,-0.17518596],[0.16284335,0.49955654,0.16245656,0.3802956,0.14319696,0.37697914,0.1292781,-0.41520765,-0.47122973,0.1610292,0.27943784,0.28876448,0.47587165,0.07552674,-0.2978262,0.4939534,0.0833587,0.15379566,0.21607624,-0.26746586],[-0.23383594,0.06783499,-0.15349631,-0.21078576,-0.085862204,0.2050437,0.30725026,0.26489213,-0.45242092,0.28232574,0.15486604,0.13763687,0.046430327,-0.32350808,-0.48655584,-0.11970878,-0.3728453,0.24755168,-0.17024785,-0.31478715],[-0.065193914,-0.4787524,-0.34392068,-0.2859312,0.34202686,0.42245486,-0.012414014,-0.34767058,0.36949173,0.012193376,-0.45891404,0.2137193,0.1753209,0.49856228,-0.18176936,0.04205641,-0.4983222,-0.19612888,-0.4316128,0.20231156],[0.24029316,0.10331204,-0.002402759,0.41170692,0.42072096,-0.03604273,-0.38974297,-0.16758522,0.19146442,0.11586324,-0.101804525,0.41361725,-0.32018426,0.38580894,0.09804871,-0.23466687,0.23486759,0.11868152,0.32725307,0.063317984],[-0.45300907,0.5,-0.036474183,0.19350086,-0.39425975,-0.102086745,-0.037233833,-0.24488966,-0.37042934,0.18059927,-0.21047316,0.3166284,0.20871347,0.33439234,0.019522132,0.44930518,-0.28780714,0.24987252,-0.101673335,-0.4438944],[-0.43659952,0.46931964,-0.14832029,-0.3770429,0.3654924,-0.16623738,0.21187207,0.3844101,-0.18963191,0.08877268,-0.14411159,-0.03557522,0.26031944,-0.048665322,-0.02548675,-0.29390508,0.027984664,0.35139745,-0.3742491,-0.47813845],[-0.09917935,-0.013005612,-0.022940122,-0.2320016,0.34812173,0.17718732,-0.4466138,0.31881174,-0.36232367,-0.42144778,-0.18373379,0.34191936,0.12885211,0.45657042,0.47748065,0.38300303,-0.3923251,0.30532894,-0.23720378,-0.13285409],[-0.48725075,-0.17942587,0.468474,0.22343527,0.39604908,0.27839965,-0.4371513,-0.192291,-0.20101498,-0.21763934,0.06644345,-0.21169329,0.038968958,-0.027837304,-0.1253663,0.42616263,0.34226897,-0.21931937,-0.0031060982,0.0131738195],[-0.055525508,-0.01930923,0.3918865,0.1231276,0.36777627,0.13926838,0.48604357,0.027701791,0.31247064,0.058252547,0.40925288,-0.054454107,0.3497138,0.38145864,-0.27584165,0.39487246,-0.48642328,0.09160966,-0.20357907,-0.350543],[-0.40488133,0.28037292,0.004601011,-0.14399792,0.46197215,-0.02863221,0.34462008,-0.18757568,-0.037288148,-0.21488355,0.025873343,-0.115637034,-0.50805604,0.31232876,-0.3533497,0.22834009,0.3493974,-0.048292436,-0.4745185,0.327702]],[[0.17942896,0.21799278],[0.35726282,-0.00057393796],[0.12915134,-0.51749337],[-0.30680647,0.27671984],[0.33775437,-0.48670208],[-0.14425628,-0.17238724],[0.3462145,0.38044932],[0.4072616,-0.18123853],[0.44011036,0.41261774],[-0.053076018,0.27692595],[-0.41465083,-0.16390058],[0.38196495,-0.46265462],[0.13903974,0.45867342],[-0.16348983,-0.097398646],[-0.125557,0.3580689],[-0.06207795,0.21057677],[0.4448722,0.23966001],[-0.19935021,0.49999994],[-0.41159755,-0.35939685],[-0.43016008,0.019855423]]],"bias":[[0.24139583,-0.5100728,-0.48510844,0.3518168,0.17374404,0.22354977,-0.19613954,0.21119608,0.3551304,-0.3447658,-0.44128808,0.4817837,0.032121304,0.38477856,0.4718355,-0.35429063,0.24937709,0.2150854,-0.3542701,-0.36054263],[0.14109471,0.47371784,0.21800841,-0.045195106,-0.27350017,0.17674647,-0.47530162,0.41204223,-0.050114546,0.35110453,0.06533165,-0.30538037,-0.02503565,-0.18702671,0.043194775,-0.3702132,0.23677115,-0.10858045,0.2483371,-0.36069483],[0.39031494,0.12232345,-0.49623936,-0.123669825,0.2027344,0.48321167,0.08961841,-0.10419199,-0.2138222,-0.3393653,0.15702641,-0.46253762,-0.3839639,-0.41864026,0.46584773,-0.12499967,-0.41114515,-0.4015289,-0.3604179,0.42698345],[0.402076,-0.26652744]],"activation-funcs":["tanh","tanh","tanh","tanh"],"comment":"holy fuck so many neurons"}
