{"weights":[[[-0.43456247,-0.486784,-0.18994868,0.16427425,-0.2348645,0.32761776,-0.099698275,0.10047312,0.0035731264,-0.22699979,-0.18229654,-0.23033643,0.48145235,0.47812155,0.49496108,-0.10691948,-0.020412607,0.49917623,-0.4521513,0.27273753],[-0.08297619,-0.23937647,0.29896224,0.38416132,-0.4701308,0.23775698,-0.08783647,0.3984574,-0.19885963,-0.2891858,0.3779419,-0.25876325,-0.35136753,0.19652653,-0.09122137,-0.2975038,-0.47585404,-0.33644155,0.110393815,-0.111347266],[0.4711613,-0.422646,-0.24192348,0.17491099,0.2920822,0.01828522,-0.038297754,-0.4257788,-0.001459991,-0.279253,0.079402864,-0.13558064,-0.19071457,-0.4022311,-0.45703,0.17991714,0.2109496,0.24710372,0.25123695,0.19066295],[-0.062449515,0.18550363,0.4711153,0.073050804,-0.15836212,-0.446858,-0.26722246,0.31621927,0.0813441,0.140737,-0.19155326,-0.3252236,0.28054094,0.363533,0.4536525,0.1528928,0.11921131,-0.18942384,0.38736188,0.1750913],[0.102993906,-0.061636146,-0.046033382,0.051791787,-0.38857841,0.30775726,0.46966198,0.4294622,-0.299229,-0.17512855,-0.03369835,0.38520154,0.17452466,-0.32239464,-0.13532458,0.16818208,0.15678024,0.44385615,-0.3731873,-0.15322411],[-0.024117887,0.14150324,-0.20674789,0.15525685,-0.33823624,-0.14088668,-0.18943632,-0.35502228,-0.36466032,0.36636233,0.2522903,0.43923813,-0.2949223,0.17141749,-0.16968273,0.0825488,-0.23953913,-0.06620023,0.10419058,0.4407015],[-0.25528657,-0.065084435,-0.37412047,0.20313147,0.06905134,-0.0060158283,-0.4818301,-0.35310775,-0.24521546,0.26138622,-0.383629,-0.1646597,0.12210876,0.13818601,-0.13301773,-0.29084593,0.33628464,0.41793048,-0.20003262,-0.49399766],[0.14277446,-0.19006395,-0.30269706,-0.4698221,-0.05515934,-0.1571227,0.338003,0.2287772,0.18528406,-0.40607184,0.178779,0.48962286,-0.2208749,0.51153624,0.403877,-0.36936605,0.05411284,0.021530287,0.31542793,0.45390674],[0.04130715,0.13629717,-0.056441918,-0.14739501,-0.20473292,0.19970238,-0.35353252,-0.45475405,0.044951368,-0.29645473,-0.29829377,0.10876688,0.3058926,-0.12525631,0.19913857,0.44193286,-0.020074213,0.2450301,0.3541447,0.3542554],[-0.21897611,-0.32206044,0.16103518,0.43217674,-0.36537609,-0.12857728,0.07159734,0.46199414,0.42496288,-0.29401347,-0.11841422,-0.18924946,0.25384468,-0.004955871,0.20744054,0.4264748,0.17294163,0.06379633,-0.43285856,0.054908417],[0.3663972,-0.44106305,-0.49351442,-0.41913858,-0.2930571,0.14767136,-0.16036884,-0.10746237,0.10153831,-0.036249787,-0.08047512,0.06939876,0.29754394,-0.11848293,-0.31588048,-0.24155053,0.28039017,-0.38735792,0.15303011,-0.022117415],[0.15622008,-0.16651301,0.39396888,-0.10668949,0.42585668,0.00077158003,0.001149469,-0.11653761,-0.026526725,-0.30089837,0.24263847,0.0058296476,-0.17874509,-0.26805657,-0.11433835,-0.4868441,0.21496205,-0.24809144,-0.3520646,-0.45700806],[-0.30943954,0.4819383,-0.19152492,0.30616522,-0.045282096,-0.21362326,0.41500163,-0.09807232,0.06492072,-0.117705226,0.07769215,-0.17456499,-0.39713457,-0.33718002,-0.17751682,0.08810222,0.10118836,-0.42440382,0.12359053,0.2080276],[-0.16220635,-0.44984585,0.39842594,0.13350977,0.20685807,-0.31487533,0.39517075,0.37858316,0.17436726,0.4949352,0.13574809,0.33906662,-0.016990494,0.2652079,-0.495585,-0.43557394,-0.40897816,0.14320107,-0.4274848,-0.074963585],[0.309945,0.3070591,-0.4868975,0.37547696,0.031835143,0.42932436,-0.14622174,0.35938576,-0.4782908,0.3837433,-0.4652337,-0.26845986,0.4465294,0.22078082,0.21708748,0.40252852,-0.21603793,-0.33615196,-0.2134221,-0.43876043],[-0.079202265,0.11965586,0.06262356,-0.17017858,0.4786864,-0.27527124,-0.33420816,0.36682415,0.18413189,-0.23207712,-0.3995617,-0.23288806,-0.04861316,-0.017448345,-0.09278683,0.44450969,0.4152049,-0.4303432,0.18593723,0.08081524],[0.08807844,0.32610965,0.39231104,0.26173994,0.0803498,-0.44341838,0.2025717,0.3546717,-0.15135778,0.34855986,0.4192837,-0.13042203,0.2939331,-0.048847526,0.41560483,-0.16165617,0.3150036,-0.44577676,-0.40582162,0.1522937],[0.021874309,0.4709244,0.48533326,0.12674813,0.12627146,0.20727777,0.18732119,0.005463384,0.21783596,0.10371268,-0.052015007,-0.012326323,0.10466474,-0.13500926,-0.4069696,-0.41298455,0.27675596,0.09717877,0.079325065,0.38678494],[0.05009252,0.31472412,-0.192209,0.3418449,-0.33835584,0.20929125,0.50391906,-0.30060926,0.33584246,0.08307445,-0.014014989,0.19964969,0.27660376,0.17691863,0.14380763,0.36090657,0.4825014,-0.25422588,0.1987592,-0.25826463],[0.044849932,0.43636853,0.24829853,0.06885016,0.22086047,-0.4017216,0.29195273,-0.09044541,0.10056036,-0.43051225,-0.35196495,-0.16742688,0.1989932,-0.33854413,0.024365515,-0.26258916,-0.37452766,-0.1866941,0.10575566,-0.29479152],[-0.00854519,0.08676338,-0.4649938,0.0025481805,0.2973889,0.278767,0.37153172,-0.094483055,-0.19936903,-0.36988464,0.38884127,0.2172921,0.34318078,-0.026506705,0.34046924,0.057850834,0.100874685,-0.3608562,-0.20753857,-0.06636788],[0.30534822,-0.24654992,0.08035916,-0.3247651,0.37361592,0.43653762,0.32049185,0.14578862,0.19199082,-0.1857793,-0.08069745,0.39352497,0.015658915,0.26271766,-0.06356076,-0.49213067,-0.21774958,-0.06596232,0.47704077,0.15809108],[-0.13311416,-0.45212597,-0.48179144,-0.38653642,0.07369334,-0.14036739,0.25105163,-0.21353018,0.5030842,0.1344648,-0.026327223,0.16099226,0.46241397,-0.16322452,0.27401465,0.104785725,-0.43542218,0.32043436,0.2761395,-0.09206627],[0.021321654,-0.15628026,-0.10165134,-0.1776619,-0.4607846,-0.203915,-0.3398365,0.2928589,0.3843363,-0.39516845,0.46619517,0.11303759,-0.34819433,-0.17841934,-0.19927336,-0.49437416,0.28883487,-0.36544684,0.153787,-0.49248052],[0.06073433,0.06580463,-0.41107205,0.48594826,0.20928313,0.16982469,-0.27024394,-0.09956549,0.2851089,0.111679256,0.25798732,-0.49104926,0.064670384,0.092769764,0.39406905,-0.3711358,0.42265394,0.1519498,0.38895306,-0.40468076]],[[0.49434888,-0.25966212,0.10997349,-0.32916313,0.49606234,0.030747533,0.03177315,-0.13414851,0.23830229,-0.37991777,0.42318028,-0.015722126,0.08342737,-0.17481953,0.06670493,-0.08202195,0.40771532,0.4820866,-0.30138668,0.15814537],[0.44386882,-0.469101,0.28205395,0.22032407,-0.4295176,-0.1442538,0.46409798,-0.17673638,-0.49320114,-0.28656605,-0.3542743,-0.45118576,0.010968864,-0.44563115,0.08939545,-0.083913624,0.4106083,0.35130244,-0.056259204,-0.33297935],[0.49031693,0.05656612,-0.44209814,0.033734,-0.42904055,-0.49863124,-0.47388247,-0.33029342,0.13555259,0.19423807,0.07544023,0.36840916,0.28579056,0.3717332,-0.44517416,-0.006033987,-0.43964165,0.45280623,0.24787009,0.0862183],[-0.32551822,-0.21432933,-0.48475674,-0.4472646,0.050437927,-0.32491988,0.2944145,0.03056126,0.107428014,0.39780116,0.13003331,-0.28922293,0.08311701,0.17233062,0.18807374,0.05497539,-0.32457653,0.015662014,0.021405991,0.015854374],[0.034897327,0.21479398,0.2948326,-0.1736416,0.2914678,-0.09664777,-0.272421,0.49367926,-0.1466744,-0.37558046,0.22473365,-0.14292088,-0.022065341,0.42007375,0.07837343,-0.0074604154,0.3984862,0.44107103,0.47862363,0.16452746],[-0.014702081,0.20861068,0.491926,0.4193934,-0.015470319,0.1514536,-0.35682636,0.017218316,-0.14810032,0.07295649,-0.01392594,0.10989845,0.12531942,0.4612799,0.21569839,0.11503142,-0.4504255,-0.46057746,0.45375818,-0.35919532],[0.4041999,-0.26512375,0.27917373,-0.001416994,0.35883582,-0.10896614,-0.43092415,0.12393496,0.43345594,-0.2681794,0.42765844,-0.008753806,0.2590943,-0.49307418,0.49676085,-0.24482405,0.29068238,-0.20047867,-0.023885505,-0.3962583],[-0.0004633395,0.14914626,0.24077684,0.35101166,-0.41659224,-0.0478238,0.35706958,0.46018574,0.41473097,-0.41010943,0.3830505,0.45111126,-0.23926434,0.22116531,-0.09082907,0.12313515,-0.3560058,-0.39659584,0.4555002,0.14087176],[-0.23122348,-0.25101662,0.27432132,0.00424482,-0.47672012,0.23259154,-0.35117292,-0.052250713,0.49474287,-0.4473359,0.19292533,-0.09730041,-0.26418614,0.26449642,-0.31845155,0.2850814,0.0005152156,-0.1608648,0.31996313,-0.009810367],[0.30918723,-0.44110364,0.4773875,-0.42387253,0.3396545,0.14176232,-0.39271712,0.41650605,0.15376937,0.07535589,-0.41062862,-0.36187327,-0.48634267,0.1695106,-0.29907084,-0.34738582,0.47678876,-0.17435732,-0.20567647,0.4479351],[0.45684427,-0.1740185,-0.2899626,0.2339732,-0.40727678,0.0668003,-0.22336617,-0.473904,-0.4555708,-0.30919757,0.024955153,-0.15548837,0.39389366,0.038977742,-0.010803968,0.15220511,-0.41473204,-0.34468445,0.13000727,0.28277802],[-0.06764268,-0.24597184,-0.18980822,0.28187406,0.040668275,-0.052039817,-0.168185,0.44870073,-0.18765578,0.47154593,-0.33930975,-0.39916733,-0.15256962,-0.113987535,-0.21561706,0.2745152,-0.42861706,-0.11175281,0.16742066,-0.008803038],[-0.10622051,0.19740748,0.2378692,-0.18791999,0.03285539,-0.118511975,0.036753356,-0.05837612,0.2645697,-0.1336613,-0.4909033,-0.31533226,0.2948522,-0.3098899,0.022170665,0.19611436,0.094661295,-0.08264348,-0.090485625,-0.22474323],[0.2998256,-0.2312482,-0.39129117,-0.008922134,0.14398187,0.37246683,-0.37956348,0.37673512,0.1045326,0.33819687,0.30538142,-0.480972,-0.474536,0.061903983,-0.29780042,0.037700832,-0.12331515,-0.122351915,0.3452572,-0.21572262],[0.3672114,-0.05442656,-0.46931592,0.094375975,-0.45483935,0.15230021,0.38397524,-0.06643162,-0.0229491,0.41400617,-0.43609452,-0.094427854,-0.19479606,-0.21989106,-0.078051925,-0.11708167,-0.3181272,-0.010007739,0.42564145,0.26124784],[0.20706412,-0.30613756,-0.030614763,0.42869478,-0.33957076,-0.33538464,0.032693848,-0.2558257,0.25280684,0.30543596,-0.2603129,-0.1321648,0.15367806,-0.011672729,0.43957788,0.023610711,0.23199378,0.31359792,-0.003511569,-0.15054618],[-0.10009563,-0.46700376,0.20702296,-0.20928575,-0.36996442,0.42755654,0.4126438,-0.25457197,-0.024095684,-0.13193503,0.2589714,-0.29739422,0.37257272,-0.41087258,0.18729569,0.080164015,-0.06486408,-0.37186992,0.00076733186,0.39263296],[0.19399574,0.42983562,-0.014482945,-0.27416676,-0.21362674,-0.29526222,-0.11512682,-0.47657377,0.105092585,-0.43138275,-0.35404095,-0.27150333,0.19465423,-0.088610366,0.084469184,-0.034558654,-0.17310885,-0.072784126,-0.26016638,0.20344102],[0.2409928,-0.12873301,-0.31368306,0.32083204,-0.49270737,0.04460318,-0.15051888,-0.116858445,-0.2004166,0.42312732,0.31280577,0.008139133,0.091814876,0.32588556,0.062111575,-0.4838274,0.31886014,0.019205153,0.37996885,-0.41704184],[-0.271883,-0.42349613,-0.039978534,0.2739091,0.27508396,0.41146845,-0.47479343,-0.35950646,-0.26177514,0.12107524,-0.13199398,0.4285419,-0.13260466,-0.4361723,-0.39817414,-0.039635092,0.27281597,0.45924407,0.15103525,0.020171903]],[[-0.09196087,0.34218156],[-0.06467563,0.1989991],[-0.49099582,-0.14725369],[-0.13454601,0.42259482],[0.10169363,-0.37212974],[0.23090647,0.07473551],[-0.1480804,0.4518107],[0.26033396,-0.018836848],[-0.38817745,-0.028735131],[-0.28440455,0.24944726],[0.31412125,-0.4041704],[-0.35349166,-0.029503316],[-0.49954158,0.31592357],[0.14981645,0.233465],[0.10747578,0.30575275],[-0.31829298,0.4799053],[-0.3037709,0.30844393],[-0.24210072,0.30880028],[0.15464167,-0.18620259],[-0.15877953,0.3841578]]],"bias":[[-0.44986728,-0.025115926,-0.34629893,-0.11586844,-0.27935025,0.3110101,0.01614134,-0.08602856,0.049128428,-0.34170806,-0.48630378,0.39105037,-0.48429358,-0.23435423,0.06620508,-0.030656131,-0.32317683,0.37484,0.37330422,0.16302773],[-0.39558843,-0.15253793,-0.313014,0.3178422,0.06334281,-0.06323331,0.10270043,0.08670302,-0.41287187,0.1756536,-0.44098777,-0.44975525,-0.34005362,-0.30709177,-0.01152789,-0.41857094,0.21182156,-0.49730855,0.32702002,0.12508205],[0.090771705,-0.21165216]],"activation-funcs":["relu","relu","sigmoid"],"comment":"yep"}
