{"weights":[[[-0.42677805,0.1771894,-0.3201196,0.478178,0.4851664,0.43317544,0.02064865,0.034570467,0.22628221,-0.043037087,-0.19487834,-0.3597103,-0.043281537,-0.08975454,-0.056341983,0.44985518,-0.47289306,0.4368747,0.14467007,-0.44564983],[0.18921256,0.20460053,0.3147068,0.32652426,0.12809671,0.07623082,0.27212024,-0.031042103,0.109019876,-0.3480807,0.008585154,-0.2379088,-0.13494492,0.46039045,-0.35374328,-0.43059403,-0.29941636,-0.039698333,0.41579735,0.42934003],[-0.2745332,0.4150051,-0.14572401,-0.35951945,0.10440428,0.06208819,-0.41708273,0.050545093,0.27603775,0.25132173,-0.15516087,0.43036598,-0.11180829,0.4003629,-0.47298902,-0.43504685,-0.3127362,0.26263583,-0.32673213,0.32822385],[0.46794313,0.22733724,-0.39927238,0.2963823,0.3551216,0.11400789,-0.23687136,-0.08629647,0.016930697,0.33342987,-0.12218022,0.33581674,-0.4463769,0.13234133,0.4144569,-0.4047652,-0.21288452,-0.18886203,-0.3649933,0.49049497],[0.13976109,0.09365189,-0.28649145,0.26652372,0.32304627,-0.17880729,0.28866392,0.38283658,-0.33060592,0.07819253,-0.025394915,0.04778707,0.30859888,-0.43962055,-0.43130437,0.0076757073,0.30269766,0.27840233,0.40890127,-0.07829556],[-0.13870528,-0.13072456,0.4713713,0.06883823,0.32423425,-0.35775715,-0.43310568,0.4809423,-0.4466055,0.38842726,-0.025120348,0.00944185,0.010987343,-0.28195676,-0.40330094,-0.4175157,-0.33801907,-0.40808332,-0.43971437,-0.42926848],[-0.27307308,0.25755417,-0.30039892,0.2714157,-0.4050899,0.23514847,-0.24618354,-0.47485092,-0.42301038,-0.27887854,0.17013651,0.013929143,0.16017866,-0.0691033,0.17146833,0.24431634,0.36602658,0.32104486,0.38256407,0.42961362],[-0.3843438,0.47853157,0.08634673,0.028657231,0.31204292,0.23098062,0.13430257,-0.05465515,-0.057945266,-0.11167586,0.05385792,-0.455501,0.44674757,0.09043076,-0.13556491,-0.25717977,-0.0025952721,-0.4734383,0.39913398,0.1562595],[-0.32363683,-0.27609447,-0.30692744,0.48003408,-0.09740223,0.4428903,0.39248812,0.17199294,-0.38324937,-0.27420145,0.059939258,-0.41128197,-0.4139642,0.2747158,-0.48362103,0.15891746,-0.13789487,0.09773266,-0.29648215,-0.24989457],[0.2788884,-0.28911397,-0.38216287,-0.3950849,0.3742222,0.29864377,0.15614577,-0.37964815,-0.13146819,0.08273888,-0.054274473,-0.16827346,-0.1605946,-0.03824169,-0.27536148,0.42102423,0.4801054,-0.31031272,0.04126072,0.2614431],[0.47430992,0.47633016,-0.12298958,0.27139363,-0.32482487,0.3048382,0.20539317,-0.04051764,-0.27929604,-0.19976032,0.032214418,-0.180122,-0.38599852,-0.49670404,-0.2958751,0.112975046,0.4949022,-0.3837209,-0.25542927,0.18603271],[-0.036328524,0.33903903,-0.49978125,-0.20735674,-0.4569784,-0.1916954,0.223849,0.2634256,-0.15950981,-0.11205244,0.4800499,-0.332453,-0.22070295,-0.12162491,-0.25232697,0.1881394,0.47464573,-0.008689046,-0.23816943,-0.38322517],[0.19891283,-0.15260856,0.3728131,0.00018160738,0.06028959,-0.07044446,0.02991376,0.49050504,-0.42677388,-0.050403442,0.4107095,0.36972263,-0.12093744,0.12347459,0.38577074,-0.33272165,0.2506347,-0.32525143,-0.38529536,0.05746751],[-0.13352159,0.21042812,0.11695581,-0.3592019,0.14983393,0.4029045,-0.13721755,-0.38759542,-0.47854888,0.15455973,0.3390721,0.09569561,-0.47426185,-0.008931541,-0.021233259,-0.40461093,-0.26405805,0.21268451,-0.33045578,0.49790215],[-0.072521985,-0.30464423,-0.07534686,0.27729815,-0.32301205,0.36716437,0.41014957,-0.22816843,-0.38354015,0.42938304,-0.25404385,0.3143419,-0.49652284,-0.3763614,-0.30059868,0.26913744,0.43023187,-0.238491,-0.16487414,0.30233037],[0.1688481,0.49229395,0.049541067,0.029867321,0.031640675,0.17167097,0.37386617,0.19511916,-0.31503883,-0.1641235,0.20171429,-0.0458304,-0.06892986,0.12652616,-0.10763148,-0.25938076,0.37431914,0.16124463,-0.22779202,0.0203109],[0.19550055,-0.106380336,0.10526579,-0.29848304,-0.027817376,-0.008868928,0.19526854,0.3759138,-0.007457811,0.4542992,0.44424036,0.43887052,-0.07106998,0.37522626,0.27250978,-0.19584167,-0.09875755,-0.27210325,-0.388081,0.17139505],[-0.4832943,-0.11752377,-0.4205107,0.4537463,-0.4468241,0.25077996,-0.05267132,-0.24738489,0.43154544,0.0642063,-0.013719793,-0.06927067,-0.2474858,-0.34026155,-0.30759948,-0.04729635,0.04094282,-0.27188385,0.23481864,-0.38062444],[-0.34846884,-0.34829283,-0.39804587,0.04081281,0.2379481,-0.1802645,-0.2287063,-0.15916699,-0.18157165,0.14406961,-0.05929188,-0.1085482,0.03340836,0.4882921,0.17584702,0.49954474,-0.052966364,-0.22489664,-0.45108652,-0.12485414],[0.39261937,0.39012468,0.18621379,-0.32377735,0.40464938,-0.4752924,0.41454223,-0.4576705,0.376232,-0.4007899,-0.08594357,0.48571664,0.4903641,-0.09015107,-0.042315368,-0.13024119,-0.3906741,-0.17730197,0.2830339,0.042510025],[-0.071039945,0.38177258,0.46247977,-0.29794165,0.028361104,-0.29477534,0.17311877,-0.07610018,0.09562948,0.35512727,0.010997599,-0.22375348,-0.07687495,-0.22247155,0.26358324,0.36387736,0.3488781,0.31514454,0.1908763,0.40289542],[-0.44804806,-0.13832554,0.22363874,0.047068294,-0.09755904,-0.30756018,0.21158765,-0.46029815,-0.47720265,-0.30670768,0.15186025,0.47762394,0.20937835,0.24410811,0.0477737,-0.42683885,-0.34719035,0.4970411,-0.33657438,-0.42358932],[-0.14766443,0.0026718287,0.36527905,0.28499347,0.24426602,0.17255844,-0.06661616,-0.34086367,0.39572188,-0.26601562,0.14480008,0.3946694,0.25522175,-0.44884577,0.123739764,0.25516674,0.032378547,0.17887509,0.09144622,0.0090083],[-0.3604756,-0.3603593,-0.069440424,0.049499024,-0.22428344,-0.47829342,0.097624645,0.15609244,0.062362127,-0.31121284,-0.42584568,-0.2605812,-0.4707193,0.3756638,0.13246422,0.3146223,-0.2756499,0.0443356,-0.45673105,-0.038987644],[-0.44759402,0.44755235,0.30446044,-0.0017567835,-0.048918754,0.02435085,-0.43464276,-0.3870866,-0.49624935,-0.17203277,-0.35004342,0.35386127,0.13547377,-0.1709412,0.06991957,0.035481792,0.19714385,-0.13742775,0.2911427,0.14278057]],[[0.23208357,-0.0068406584,-0.0024685266,0.4132961,0.32188007,-0.038575966,0.3206107,0.49527773,-0.2424982,0.09691497,-0.12442943,-0.066048265,0.0047084703,0.29727077,0.24654439,0.34827456,0.30162936,0.15858045,0.2822158,-0.08701503],[0.078113,0.090740606,-0.057986647,-0.29451513,0.24768776,-0.3175229,0.16218795,0.31212038,0.14237283,0.095097594,0.37744457,-0.22720663,0.091859154,-0.25962073,-0.183042,0.12686044,-0.28684923,0.14047334,0.47600216,0.29673314],[-0.0065879906,-0.30858558,-0.35233402,0.26562065,-0.19829482,-0.2629109,0.017269593,0.4692014,0.44710156,0.3324941,-0.24579261,0.29466632,-0.33111048,-0.47872752,-0.23327613,-0.08228286,-0.3990706,-0.06566051,-0.0481867,0.080815785],[0.23510571,-0.123785585,-0.19626132,-0.18225646,0.12348375,0.40011427,0.39251083,0.12041601,-0.4630803,0.13892101,-0.035764966,0.08182919,0.014836076,-0.033278406,-0.35238484,-0.032762434,-0.054842044,-0.49776423,-0.49444506,-0.3314529],[0.41217586,-0.36048722,-0.07103336,-0.36758953,0.386169,-0.4259133,-0.47560558,0.34573182,0.48134783,0.08112297,-0.2939253,-0.40291455,0.10457063,0.03735435,0.41704684,0.30577144,-0.089290924,-0.14170212,0.39106956,0.40404725],[0.1628605,-0.12479641,0.014061451,0.013387025,-0.13239627,0.3971843,-0.28591126,0.38161308,-0.3426955,-0.14435034,-0.44535956,-0.13708471,0.19560665,0.42365134,0.12066523,0.21097402,0.19273154,-0.25346637,0.08182676,0.13634884],[-0.19877665,-0.0353147,0.21347558,0.14129168,0.3517531,-0.050794065,0.41763228,0.40131384,0.41454995,0.3013097,-0.08441609,0.15331775,0.4372347,0.47553664,-0.05933016,-0.037748568,0.42754418,-0.2505113,0.45507357,-0.19726607],[0.44269234,0.40324306,-0.33583674,0.10132021,0.24835235,-0.33636796,-0.26192695,-0.07437215,-0.40290377,-0.2899465,-0.38091964,0.1381555,-0.34348133,0.19208872,-0.20452389,-0.0205894,-0.4645118,0.40618092,-0.45895857,0.22674185],[-0.44375888,0.010086451,0.4503621,0.29811305,0.08738448,0.058131736,-0.2319766,-0.0966557,-0.042470716,-0.43761337,0.081668235,0.013922458,-0.27591187,0.34061587,-0.25548896,0.39303288,-0.37473938,0.3770461,0.2402269,0.020186545],[-0.39991876,-0.4085069,0.20096803,-0.04544207,0.25602624,0.118279524,-0.33418748,0.40906835,-0.05756333,-0.3758191,0.06587959,0.48765972,-0.28134638,-0.080770105,-0.016385466,0.41867363,0.17342065,-0.28085443,-0.3179997,0.44437122],[-0.12282034,0.49242082,-0.18353131,0.30678105,0.48658594,0.31550747,-0.3781142,0.35066673,0.012720843,0.23197983,-0.049709443,0.18635656,-0.25584298,-0.106659174,-0.3352103,0.007548702,0.27062044,0.44585338,0.035635423,-0.24219668],[-0.41301087,-0.26616955,0.4331035,0.44018096,-0.43953645,0.41184482,0.30527753,0.24812046,0.2931538,0.3106969,-0.42700723,0.35531187,-0.30800685,0.18670851,-0.10710278,-0.25348493,0.38656712,-0.49506062,0.068849765,-0.4878952],[0.20334408,-0.13181418,0.07078743,0.14736128,0.38042298,0.034607727,0.48531827,0.24628267,0.25938737,0.39021638,-0.15739356,-0.30625963,0.085671,-0.062373757,0.24647176,0.33503497,0.27165028,-0.27512366,0.18729368,0.0012918762],[0.46659613,0.3200464,0.38908124,0.4459651,0.15541476,0.08249437,-0.24056189,-0.49062556,-0.35496348,-0.22123042,0.017854977,0.09346347,-0.06262831,-0.11177069,0.1135113,0.3660633,-0.0039651166,-0.23239455,0.29315063,-0.3399839],[-0.042963933,-0.017859759,0.01793915,-0.14432397,0.12363891,-0.45403078,0.05871388,0.22085439,0.32460472,-0.3213602,-0.07002614,0.45739114,-0.28217685,-0.2164937,-0.44977742,0.16271728,0.005724606,-0.22009793,0.0023548675,0.2761895],[0.31541654,0.34649765,-0.29192704,0.37234664,-0.11092728,0.33642992,0.4264121,0.28062937,-0.03410082,-0.28663042,0.43311685,-0.48097625,-0.39496222,-0.28273922,0.4548401,-0.0118439775,-0.34643176,-0.21824473,-0.095364034,0.29656655],[-0.15242359,-0.30522534,0.02063334,-0.27114666,-0.21402286,-0.06927994,-0.3619527,0.46563685,0.26510972,0.47374195,0.4345182,-0.48789477,-0.48962903,-0.23497996,-0.133281,-0.123034306,0.26734012,0.03419306,0.26983586,-0.22842592],[-0.25610825,0.4226909,0.3062002,-0.2851302,0.2565778,0.12954056,-0.47580826,0.014093377,-0.3223342,-0.43788636,-0.35696593,0.15538856,-0.42854837,-0.22504172,-0.24808246,-0.049581815,0.28697014,0.22524075,0.1697825,-0.44986743],[-0.16319981,-0.039885297,0.17651194,-0.057983305,0.30977002,0.27411485,0.0352564,-0.15547515,-0.4988727,0.3353621,-0.364404,-0.4319426,0.27121162,0.07301009,0.14703514,0.13052142,-0.05722993,0.113559715,0.21152629,-0.2824341],[-0.4947483,-0.14329422,-0.3752129,0.48487234,0.12442432,-0.46926743,0.22598171,-0.21048667,0.20326792,-0.25772738,0.2764009,-0.38653255,-0.19198015,-0.3249105,-0.34019554,0.3984367,0.47716823,0.053467367,0.4033755,-0.15129754]],[[-0.19914594],[0.36960635],[0.014214026],[0.020322205],[0.36605278],[-0.23156197],[-0.13651659],[-0.18781817],[0.36188594],[-0.385023],[0.35992715],[-0.4057827],[-0.022478607],[0.0035698083],[0.26270133],[0.38190773],[-0.13768058],[-0.42633545],[0.48886144],[0.020537267]]],"bias":[[0.045138083,-0.42552182,0.21828477,0.045853462,0.16493584,0.0985759,-0.084744304,-0.30811918,0.30366668,-0.26983628,0.08386026,-0.44231707,-0.12102398,-0.490668,-0.26951408,0.4341498,-0.3390675,-0.0870604,0.21924151,0.13872622],[0.02784056,-0.19308202,-0.45807105,-0.21009694,-0.185438,-0.29055712,-0.0041520856,-0.36382943,0.3558711,0.032810602,-0.048995253,-0.07274281,0.293865,0.13796091,0.27915654,0.15670498,0.055619676,0.1925934,-0.3974978,0.16700308],[0.06308108]],"activation-funcs":["tanh","tanh","tanh"],"comment":"a simple model lol"}
