{"weights":[[[-1.5360191,0.28899387,0.79286736,3.0642009,-3.7759292,0.4767237,-5.4975686,7.679549,0.39692208,2.1255705,1.5058568,1.8137423,-3.261982,4.210643,1.0534279,-0.446298,-4.8034363,0.055066284,-0.19192855,1.6941423],[2.408037,3.4172914,-0.18412134,1.893056,1.8582056,3.895848,-2.934858,2.927267,-0.33835527,8.276913,-1.2201834,-0.19570944,2.4269068,-7.019674,0.71075684,0.05098382,-1.8861306,-0.058688167,-1.0452051,-9.791533],[0.5841561,1.683297,-0.2526287,-0.20209232,-1.1371211,6.4687657,0.8623538,1.1817061,0.20481099,2.2039044,0.88295966,-1.9101646,0.83185685,-0.37953335,-1.3663259,0.48556948,-0.44234914,-0.3267002,4.532971,1.0136079],[0.7929543,5.246992,-1.389342,4.237883,12.998519,0.8648824,-2.6561172,1.4336816,0.40456715,4.7348113,1.5893315,-4.0238323,8.730625,3.6370864,-1.0870262,1.1646701,2.9007256,-0.33463842,3.1879032,2.8979602],[1.0835037,-2.7513764,-0.77365655,-4.287197,-4.241581,1.9774628,-0.5663978,1.4290426,-0.056119468,0.2397269,0.8253386,2.208435,-9.089825,2.9322073,-0.584126,-0.34619284,-3.610718,-0.05494472,-0.27481815,-5.363741],[1.2681271,-2.2037885,1.3534657,-1.6690847,-3.0579677,-1.1551799,-2.5055463,-2.4877994,0.012181812,5.664036,1.3906747,-1.6152265,1.5740738,-11.110302,3.1178586,0.7475414,-3.5385244,-0.50208795,-3.4811954,-4.1057696],[-0.13995606,1.6962311,-2.4174929,2.4185793,-2.345677,-0.4156516,2.1556273,-0.9443767,1.4482771,-16.090712,3.5443957,-0.9441378,-2.434116,27.840935,-6.180252,-4.371235,-4.2002983,-0.52523065,10.849904,5.4867945],[0.88613045,-4.7682076,1.4875811,-5.0344396,-3.7362669,-2.0040133,11.446125,-0.06693591,0.8692415,-3.2304363,-0.6285763,6.8508897,-4.9903083,3.0836973,1.4924042,0.3898793,-4.787582,0.098732255,7.6102376,7.318012],[-0.21288446,-8.347151,-2.3782816,-0.5721993,-18.29055,-5.697163,2.2813392,4.3606787,1.1382196,-2.3769727,-2.2866952,6.9389863,-17.576029,-0.50546,1.1285841,-1.2188295,-0.8863883,-1.0524588,1.5831304,0.81271756],[-0.64541644,0.4318567,-0.29131967,2.6649382,3.1138198,1.289401,-1.5655382,-2.6919997,0.35220197,4.309535,-3.4738452,0.96586424,10.883224,3.7314842,-2.0462677,1.6279908,1.4574977,0.15511994,2.5103607,2.3053672],[0.51874095,-1.2214801,-0.042213384,-0.6084049,0.72713125,3.0098786,-1.6716441,-3.9285865,0.4149221,-0.9980441,1.2020048,-0.6831289,2.5574787,-2.266168,1.474364,0.6016572,0.9649471,-0.09080221,-2.063708,1.5463473],[0.55742824,-4.166867,-0.64251167,-3.8578498,-2.4283242,-2.4305468,2.5814946,1.6167654,0.87442344,-11.955267,8.859789,-3.46026,0.73355407,-1.8857758,-1.3912932,-1.4203725,-1.4613719,-0.1765577,-1.3887889,0.015556265],[-0.30943954,0.4819383,-0.19152492,0.30616522,-0.045282096,-0.21362326,0.41500163,-0.09807232,0.06492072,-0.117705226,0.07769215,-0.17456499,-0.39713457,-0.33718002,-0.17751682,0.08810222,0.10118836,-0.42440382,0.12359053,0.2080276],[0.039881445,-1.7890583,-0.32608098,1.5610436,-4.6629314,-1.705623,4.330482,-4.3570027,1.1833941,2.1621141,3.3426223,7.7147827,-3.9138525,-4.712961,-1.513449,0.32798794,-7.5320783,-0.43628913,3.8074472,9.643258],[-0.015158539,6.2537227,0.43588117,4.6064973,-2.6923957,0.33005866,1.8643008,-0.17953183,-0.3270338,-0.111814305,-0.7272207,1.1354839,0.31253546,5.5172043,-3.1755185,1.8064828,-1.2079227,-0.6232599,1.5580828,5.164369],[0.82524586,0.9046579,0.7232711,-0.4168748,-1.9036874,5.405824,0.8326097,-2.0449517,0.36524513,-0.15439495,-9.716114,-4.5573273,0.19716418,2.8294911,-1.5197533,1.0824738,-0.29741168,-0.9345193,-10.377455,-5.3125014],[0.8167935,-4.0373235,0.3092751,1.4492813,0.9407286,-0.47165284,10.703711,-2.6740372,2.0669587,-9.006165,27.297451,-0.25331485,-1.0539454,-4.2050257,1.2886076,-2.6008337,-1.0409591,-0.939048,4.499593,-3.2187438],[1.4305681,4.328449,-1.4809334,-4.982973,-4.544286,5.1549234,1.7646327,-12.321863,0.09382116,-3.4922967,8.193627,1.0892358,2.946508,-13.667316,-6.5185666,-0.22521438,-4.3294935,-0.07548626,-0.6047091,5.3449564],[-0.9816062,-0.36071023,-4.010432,8.444489,-5.46799,6.1754336,7.8913054,-0.46062136,0.91613704,-0.9516309,1.3139247,7.06303,-5.7552686,-16.993433,-1.3635288,-0.6978524,-22.707785,-0.9102569,0.4088291,11.8711815],[-0.00401376,-2.7035232,0.70868605,-4.0882907,-0.864489,-2.755824,0.5673203,-1.0726155,0.16533242,2.6405683,1.4583749,3.968959,0.55125004,9.518306,-1.3535808,0.2466365,7.58923,-0.28192317,2.02388,-0.35901567],[-0.6150928,3.455792,0.6944154,3.1838627,0.6318569,-1.8495368,0.43012324,-3.749108,0.07581505,-1.7603757,3.6119158,1.3737625,0.10963963,1.2945038,-1.1845535,-0.75212514,0.08043468,-0.82353073,0.52922565,-2.8697586],[0.7865935,2.7785583,3.13037,3.127594,-0.16692509,-1.4736171,4.3325176,1.4162487,-0.50725996,7.175535,-11.289237,0.7292164,2.5913079,-0.13399096,-1.0077543,1.0698824,0.08281835,0.46516728,-0.7456547,-1.107743],[-0.31845284,6.420001,-0.07334356,-2.0193636,0.8754908,3.2327807,4.0248284,-2.9221046,0.56285644,-0.49543083,2.5228457,-0.902606,0.96987385,-0.47619182,-3.158744,0.5400405,0.006822897,-0.21640263,0.94836086,-0.2263155],[0.8396835,10.14333,-0.664732,-0.90650266,2.3630564,-1.1232066,0.028478472,0.31222945,0.15755938,0.9346787,-2.6072423,2.2541308,4.8495464,8.007266,-0.42355475,1.0678641,7.2733417,-0.20465007,-0.82520413,-4.516943],[-0.7140203,-0.97863203,-1.015054,0.66266006,-0.79138464,-2.5532157,-0.16704871,0.3144518,0.23944922,1.2187778,0.9889756,1.7566837,-1.4614782,-4.115322,-2.4547648,-0.023615215,2.7503767,0.078226544,2.8473647,-3.6913357]],[[1.4844879,0.2631961,0.1475725,-1.2875003,-2.2362823,0.57840604,0.19866282,-1.2689993,0.38112408,-0.14536901,-0.5245779,-0.06844068,-1.0127356,-0.9252253,1.4759594,-0.7372737,-0.109682985,0.3361172,-1.6713419,0.7436459],[-0.5109663,0.15527432,2.0188205,1.1219417,-4.088544,-0.10648013,0.90500945,-0.095242344,0.5415141,-1.002123,-0.42450646,-0.14695023,-0.19253018,0.8582867,2.3390625,-2.3374639,-0.38390538,-2.4815354,-1.1323211,1.4471744],[-0.23926803,-1.0394531,-1.3244499,-0.34318912,1.2368073,-0.93966746,-0.6014184,-2.9483643,0.63357306,0.56913924,0.42309213,-0.10435932,1.0519828,1.6430733,-2.1129727,0.602278,-0.16621038,0.7661387,-3.1373198,-0.03720208],[-1.4324327,0.22486214,3.5999131,0.49737445,-0.6194431,1.2878572,0.8773822,0.909051,0.31055042,1.3047605,0.8361698,-1.1712712,-0.30439925,-0.25128126,4.985714,-1.3624442,-0.441428,-2.755637,1.7030474,-1.2422734],[-0.34506586,-1.1584624,2.306181,1.0300341,-2.7502408,0.7790139,0.20203282,3.7620425,2.9053535,0.3070587,0.5090309,-3.4682639,1.0455682,0.33654162,3.2399583,-0.7603108,1.0835336,1.464718,2.6148927,-2.3165398],[-0.79364926,0.8486977,2.257477,-0.40093353,-1.1106483,0.832324,1.0651057,1.0342646,-0.009311171,-0.071186006,-0.050395023,-0.07844283,-0.5891459,-0.2693977,2.6309612,-1.6791627,-0.6687051,-3.5486069,2.0020936,-0.057154834],[0.71674407,0.44469017,-1.5720313,0.54699194,1.7407073,1.5751482,-0.80965,2.8205085,-1.875545,-1.3120314,-0.8499459,1.4356384,0.2513435,-0.94779795,-2.958782,-0.336214,0.9584218,0.29281268,3.3536396,-1.1554333],[-1.2499577,-0.17190096,2.746384,1.876468,-0.54763484,0.53084797,2.699298,-0.93045926,0.16791844,0.6134975,0.14236349,-0.10521252,-0.12973632,0.85576034,1.692659,2.9829543,0.5879156,-3.4654794,-0.046843555,-1.4425981],[0.3599196,0.64282155,0.9348254,-1.1556876,-1.777429,1.9471741,-0.2723006,0.54899055,0.60348964,-0.48116952,-0.36430895,0.10113638,-1.3804567,-0.8448519,0.6054693,-0.27399462,-0.57530856,-0.33301103,1.4733702,-0.31059143],[1.0997337,-0.7079486,0.8126972,-1.2265222,-4.1238527,-0.4937881,7.054719,-0.38003847,1.2718565,-1.3107164,0.6116415,-1.2568833,-0.1656047,0.09566513,2.548642,5.2384543,0.22978227,-2.986194,-1.7709754,4.1183133],[1.1277485,-0.2745497,-0.30174953,-0.50285494,8.154965,1.976027,-2.041395,0.29410326,-2.4353876,-1.4736019,1.4611068,2.399794,1.5644954,-0.54261667,-5.0843186,-0.4871262,-0.36454403,3.9495032,3.1673348,-3.6590495],[-0.06462107,0.23256963,-1.6244766,0.0635219,2.6142821,0.21034017,-0.42759308,3.0472414,-1.957744,-0.2244626,-2.0721624,-0.21631855,-0.78879434,-0.8995771,-1.8563032,0.48222962,-0.8734802,2.9270625,5.242895,-1.1676453],[0.25901866,-0.40135425,2.7163982,-0.72236156,-3.9372716,-0.3543572,4.0588236,0.6856531,0.00031365923,-3.1530964,0.19661184,-1.4731,1.1264263,-1.2563032,3.1472409,5.50253,0.26301345,-4.480711,-2.281758,2.477721],[2.1043906,-1.2405264,-5.86012,0.4798154,1.9276497,1.3976313,6.078222,2.4579892,-4.2574515,-1.0532156,0.3458431,-0.22171922,-0.38704726,0.2627856,-3.4118638,6.581231,-0.38304073,-2.9876797,2.7299635,-1.5652822],[-0.44891188,-0.094590686,0.5109869,1.5703621,-1.2647266,-0.37131244,-0.5401403,-1.6542758,0.30279583,1.6303452,-0.35553846,-1.4939977,0.39498106,0.7791195,2.2929292,0.045702636,1.2923617,0.8336135,-0.16170838,0.28175238],[2.2311532,0.88322914,-0.016845372,-1.0437198,-2.3750699,0.6726583,3.2229407,0.9791336,0.09435245,0.082498424,-0.91454047,-0.030155607,2.6717546,-0.105647966,1.3517578,-0.089631535,-1.0313026,0.71827734,-1.0603226,1.1149638],[-0.27130818,-0.46240672,2.438589,-0.25714988,-4.4608154,-0.6257035,2.338739,-0.07806021,3.6655142,0.18554461,0.6167593,-1.5103468,0.59138036,-0.9127772,7.7614393,-1.6088079,-0.8550458,-3.0225658,-1.9369304,1.5548817],[0.3912458,-0.65869415,-0.22083034,1.045686,2.0147085,-0.7928194,0.41548848,-1.1930687,0.010772924,-0.07210552,0.35221624,-0.3995228,2.1408079,0.18649109,-1.2499715,0.21439058,1.0829041,1.2261633,1.1670419,-0.03246164],[-0.9251992,0.5760193,2.3275397,-0.18334101,0.14412355,1.0872124,-2.6130648,0.31920898,1.1581473,1.48704,-0.12024489,0.033449475,-0.9708402,-0.6468968,1.8494029,-2.144845,0.3353074,1.8503479,0.7651902,-1.7240553],[1.3258159,-0.35747772,-0.27874768,0.43703777,2.8664536,2.2951775,-1.874664,0.8870668,0.55916303,-0.3686869,-0.65386856,0.99447745,-1.2044235,0.10182778,-3.7107446,-0.17954077,-0.24546753,1.532874,2.2807932,-2.6731312]],[[-0.28834483,0.8827019],[0.20348042,0.54720867],[0.7135242,-0.7500387],[-0.80887246,0.37249964],[0.0901534,-0.48542157],[-0.1193896,0.39858365],[-0.23004721,-0.088726185],[-0.053663608,0.43401504],[0.11203476,0.018313102],[-0.7258745,0.51671165],[-0.7843509,0.8398406],[0.012083405,-0.1602046],[0.29225758,-0.20077035],[-0.144856,-0.36211133],[-0.06245173,0.63304704],[0.17691611,-0.11834178],[-0.52882594,-0.07678915],[0.51865834,-0.2006493],[-0.24620308,0.21391766],[-0.55499357,0.4485723]]],"bias":[[2.845781,7.153449,-4.3541727,-6.821838,-5.197116,1.6191987,3.102496,3.4507647,2.8277018,4.289674,4.4758496,6.2865076,6.2289124,4.5715814,-4.235319,10.378332,-1.9670514,-3.4060698,0.1964362,-2.346738],[-0.014843615,1.1778868,-0.23057008,-0.7481845,-1.2244507,2.0791602,0.7200238,3.1119115,-0.23341736,0.020502403,-1.0711261,-0.34723422,-0.896474,-0.35399476,1.4005449,-0.533114,-0.7115113,-0.8909093,1.9417788,1.6417558],[-0.25504923,-0.16302387]],"activation-funcs":["tanh","tanh","tanh"],"comment":"yep"}
