{"weights":[[[-0.47342002,-0.38260734,0.18489307,-0.17278174,0.3506444,-0.19335482,-0.05862379,-0.20026422,-0.16260883,-0.022520244,0.45207137,0.19295591,0.41154915,-0.09758735,0.07371092,0.19238913],[0.08564967,0.06404859,0.26965046,-0.22127745,0.040914476,0.32852942,0.2782219,0.2361238,0.38910443,0.33469415,-0.09896234,0.15888631,0.1632883,-0.4828051,0.45252544,0.2815954],[-0.35080957,-0.49526072,-0.48244578,0.40056896,0.49962646,-0.4142005,-0.12664637,-0.42285556,0.037600815,-0.2670138,0.48553586,0.076425254,-0.06380358,0.010290921,0.28443033,-0.07008335],[0.09466475,0.25654054,-0.38072062,0.034223497,-0.017391622,-0.094506145,0.48497087,-0.063926935,-0.4060307,0.47329503,-0.15633532,-0.4836224,0.4346956,0.19411981,0.34067982,0.25799423],[-0.11122799,-0.12721583,-0.4881717,-0.03763342,-0.21735984,-0.4549217,-0.08784494,-0.4118037,-0.42520663,0.3892439,-0.267186,-0.18766615,0.18667817,-0.0877054,-0.30257374,-0.08384326],[-0.0661096,0.027814507,0.39396518,-0.028487325,0.35866195,0.48434323,-0.44957447,0.11369121,-0.060794324,0.07161391,0.1335445,0.10249913,0.48753595,-0.016162068,-0.0017442107,0.20932811],[-0.35079998,-0.07139248,-0.10114995,0.4367187,0.17611486,0.29168886,-0.2903481,-0.17993128,-0.19326636,-0.07325032,0.13769919,0.47768158,0.012375474,0.0057326555,0.4976967,-0.31487843],[-0.44492218,-0.18736923,0.3547957,0.26596755,-0.20022026,-0.31627974,-0.42134985,-0.18838927,-0.02243942,-0.093203664,0.41714144,-0.02820912,-0.22958127,-0.07971215,-0.23818022,-0.3384896],[-0.047518253,-0.16277453,-0.008003414,-0.35882235,-0.12696564,0.013573587,0.034934282,-0.13818309,0.37555128,-0.18159202,0.030384421,0.49765342,0.09808338,-0.34293222,0.16939825,-0.32865483]],[[-0.38273022,0.2476486,-0.13360888,-0.26461208,0.21302146,-0.19676247,-0.26492345,0.19572437,0.10649598,0.4835292,0.07425386,-0.17993838,-0.051835656,-0.06659934,0.41980034,-0.2229754],[-0.029178709,-0.12723622,0.37971145,0.35720503,-0.23599589,-0.10903296,-0.069080204,-0.256184,-0.1981498,-0.159634,0.06627548,-0.4207445,-0.19371751,-0.032776356,-0.26243237,0.26585484],[0.28272545,0.3066604,-0.4525301,0.124673426,-0.46186465,-0.47042316,-0.40475142,0.37574214,-0.03551218,0.102134764,0.34653825,-0.48096654,0.4366607,0.4920051,-0.24362016,0.3576427],[-0.4506274,-0.4330247,-0.0029199421,0.22725767,-0.19895837,-0.4116879,-0.46878797,-0.40418163,0.35187107,-0.18474472,-0.43155545,0.34487915,0.33643693,-0.2997908,0.073415995,-0.2347148],[-0.186122,-0.010560423,-0.12890038,-0.33854023,0.35892338,0.48936617,-0.22433448,-0.42633063,0.24318874,-0.02427566,0.14970195,-0.47436476,-0.3103419,0.36784244,0.3038426,-0.05043283],[0.0262205,0.08918762,0.23318422,-0.12746742,0.19562459,0.37176698,0.232817,0.16270113,-0.47061574,0.280096,-0.2946434,-0.205403,-0.31408262,0.4748842,-0.45329338,-0.37709284],[-0.36954683,-0.4989387,0.05455309,0.39973497,0.13757455,-0.073473155,-0.015572935,0.13184333,0.43866038,-0.073471874,-0.16502422,-0.3449761,0.23622096,0.048209965,0.49499017,0.45273858],[0.27363354,-0.099333525,-0.32509607,-0.034886092,-0.19913924,0.15789431,0.15152675,-0.19209784,-0.032351762,0.052372277,-0.042874604,0.37236762,-0.32744294,-0.30013838,0.08387071,-0.0820601],[-0.49935713,-0.050239563,0.46951967,-0.36815798,0.008841455,-0.42476282,0.4605446,0.119641066,0.15642649,-0.30696738,-0.17868695,0.402107,0.07717794,0.2561859,0.21828502,-0.09645966],[-0.17970309,0.05230391,0.2304374,0.25286102,0.2823521,-0.4830309,-0.16186419,0.21044916,0.3830974,-0.16800612,-0.02395317,0.30952942,0.3302309,0.37226933,0.47876388,-0.42637512],[-0.3401106,-0.17950982,0.32651716,0.13066703,0.3995213,-0.075739354,0.48874706,0.38544685,-0.31822824,0.27197325,-0.14188278,-0.0024883747,0.26110035,0.20156664,-0.22905526,-0.1630136],[0.39676094,-0.065939546,-0.13351223,0.031469762,-0.46143386,0.18036437,0.16683507,-0.098565966,0.23317438,0.3564942,-0.1850645,0.4565544,0.100643754,-0.37164247,0.06739479,-0.30079904],[-0.1335141,0.2008264,0.027866185,-0.18198076,0.090764046,-0.39125484,-0.4054008,-0.46106738,0.47134578,-0.28841245,-0.2240029,-0.18491769,0.024680912,-0.30206305,-0.208446,-0.10428822],[0.20903146,0.29574597,0.22288644,-0.19752464,0.32201087,-0.34236693,0.077463925,0.20471412,0.08057678,0.13356698,-0.47283357,-0.113083035,0.19965279,-0.07136291,0.10440725,0.24500567],[-0.24511674,0.19032598,-0.14950967,0.118805766,-0.13494653,0.35311222,0.33282596,0.3229618,-0.32719702,0.22207153,0.13783813,0.17278534,-0.47923347,0.085960805,0.18435073,-0.093458],[0.055347085,0.05412197,-0.2066791,-0.40178537,-0.25503057,-0.31818628,0.4340465,-0.473093,-0.19393355,0.044873655,-0.10070264,-0.056480676,0.023720205,-0.03698334,-0.1511428,0.42044085]],[[0.2502272],[0.41290033],[-0.056038618],[-0.055457413],[0.3028788],[-0.27702075],[0.36125118],[0.4715476],[0.28820997],[0.25846595],[-0.20986691],[0.45529735],[-0.3352502],[-0.48158193],[0.13090473],[-0.39087468]]],"bias":[[-0.2940048,-0.36862513,-0.35198218,0.26484358,-0.22132069,0.15874445,-0.46315604,-0.4518543,-0.05994481,0.3607582,-0.12710357,0.16933817,0.050878584,0.36931574,0.18674219,-0.15077496],[-0.24259856,0.27897447,0.29330903,0.3319624,-0.4271414,0.25117695,-0.094454885,-0.24838078,-0.44671968,0.29897648,0.15222341,-0.17760554,0.22591883,-0.19148216,-0.2892869,0.25970542],[-0.47763816]],"activation-funcs":["sigmoid","sigmoid","sigmoid"],"comment":null}
