{"weights":[[[-1.5732927,0.23869053,1.031753,0.18236105,0.12727056,0.1668648,-5.668781,-0.7288465,0.3791059,-0.7133155,-0.79649156,0.1410593,2.4857388,1.5610075,2.0921023,-0.44629794,-1.3329215,0.09050656,-0.45300242,1.0314989],[2.3944726,-0.22047754,-0.5069359,-0.02825865,1.1237608,-0.2994885,-4.535467,1.5634748,-0.3971716,0.35077488,0.9635948,2.871844,0.35189092,-4.7851725,1.4227269,0.050984927,-2.6360118,-0.016523933,0.60255873,-3.4772267],[0.57834095,0.9650292,-0.15559828,0.5525235,0.17892213,-0.02409538,0.4638102,-0.83258605,0.18344282,-2.4941745,-0.38480866,0.028951755,-2.4293847,1.0402073,-0.60973716,0.48556957,2.4655516,-0.29873,-0.1462406,-0.15936673],[0.7483665,3.0993621,-1.3184644,1.1389953,12.867978,-0.37163574,-4.967081,0.6051645,0.31132516,2.747797,-2.7243388,-2.9607139,-1.2785786,-0.90619946,-0.117625415,1.1646701,-1.5126115,-0.27891022,0.8286367,1.6592051],[1.0768708,-0.32292992,-0.7843477,0.6755756,-2.9105434,0.4421461,-1.8890576,0.17790523,-0.08643412,-0.8408574,-2.1133814,2.0941808,0.65704757,-3.5195806,-0.25831848,-0.3461927,-3.6606026,-0.02308191,-0.65327746,-4.5813065],[1.2434132,-0.23141089,1.5318471,0.5186818,-0.8831323,-0.36881414,-3.3692477,-0.97823435,0.0041064513,-1.294855,-1.0564983,-2.8496482,3.4683383,-2.5727494,4.115893,0.7475415,2.182551,-0.5067506,0.14578621,1.1703045],[-0.24885271,-4.300623,-2.1937985,2.205104,-0.33434328,0.4138552,1.8562167,-0.55092955,1.3605185,1.9783822,-0.14247121,-1.2685307,-5.0248413,15.861845,-5.604479,-4.371235,-1.2433841,-0.43745977,0.6988925,9.127024],[0.8443521,-3.1910133,1.28851,0.31614897,-2.5353425,0.91712034,5.6656275,-0.16834103,0.8067673,-0.76558447,-1.3091726,3.217294,-6.865299,5.2671103,2.8998494,0.38987914,-0.8251342,0.12676685,1.4080198,4.31669],[-0.10737488,-0.43854514,-2.5357416,0.3941802,-14.428474,0.4514371,1.4712104,-0.75405127,1.0837513,-5.151845,-1.7906842,7.0731053,-8.857829,3.665784,1.9270798,-1.2188294,-3.4817803,-1.0055548,0.8533292,-0.274737],[-0.5291763,0.70097744,-0.37610382,3.424736,4.010724,0.1370404,-0.5563982,1.3169581,0.33797488,2.472774,-0.4724671,-0.6760577,-3.4269936,-4.6035147,-1.5768734,1.6279908,0.49780014,0.18556409,-0.5882764,0.7298192],[0.49291527,-0.6244163,0.13018557,0.71598876,1.0142896,0.11085661,-0.9388127,0.59471494,0.34577954,1.9745139,1.7100003,1.1838484,-1.3080881,-1.5071918,1.7653903,0.6016572,-0.36008126,-0.044141937,0.83063674,4.308692],[0.47180277,-4.729872,-0.9046696,-0.020657375,2.5446897,-0.3395647,-2.1864684,0.63945407,0.7801035,-2.6647985,4.514875,-0.87433755,-3.911904,6.7240286,-1.5322808,-1.4203724,0.26634502,-0.14141135,1.2925272,3.550024],[-0.30943954,0.4819383,-0.19152492,0.30616522,-0.045282096,-0.21362326,0.41500163,-0.09807232,0.06492072,-0.117705226,0.07769215,-0.17456499,-0.39713457,-0.33718002,-0.17751682,0.08810222,0.10118836,-0.42440382,0.12359053,0.2080276],[0.105629034,-0.5618455,-0.25181168,0.39512816,-5.096567,1.4164097,4.4960346,0.66486347,1.1253203,-0.8093213,2.145787,6.065352,1.0214632,-1.2199554,-1.2244623,0.3279881,-2.4332533,-0.39904457,0.5388881,4.019817],[0.035746574,6.1816845,0.49802646,0.4895281,0.38779086,0.77186346,1.9703918,-0.1468073,-0.3893743,3.2778602,-1.3057051,0.87768435,-1.3107237,2.7208312,-3.2079225,1.8064828,-2.7224858,-0.6036888,-0.014419766,1.4542421],[0.81568444,1.5777309,0.36182642,1.2373197,-0.7770715,-0.49268743,-2.1147783,-0.010731909,0.31487525,1.9066935,-5.941185,-5.5624204,1.3789818,-3.0614777,-1.1624736,1.0824738,3.493648,-0.9196013,-0.4134724,-2.4068978],[0.7132791,-4.995891,0.61589867,0.8533346,4.1312017,0.40379012,12.758134,0.6392564,1.9744486,0.3927837,11.853547,-1.829369,-3.5738604,0.46522692,1.9625429,-2.6008337,-0.59739465,-0.8844223,0.8317242,1.2458892],[1.3219734,1.1051413,-1.6305715,1.4083786,-0.69432306,2.3863814,1.2676383,-0.22697778,-0.013020796,-0.18285564,7.6407323,2.8581488,-5.5817266,-1.718572,-6.5358934,-0.22521438,-4.8697567,-0.0285148,1.0310814,12.087378],[-0.85155743,-3.5848892,-3.928064,4.968815,-1.5882486,3.8650255,4.7162943,-1.1831671,0.8384904,-0.04727635,3.653055,4.4444594,-8.773263,-3.0835946,-1.3563507,-0.6978524,-9.8661785,-0.8536205,0.07763529,10.79467],[0.08766816,-0.25506693,0.70349205,-0.52048856,0.06006616,-0.022887334,-0.5790298,0.26512322,0.13252717,3.3900979,-2.2488618,0.27889243,2.5100505,-1.0384079,-1.2660507,0.24663647,1.5276058,-0.27084732,0.23457311,-2.3964603],[-0.6395151,1.2169156,1.0301067,0.9107066,0.2955877,-0.47515813,1.0998211,-1.7276096,0.02708419,-0.49234578,3.7380307,-2.5032978,1.0482675,-0.6977824,-0.96305263,-0.75212514,1.6824899,-0.78794336,-0.8083626,1.2039305],[0.7828769,2.4744136,3.0682604,-0.58109134,-1.9859715,-0.03802072,-0.76084787,-1.7300146,-0.613286,0.7612075,-2.4581969,-0.85587764,2.3130233,-2.703166,-1.0144142,1.0698824,6.005609,0.53727436,0.06367262,-1.6184361],[-0.2668554,8.024519,-0.15500338,-1.8929808,1.5750433,0.7500434,0.30511507,-0.4951247,0.47922036,0.031573057,-0.60424346,-0.37465447,-3.0295088,-0.026658056,-3.1379273,0.54004055,2.111696,-0.19094005,-0.02434598,-0.6597123],[0.8050575,7.6917796,-0.62922996,-1.8055358,1.9493319,0.043617234,-2.1418955,0.12349282,0.09829628,0.35742864,-1.2529212,2.8286529,1.9205403,0.36051148,-0.42513588,1.0678641,4.047514,-0.1745797,0.19093472,-0.25789702],[-0.63875,0.95770293,-0.9164358,0.9898266,0.25541592,1.5545738,2.8190017,-0.797685,0.19912684,-0.8186842,1.2646686,0.7726241,-0.2902477,1.6615746,-2.4545815,-0.023615548,2.5407648,0.1015033,0.14148046,-1.3270303]],[[0.98383254,0.10696464,-0.25612435,-1.0068755,-0.68290305,-0.3700362,0.24754223,-1.5981435,0.1705882,-0.019217117,-0.27093256,0.0430217,-0.73751897,-0.852473,0.48433864,-0.47440448,0.72497314,0.33239773,-1.7136698,0.35117313],[-0.2479648,0.1212037,0.651542,0.403257,-2.8047209,1.5059565,0.5224802,-0.07608529,-0.32215106,-0.5735545,-0.82934725,-0.13812242,0.10544185,0.93389606,1.5922254,-0.2056843,-0.088520996,0.5057057,-1.2327024,1.014651],[0.27160454,-0.8878135,-0.90485215,-0.62826735,-0.3018111,0.011905512,-0.6712443,-2.6043484,0.86162907,0.4475671,0.1749546,-0.20967081,0.78397566,1.5715373,-1.1959591,0.35677376,-1.0042827,0.78662217,-3.0993414,0.3041863],[0.03504978,0.27937958,-0.41306558,-0.63817465,-2.1261804,1.10752,0.20507723,1.1167624,0.062831886,0.11520069,-0.15703055,-1.0312434,-0.42487088,-0.23389426,3.3657613,-0.8557056,0.20602189,-0.03526658,2.4104187,-0.6933593],[0.847014,-1.0489335,0.81395584,0.2504422,-5.002397,1.5200926,0.2992677,4.0883784,2.7712653,-0.40622953,0.2601159,-3.3616061,1.0404774,0.3078291,2.5841184,-0.9789957,0.6934231,1.5007108,2.657652,-3.0980973],[0.24769899,0.9522548,0.34785375,-0.27946433,-0.24089363,0.80992067,-0.22483139,1.3289561,-0.48786196,-0.2335192,-0.4504076,0.113644674,-0.79109657,-0.21725944,0.6478693,-0.25374487,-0.27645984,-0.6454296,1.7506905,-0.4467219],[0.014038649,0.3254431,-2.8821025,0.87781495,2.0388072,0.6629631,-0.75806385,2.605119,-1.0222182,-1.1531174,-0.6444914,1.303716,0.52620286,-0.949922,-2.7782674,-0.28702274,0.18279733,-0.28213122,3.3160462,-0.7241551],[-0.56820023,-0.016874045,1.1225214,1.1117423,-2.4114332,0.95554465,-0.5985337,-0.88227725,0.5077055,0.39524913,0.32360443,-0.2516998,-0.42505437,0.81106496,0.49124476,-0.1442122,0.1378257,0.47695577,0.6747827,-0.8612442],[-0.14164913,0.48792705,0.5393716,-0.8756301,-0.2424432,0.9944527,-0.19992629,0.21960783,0.4007415,-0.3580225,-0.113447726,0.21032351,-1.1055332,-0.77218455,-0.35127592,-0.0211712,0.26620242,-0.3373045,1.4293388,-0.68260276],[1.1070219,-0.76062644,-0.37278605,-1.5380586,-1.397688,1.056491,0.28317904,-0.15098453,1.9711882,0.2880104,-0.4040839,-0.9797441,-0.051595468,0.06654729,4.187512,-1.0088087,0.19891928,-1.4120138,-1.6801548,2.9380841],[0.4193535,-0.34946662,-3.8076782,0.21446234,3.9003217,0.5909918,-0.18005091,0.64969486,-1.6065054,-1.1642903,1.0989903,0.47361365,0.66674864,-0.6237841,-4.052306,-0.11270477,-0.8012682,-0.9314822,1.9165958,-2.0996633],[0.024421545,0.2978841,-1.6816099,0.12383425,2.8967657,0.1541944,-0.046412643,3.0741663,-1.4287015,-0.25973555,-1.341662,-0.1193367,-0.37851837,-0.8515125,-0.1505004,-0.018104523,-0.056218743,0.36362594,4.9532695,-0.1986902],[-0.8319683,-0.43527356,0.96577066,-0.6532171,-4.932909,0.23769987,0.8189877,0.9820657,2.274292,-0.6759117,0.25974748,-1.57363,0.9644781,-1.3312504,3.3277175,0.79894555,-0.5774624,-0.10749993,-1.5601698,-0.7791655],[0.9818462,-1.3952032,-2.4250152,0.47522008,4.2741823,1.5904802,-0.49890473,2.7304933,-2.038375,-1.7909276,-0.10515206,0.29208156,-0.51160973,0.29142034,-4.771536,-0.46470764,-0.32409355,1.2088431,2.9063199,-1.3545368],[0.051464602,0.06317714,0.85257846,1.2893785,-2.8224185,0.48567432,-0.5887512,-1.3263366,0.5179055,1.5250779,-0.60805076,-1.607737,0.11892649,0.7121778,3.2167299,-0.19568998,0.45834506,0.85556823,-0.115969926,0.68563014],[1.7310554,0.72825277,-0.4128386,-0.76010823,-0.8258285,-0.2851561,3.2896202,0.6489316,-0.10854573,0.20399998,-0.66156554,0.08029456,2.9452043,-0.03138902,0.3950187,0.14222004,-0.19617805,0.71509004,-1.1021205,0.72750986],[0.41122162,-0.58209646,2.0187683,-0.65965587,-3.2467928,1.1355693,0.289821,-0.2772037,1.1092453,-0.050683044,0.8525982,-1.6108104,1.1775867,-0.98280495,4.158985,0.003528112,-0.27929235,-1.2047175,-0.99239564,1.1076621],[0.89123964,-0.5038479,0.17689838,0.76262176,0.46909037,0.16131842,0.3569903,-0.86347055,0.2113589,-0.1943897,0.100622214,-0.5090865,1.8666102,0.11255598,-0.29315704,-0.026051663,0.24712397,1.2335384,1.2083949,0.3459279],[0.40602148,0.54260725,-0.12308058,-0.03565896,-0.6749602,0.637665,0.024578456,-0.03776522,-0.26381135,0.88218164,0.052051313,0.12837121,-0.7558307,-0.6003982,0.25753298,-0.8780388,1.0866687,-0.02766413,1.5717137,-0.36955425],[0.24222375,-0.5142957,-1.0546693,0.48925006,4.3756623,1.0226425,-1.2942619,0.5741169,0.97351205,0.50106955,-0.6110266,1.5685941,-1.0329136,0.17694199,-5.4142237,-0.4018508,0.49249527,0.091374435,2.389235,0.09095061]],[[-0.08836989,0.40577856],[0.12793055,0.29283226],[0.14498393,-0.26709577],[-0.027728694,0.15881716],[0.17133656,-0.23842195],[0.6123888,-0.19223452],[-0.12483648,0.09917132],[0.325278,0.1728479],[-0.015157965,0.2372651],[-0.061140437,0.0709977],[-0.74067724,0.46022746],[0.058360863,-0.22533858],[-0.2678437,-0.36023566],[-0.19500738,0.011088089],[-0.66949713,-0.022928445],[0.35508874,-0.8021799],[-0.32277203,0.51117456],[-0.052763615,0.08279873],[0.1017044,-0.30350348],[-0.3680716,0.4826257]]],"bias":[[2.8455453,5.301112,-3.7020185,2.3261957,5.7694955,2.5068345,-0.31096986,-3.032361,2.1998992,-0.08075894,-4.6391115,1.5554742,-1.4248514,-4.3716745,-0.7328688,10.378332,2.6933596,-2.9911833,2.411144,1.711508],[-0.5145082,1.0254364,-0.6241365,-0.46462557,0.32481736,1.1226821,0.7749168,2.7824404,-0.43612197,0.1420378,-0.81779605,-0.23721029,-0.6207146,-0.28043061,0.44381803,-0.2998438,0.12501699,-0.8962662,1.8999931,1.2538114],[-0.2813361,-0.51196074]],"activation-funcs":["tanh","tanh","tanh"],"comment":"yep"}
