{"weights":[[[0.49168167,0.3949481,-0.16875161,0.011283668,0.6048543,-0.08005022,0.3108805,-0.14855583,-0.40158862,-0.25828543,0.16025218,-0.3461612,0.48252994,0.5804547,-0.20433332,0.3821508],[-0.26519352,0.245373,-0.19269376,-0.55953705,-0.08065082,0.3871284,0.40862632,-0.16867101,0.23015296,-0.37227845,-0.55498236,0.20945303,-0.09802869,-0.18225986,-0.45010403,0.18074258],[0.38805863,0.46025613,0.005218366,-0.5784108,0.25778517,-0.14912747,0.24769916,-0.7084683,0.0073092584,0.09302821,0.16089407,0.28081667,-0.1538346,-0.040684577,0.2518648,0.18272603],[-0.48933688,0.306946,-0.5520325,0.48320115,-0.2032235,0.16042732,-0.14212544,0.5537926,0.33498663,-0.27789408,-0.13421018,0.16277207,-0.27201355,-0.043530233,0.35186478,0.5697827],[-0.5586779,0.0853752,0.11021969,0.56082267,-0.24646713,0.14291658,-0.43306717,0.2714328,-0.4274614,0.38418803,-0.00482307,0.20705295,-0.393304,-0.3830736,-0.19165026,0.095108435],[-1.0201228,0.29043928,-0.41328743,-0.17241296,0.012557631,0.5114663,0.34851643,0.14017491,-0.18809877,0.10010253,-0.011720322,0.67195207,0.6969024,0.033667777,0.22855704,0.42076945],[1.0310942,-0.11297467,0.082391396,0.53837395,0.48291624,-0.38792694,-0.51773816,-0.526467,0.13902266,0.19788949,-0.5337169,-0.8208649,-0.51705414,-0.19946763,-0.22094765,0.1637003],[-0.49796844,0.480676,-0.3461999,0.13520794,-0.3696176,-0.8974169,-0.28864807,-0.29325676,0.20819898,0.5995659,-0.5499035,0.21375579,0.5319847,0.5790607,-0.14358544,0.44818607],[0.37281904,0.3289581,0.12864862,0.26665533,0.35984582,-1.3941617,-0.2917632,-0.49761027,-0.40875524,-0.27438715,-0.46643707,-0.43491054,-0.22560042,-0.1604953,-0.16534863,0.35645506],[-0.47948837,-0.19605412,-0.6467621,0.10643459,-0.5387536,0.47991318,0.12793471,0.26817456,0.19210853,-0.07481369,-0.509157,-0.15268046,0.12973703,0.4131388,-0.42138293,0.10529289],[-0.3512094,0.14405347,-0.43432513,0.47407246,-0.15283638,0.011997786,-0.47619498,0.4265457,-0.11451885,0.10314236,0.25683174,0.23309365,-0.20051071,0.54275763,0.055863302,0.32107767],[0.50661844,-0.26927865,0.5715842,0.5535566,-0.123642765,0.08493719,-0.062274285,-0.4192996,0.06495871,-0.2250911,0.17451306,0.24783787,-0.058098346,-0.3749681,0.07199104,0.20380542],[0.48877966,0.4346848,0.33320826,-0.3858166,0.1862548,0.2765345,-0.30327725,-0.022391021,0.3095039,-0.29553068,-0.38322866,0.048638403,0.079010665,-0.4496652,0.05572647,0.3604945],[-0.11291588,-0.25906974,-0.13247792,-0.40835717,0.29231524,-0.46123737,-0.06647766,-0.4286265,-0.18012387,0.06493362,0.22726408,-0.24904314,-0.047511198,0.5667109,-0.2848386,0.40143389],[-0.01291553,-0.06306331,-0.06279111,0.06511256,0.11480544,0.4123657,0.37924197,-0.50834394,0.32716936,0.48888415,-0.17529269,0.2013528,0.30507892,-0.31133407,-0.2663627,0.122259],[0.039402436,0.1846211,-0.9029791,-0.28101984,0.35138133,0.8472482,-0.04707007,0.20382755,0.52460426,0.24468045,0.31261706,0.30927324,0.20257491,-0.24609374,0.33409306,-0.20136376],[0.63838536,0.37348062,0.41642636,-0.097227685,0.5434935,-0.08764746,-0.44756088,-0.1563199,-0.5062893,0.62561417,-0.07251625,0.36753023,0.5004893,-0.08744802,-0.31765997,0.54069936],[0.29264802,0.31897554,0.43080795,0.5122733,-0.08001948,-0.35835612,-0.23484926,-0.27757424,-0.23875034,-0.053647477,-0.01186411,0.21443291,0.09358799,0.50183654,0.1389572,0.49116656],[0.6338783,0.36883163,0.60027707,0.60443294,0.3487775,-0.073333606,-0.94741386,0.28673163,-0.74095756,0.543516,0.21067329,-0.40239158,0.23621757,-0.119998485,0.019937783,-0.19510217],[-0.355148,0.26826218,-0.009471956,-0.24104677,-0.39776847,-0.14981037,-0.2530602,0.45114914,-0.21060362,0.4008781,0.12177856,0.15766619,0.20743531,0.4189176,0.17431614,0.24662323],[0.3088653,0.19384877,-0.36676475,-0.25407308,-0.009544723,0.14595181,0.030551093,-0.25204098,-0.2686756,0.2362391,-0.26873183,-0.3494958,0.32396197,0.08775649,0.1736461,-0.006135712],[-0.6941692,-0.21765189,-0.56023145,-0.23807321,0.34317803,0.28630248,0.5774767,-0.50604707,-0.025061036,0.28326023,0.3470664,-0.018864008,-0.3607048,0.2692581,-0.049834847,0.08704691],[-0.09503663,0.07108828,-0.054387495,-0.41793102,-0.25366077,0.5218376,-0.032954417,-0.16045447,-0.33486485,0.2513828,-0.44259745,0.005544314,-0.14095905,0.03440186,0.21601668,0.5317757],[-0.121274285,-0.40789205,-0.0034180053,0.3719412,-0.20762573,0.98341775,0.07106428,0.09980426,0.3738461,0.30061072,0.19664243,0.62583506,0.22111121,-0.25503498,0.18385823,-0.096054725],[-0.52336055,0.13012019,-0.40528083,-0.07662371,0.42352775,0.9433841,-0.24090198,-0.16009235,-0.10632518,-0.3561997,0.34326965,-0.1719587,0.11173882,0.20985702,-0.02877959,0.04754245]],[[0.4118539,0.78977376,0.6647262,-0.4964553,-0.58748025,0.47710785,0.14438519,0.46811348,0.4654366,0.12611294,0.86346847,-0.44713113,-0.20984687,0.11446356,-0.03200251,-0.54489034],[0.09880134,0.42684674,-0.34763992,0.14414063,0.5962337,-0.66181976,-0.08475659,-0.06315722,-0.2854945,-0.4231502,0.61615527,0.35950014,-0.051053558,0.021270188,0.55200374,0.10596772],[0.15290967,0.037309438,0.5890056,-0.2836027,-0.17616509,0.09469938,0.38767776,0.38654888,0.1265374,0.6114766,0.5508975,0.08504169,0.1172765,-0.6351406,0.42930058,-0.7351457],[-0.3865204,0.4040552,0.22904016,-0.4610657,0.009969953,-0.097346514,-0.20226564,-0.29796216,-0.3347287,-0.41828734,0.5616012,0.29201955,-0.3922133,-0.17277656,-0.3616561,-0.3738767],[-0.3525581,0.14470477,0.5706152,-0.32659972,0.124954045,-0.098106354,-0.43486592,-0.06341484,-0.32181928,0.46723965,0.47784713,-0.4326134,0.41085577,0.41793913,-0.07604262,-0.15020677],[-0.46170357,-0.95734584,-0.17904511,0.6986434,-0.027164482,0.20048377,-0.56952184,0.48366272,-0.48235863,-0.10627847,-0.98012424,0.5511425,-0.2965486,0.56861573,0.20257618,0.59516805],[-0.4389611,-0.5117575,-0.5231459,-0.20772168,-0.07584221,0.57942545,-0.21709158,0.5037614,-0.3455083,0.25157776,0.01000406,0.032783687,0.41470557,0.24210407,-0.3137859,0.6621549],[-0.32386532,-0.20387162,-0.124297686,0.4230121,-0.41452348,-0.03642602,0.25270227,0.13785839,-0.19564156,-0.30175096,-0.098566666,-0.43422163,0.5565503,0.026107227,0.053582244,0.8865281],[0.050160367,-0.24973436,0.07456362,0.3488946,-0.12735185,-0.28169668,0.030744018,0.21468271,0.03319261,-0.0046618525,-0.3305834,-0.21713215,0.3011513,-0.20557941,-0.13189578,0.51632166],[-0.2431666,0.12998474,0.41381115,0.043326262,0.019037902,-0.05197006,-0.30642197,-0.22301017,0.37616715,0.083000295,-0.19995534,-0.061358735,0.36729664,0.48498672,0.4515978,-0.40369785],[-0.23366058,0.14427628,-0.35215887,-0.251015,-0.38239926,-0.037843052,0.47048673,0.3766336,0.3172877,0.33860537,0.2503244,0.21048404,0.1213802,0.22770937,0.11533153,0.423108],[0.11659987,-0.44945154,-0.3470572,0.085846,0.54117286,-0.34366035,0.02831132,-0.33874798,-0.48634693,0.24290578,-0.45828235,-0.37926427,-0.3938151,0.32820356,0.13794588,0.32357582],[-0.33562005,-0.117460564,0.088960476,-0.17097722,0.34793544,-0.18944049,-0.09844475,-0.38555676,-0.41696414,-0.49383593,0.64353,0.46683365,-0.41129535,0.13734849,-0.06778571,0.18394521],[-0.3289488,0.19710974,-0.11079724,0.41211304,0.33321416,0.23204613,-0.4112547,-0.34642246,-0.113738805,-0.38895062,-0.13254239,0.05871201,-0.16252597,0.036396902,-0.4572595,-0.04190761],[0.38704857,-0.3286194,-0.38583264,0.016378716,-0.10855329,-0.31635624,-0.37796804,-0.18637015,0.4605726,0.19552171,-0.10334995,-0.42958704,-0.025184266,-0.21172409,0.18661904,0.23991126],[-0.5080214,0.14050959,-0.05081916,0.15251853,0.4452185,-0.60201305,0.14509197,-0.5459663,-0.08094355,0.13201061,0.10028584,0.54955494,-0.33348143,0.24102724,0.091359094,-0.2558096]],[[-0.16259001,-0.115967974,0.6775043,-0.00033178524,-0.1611868,0.32473677,0.22691065,0.5201254,0.21058285,0.13593458,-0.15900978,0.40249404,0.06760431,-0.47833714,0.41407382,-0.063430466],[0.37205845,0.3814248,0.47829235,-0.9263682,-0.37626576,0.16694555,-0.23302522,-0.08029875,0.36225027,-0.049006503,-0.5502892,-0.20447908,-0.4348019,0.19094008,-0.8445677,-0.24160965],[0.41147777,0.28235057,-0.67004573,-1.1406204,0.26277846,0.17831218,-0.096853256,-0.4209697,-0.00804182,0.12898096,-0.3598603,0.41997883,-0.14241916,0.4885556,-0.11734568,-0.64441586],[0.34340444,-0.29415214,-0.07572556,0.25077403,-0.07661401,-0.5426254,0.5469265,0.47187975,-0.099788636,-0.40400726,0.3547296,-0.60558414,-0.16859649,0.06751914,0.014420184,0.14929967],[0.57601744,-0.31355757,0.088291176,0.06153737,0.6163284,-0.0014744069,-0.34423456,-0.0018831494,0.121186115,-0.3289941,0.22816353,-0.44928858,-0.016451348,-0.22196464,-0.43255192,-0.45726335],[-0.091709666,0.21650662,0.36897233,-0.13837148,0.31633434,-0.049020775,0.020649446,-0.18024321,0.24626717,0.48483276,-0.15429538,-0.20071211,0.5461773,0.21737078,0.1572031,0.47662714],[0.24180582,0.28709832,0.257752,0.123772524,-0.45655048,-0.14579491,0.41904604,0.3992692,-0.15260829,0.48961666,0.30926126,-0.15864605,0.34670162,-0.1569698,0.070828594,-0.1804228],[-0.034139846,-0.2126089,0.56171536,0.13600379,-0.0997396,-0.3184451,0.46914858,0.27708286,0.5958322,0.092380725,0.5316217,-0.027072884,-0.12093896,-0.11666257,0.26583654,-0.019926986],[-0.47921452,0.5348395,0.18560256,0.14536485,0.22496222,0.051184047,0.21294932,-0.15069695,0.0035381094,-0.090876535,0.52055657,0.28225946,-0.08354342,-0.56344795,-0.13200192,-0.18309441],[-0.31372973,0.38925487,-0.098209105,0.28098908,-0.28213704,-0.06993608,0.18711036,-0.18826804,-0.028891511,-0.23346058,-0.09578649,0.50420225,0.18798973,-0.49316177,0.27819917,0.5111968],[0.43537298,-0.21978827,0.16295326,-1.0777996,-0.20788693,0.5088373,0.16606136,0.016455496,-0.034337245,0.27139634,-0.64034665,0.29424864,0.27680027,-0.20446658,-0.81029224,0.07877935],[-0.016428847,-0.19813746,0.035146084,-0.5866947,0.12515172,-0.31485504,0.06191851,0.0058813086,-0.5162623,0.020287694,-0.12606673,-0.39053315,-0.19547828,-0.038627923,-0.025672475,-0.2832251],[-0.24167044,0.5701857,-0.31568003,0.70541394,-0.52858853,-0.19504859,0.54209894,-0.10350853,0.34294352,0.29554975,0.5902101,-0.044029526,0.39590615,-0.61202055,0.08637691,-0.03469964],[0.23335911,-0.41323936,0.32905868,-0.27674195,-0.06419802,0.23366068,0.40860823,-0.3071588,-0.525122,-0.32925355,0.015783608,-0.37800723,0.29500023,0.38626018,0.18864834,-0.07368062],[-0.2533207,-0.22630516,-0.17876096,-0.43617052,-0.38154486,-0.4423615,0.39703125,-0.19154479,-0.4575706,0.09774721,-0.25237894,-0.29952526,0.46875095,-0.39052147,-0.4593922,-0.31488892],[-0.4537093,-0.26517123,0.25988877,1.1247785,0.35880387,-0.12562475,-0.07941118,-0.3099591,0.24716918,0.12129345,0.8798837,-0.54575795,0.16963558,-0.31257644,0.9040294,0.12090939]],[[0.3255949,-0.0072611766],[0.06792954,-0.28778973],[-0.17550364,-0.17290187],[-0.55253726,0.6148776],[0.14943337,0.052642055],[0.3381446,-0.20781258],[-0.11746995,0.024722395],[-0.25980598,0.0298144],[-0.39113736,-0.023424698],[0.245172,-0.13354446],[-0.49419242,0.2545506],[0.40556479,-0.366827],[-0.41302398,0.13149902],[-0.19149923,0.20745033],[-0.52667844,0.26647943],[-0.28887415,-0.034580562]]],"bias":[[-1.1850828,0.8626448,-1.0577283,0.40310702,0.07704743,1.1535734,-0.23077354,0.3688662,0.6050142,0.35195118,-1.255115,1.1259615,1.2775879,1.1354277,-0.86066717,1.0088774],[-0.6762879,-0.5608574,0.38355097,-0.09489436,0.120724946,-0.32144624,-0.14486189,-0.41915244,-0.30157945,-0.49241352,0.5953996,-0.07185342,-0.28140262,0.19367586,0.40738404,-0.3705419],[0.46564388,-0.45829386,-0.4534936,-0.33210927,-0.102838665,-0.09188193,0.04069328,-0.7280092,0.1825391,-0.3751154,-0.16637784,0.4148532,0.16014107,-0.310598,-0.11327377,-0.5790158],[0.011771449,-0.71516967]],"activation-funcs":["tanh","tanh","tanh","tanh"],"comment":"more layers"}
