{"weights":[[[1.1357043,2.1743906,1.1435819,0.7344513,0.4918029,0.24438883,-0.08625044,0.21596427,0.010267121,0.23746105,-0.15518168,0.42247486,-0.3582995,-1.8277372,-0.68113184,-1.3972625],[-1.067767,0.3411675,0.30344966,0.6067678,0.23952805,0.4814812,-1.0139358,-1.3456964,-0.9505578,-1.0607119,-0.428317,-2.3254054,-0.7887498,-1.8765526,-0.8884361,2.3018336],[-0.062839605,0.0049128053,0.26421854,-1.4539229,1.7087126,0.23337212,-0.8159004,0.090852246,-0.8677145,-1.1863556,0.91975087,0.49213868,0.27161697,-0.23515554,0.06487457,1.390845],[-1.6204592,-2.0287552,-1.0402316,-2.0083222,2.2367444,-0.21759489,0.003790131,-1.1158376,1.3515425,0.7885776,0.569671,-0.5319336,-0.71515447,-0.16548562,-0.9270945,-0.14325169],[-0.19897595,1.1504275,1.8942419,0.5749358,2.1115742,0.49420276,-0.61068815,0.2279078,-0.91367877,0.44729906,-0.92749435,-0.62473315,0.061491244,-0.15633875,0.1326545,-0.43062094],[-0.5059862,-1.1042657,-0.57396626,1.1541831,-0.09710264,0.34988156,-0.05552532,-1.1892813,0.2814484,-0.28875569,0.85650975,-2.0586207,0.45236194,-0.11775304,-0.7278348,-1.0930791],[-0.62883687,4.9951763,1.4914168,-1.2351283,-3.0145614,0.44941255,0.16366205,3.7024798,-0.6212182,-1.8998542,-0.7308877,4.783197,0.3766531,-1.2268732,-0.48025283,-7.982453],[-2.4744139,2.4279225,3.9230146,0.05327042,3.454815,0.9753703,-0.7828972,1.2564162,-2.0677433,-1.849258,0.6067397,1.8080457,-1.7034848,-0.42407086,-1.6452043,-5.719426],[0.80438465,4.322121,8.928744,0.653402,-0.5241376,0.46443346,-0.3168093,0.38496453,0.072220966,-0.063342884,-0.8781904,0.0722563,-0.80665785,-0.57819587,0.3978543,-1.0159153],[-0.15389591,-2.1921039,-1.751916,-0.83925676,0.012579313,-0.34466213,-0.30332366,-0.43180108,-0.5402251,0.057076395,0.3330563,-0.7250994,-0.06571953,-1.4587876,1.1425679,0.77281463],[-0.038410284,-0.060696438,-0.2885289,-0.8969956,0.39053422,0.32267377,-1.3174832,0.09164464,-2.2833488,-0.3184624,-0.40908524,0.9202359,0.19286631,-1.1070203,-0.74830204,0.7968332],[-0.0146670565,2.767315,0.7543564,-0.8600283,0.07509351,0.8204594,-0.48133695,1.786513,-0.6312875,-0.37593332,-1.2562714,3.105052,-1.4862369,-0.39934456,0.51953274,-3.4853406],[-0.3047427,0.21156883,-0.3365711,-0.21166685,0.21389842,-0.2671662,-0.36170307,-0.30732405,-0.42831472,0.35386014,0.22628963,-0.058195114,-0.012569308,0.15120828,-0.30880424,0.2364896],[3.4619274,1.1979613,3.63215,-1.1222442,0.9180296,0.5936216,0.40681392,-1.717578,-0.80014765,1.0508859,-0.86980695,2.2501051,-1.6331091,-0.5401909,0.391508,-4.5735817],[1.2973555,-0.7210498,0.7131378,0.8020096,0.25437775,-0.06993166,0.5976798,-1.5911496,0.0043286784,0.5210507,-1.699578,-0.42237216,0.36414126,0.24130055,0.5784727,-3.2245665],[-1.2923518,-0.3431895,-0.9929021,1.685604,0.18279625,0.14297408,-0.651537,-1.2350633,-0.1527213,0.783559,-1.5105873,-1.2430356,0.815354,0.96166885,0.5163245,1.7552142],[0.19562407,4.029206,-0.62750787,-1.425259,-1.5724173,0.2763112,-0.71899587,3.6507921,-0.24552104,-2.2028553,-1.3899748,2.4020357,-0.32159597,-0.5585951,-1.1752555,-7.7613754],[3.423422,3.1098387,-2.0533643,-1.4805404,-3.04257,0.6487851,-1.4083482,1.8461796,-0.68427145,-0.8149753,0.60672104,0.42566508,-0.2859981,0.6273003,1.2643636,-5.736433],[7.4422703,7.0655246,0.49393085,-1.0489745,-3.0503438,0.83988905,-0.6105956,-0.69671154,-2.5909877,0.94798434,-2.7512653,1.7008141,-0.956098,-1.792319,1.040558,-7.447827],[-2.1049147,-1.0225893,0.22871812,-0.772069,0.40776277,0.043974325,0.55564326,-1.1034651,-0.2526633,0.015677245,-1.833392,-0.8522091,-0.4178607,0.7945079,0.5941367,0.17090495],[0.1990685,-0.30174223,-1.3222282,0.35724914,-1.6749636,-0.42155486,0.30666402,0.78901273,-1.443505,-0.05122823,0.7008219,-0.3871808,0.07375239,1.508269,-1.2308519,0.32381082],[0.31559503,1.5997385,-1.1038162,-2.2162905,-0.25105155,0.9636838,-0.49215153,-2.725515,0.01688049,0.6355864,-0.980382,-1.1227928,-0.14085008,-0.9113455,-0.51298404,3.6491747],[-0.16104846,-0.5757425,-0.9100189,0.42272833,0.4436377,-0.23557296,-0.42033562,-0.43869746,-0.92043334,-0.2662404,0.51984304,-0.08445341,-0.680438,-0.01568821,0.56427085,-1.3437369],[-0.45843995,0.8289077,-2.145119,0.6277982,0.37487486,0.58141315,1.2566715,-0.7140208,1.4727505,0.7197545,-1.4952686,-1.6054138,-0.5940451,0.78128654,0.6169466,1.1729988],[2.0330138,-1.2341201,0.8093595,-0.45298427,-0.09618293,-0.27038428,0.30813208,0.8077968,-0.13597833,0.7929471,0.71313417,1.2823873,0.2466913,0.7688121,0.98552144,-0.33723137]],[[0.9925028,-4.454847],[0.40935946,-1.3304851],[1.3356957,-4.643528],[-0.5032111,1.4668435],[0.13120475,-0.61409175],[-0.8652554,4.040454],[-0.331342,-1.4291515],[1.0281655,-4.890422],[0.9527508,-3.037067],[1.1806122,-2.369975],[-0.266321,0.5800384],[0.92941517,-4.616771],[0.15369181,-1.4842705],[-0.7961548,-0.2170313],[0.4244154,-2.4979138],[0.10160445,2.1372366]]],"bias":[[-4.0042205,-0.13109031,-4.458142,-3.0077636,0.27093753,2.6551006,-2.9869738,-2.628913,-2.361883,-2.2346063,-2.0469582,-2.7105079,-2.3566067,-2.7558734,-3.5120635,0.9453384],[2.2033575,-9.029016]],"activation-funcs":["relu","tanh"],"comment":"self learning model "}
