{"weights":[[[0.2702949,-0.16430297,-0.26942372,-0.48011178,0.4994393,-0.1952306,-0.212385,-0.08393878,-0.28761405,0.1263656,-0.07712296,-0.347904,0.33748883,-0.4371342,-0.1754092,-0.033455282,-0.33325276,-0.2944849,-0.26459622,0.4848801,0.21119523,0.42391348,0.2519781,0.33635926,-0.32193032,0.056500435,0.095309496,-0.14739606,-0.048211128,0.19802463,0.3863595,0.35743427,0.0039471984,0.17564607,0.4829625,0.33931082],[0.19733399,-0.14858842,-0.037175655,-0.020341009,-0.30889404,-0.37478942,-0.30073357,-0.25716466,-0.4798693,-0.42148763,0.4357335,-0.3287838,-0.3407551,-0.48287544,-0.027605742,-0.4131252,0.08663881,-0.4157179,0.34279704,-0.0748364,-0.46477202,-0.38714474,0.20248204,0.20894128,-0.3666038,0.16316509,0.20404398,-0.2632327,-0.38418543,-0.40605333,-0.15316275,0.008333325,0.22103983,-0.41311082,0.13858217,0.0872463],[-0.4370584,-0.3741074,0.108890474,0.03619224,-0.08409846,-0.24548787,0.17126054,-0.36914104,-0.3375398,-0.12298748,-0.10050681,-0.4015665,0.26419145,0.3635255,0.47457957,-0.34430367,-0.4930612,0.0007571578,0.4035948,-0.43428147,-0.34828955,0.40786433,-0.35201263,0.32269323,0.3554415,0.06634855,-0.14360589,-0.49732044,-0.25891513,0.17925125,0.19309688,0.11118722,-0.11822024,-0.21654794,0.14244264,-0.13303092],[0.3614459,0.29990315,0.49386048,0.0899145,0.25453246,0.30697882,-0.3685465,0.44044524,-0.053130925,0.4804405,-0.3392796,-0.35817188,-0.49247998,-0.37572032,-0.28345275,0.3058939,0.020418882,0.098131895,0.13640553,-0.05776888,0.08795303,-0.36403298,0.34810942,-0.31273377,-0.26572055,0.32752568,-0.04377812,0.18184114,0.36999935,0.23466492,0.04822749,-0.03388053,-0.46793395,0.48898667,0.069187164,-0.44362146],[0.36478567,0.46098727,-0.14126098,-0.15489283,-0.17283899,0.11655891,0.27429926,-0.33439934,0.11262405,-0.49705476,0.35855782,0.48525304,0.4342479,-0.20646334,0.4261204,-0.14469936,0.39702028,0.1397742,0.22465998,-0.14275065,0.026804984,0.005128145,0.37171257,0.18669325,0.18556315,0.16762573,0.23439354,-0.3286729,-0.26407552,0.15196496,-0.119595855,0.108046174,-0.05421415,0.111837804,-0.4162921,-0.40114462],[0.22736669,0.27600557,0.21971506,-0.0747937,0.14239657,0.49364406,-0.43808597,0.39657187,-0.17344123,-0.44541055,-0.30195642,0.1749301,-0.24032372,0.21015674,0.13636506,-0.116348386,0.2339781,-0.2438274,-0.27953023,-0.14341009,0.36499208,-0.17131013,-0.3376781,-0.064144135,0.050984323,-0.15017712,-0.3362308,-0.47400004,-0.37740165,0.4545201,0.0964843,0.17151278,0.13431156,-0.005627185,-0.34531537,-0.12953061],[-0.198156,0.49825758,-0.23006281,0.16738558,0.20440924,0.18261838,0.035025597,0.43775284,0.19564825,0.26426482,0.11663115,-0.11676353,0.14752316,0.08736038,-0.39534158,-0.2522774,-0.10096365,0.0043908954,0.2443338,-0.34397095,0.19893533,0.3359295,-0.28828293,0.21819079,-0.39140904,-0.001185447,0.17926943,-0.18184975,0.19477129,0.26792842,-0.3025238,0.10939616,0.34191674,-0.4587164,-0.23702675,0.20552266],[0.18747431,0.33258283,0.04389882,0.1599788,0.21312857,-0.15728718,0.1201517,-0.4538676,0.02651447,-0.49479797,-0.2818551,0.2502455,0.30202174,-0.17408285,-0.34812772,0.30490035,0.052650034,-0.13686442,-0.3040101,-0.033100933,0.1738429,0.3180536,0.031215072,0.39631373,-0.07400063,0.069705784,0.32371598,0.11504763,-0.33720464,0.047340453,0.21275115,0.18032795,0.123927295,0.27194405,-0.24636161,0.43275064],[0.055738688,0.19881696,-0.3837484,-0.40688953,-0.22044465,-0.43785706,0.049203157,0.045407534,0.17454034,0.48492318,-0.4974536,-0.24110556,0.40677398,0.10293132,-0.46591568,0.348019,-0.2895174,0.27883023,0.0653438,-0.40278274,-0.15893096,0.14119583,-0.15504155,0.2488541,-0.305713,-0.43232316,-0.23676711,-0.43196842,0.46020442,0.3274479,-0.19404978,-0.3840312,0.17790383,-0.40803674,0.09531897,0.065926135]],[[0.4567361,-0.17018974,0.27037513,0.44812012,-0.025989681,-0.11090228,-0.03698626,0.40095735,0.0015839934,0.3015464,-0.23355016,0.16888535,-0.4729431,-0.15872267,0.024869442,-0.43693554,-0.36675808,0.23263639],[-0.45528778,-0.21402323,-0.42981628,-0.3634669,0.40810055,0.3328871,0.45319444,0.1614219,0.2600425,-0.1573318,-0.17845249,0.2589472,-0.22221258,0.34615576,0.36798388,0.26631922,0.14585698,0.06505436],[-0.29404816,0.43217087,-0.1990166,0.42833215,-0.22802463,-0.48454106,-0.3017311,-0.35102504,-0.45696545,0.02789259,-0.0393382,-0.28303468,0.46010423,-0.36754364,0.11958271,-0.23572567,-0.021457106,0.089571714],[-0.108614326,0.3832261,0.1826598,0.2460894,-0.18435955,0.43887568,-0.07238495,0.23789155,-0.28401828,-0.17059892,-0.3003735,0.26690346,0.32193184,-0.43365622,-0.046518266,-0.49254993,0.42967469,-0.39340407],[0.48363,0.09514105,-0.29385197,0.47894275,-0.063151866,0.14609468,-0.48133168,-0.019462556,0.023961306,-0.43748236,0.09805101,0.4558748,-0.005974114,-0.412994,-0.47256932,0.4608053,-0.49946734,-0.39130014],[0.4070624,-0.26764262,-0.39819604,-0.1552087,-0.16536245,0.23592567,0.48548472,0.35640788,-0.019634455,0.26059288,0.35683906,-0.18104556,-0.030685395,-0.040784955,-0.062021405,0.47494757,-0.10185003,-0.28292334],[-0.32322383,0.12004006,-0.45245764,0.30963087,0.28465885,0.43894047,-0.27534026,-0.4161879,0.38852805,0.26022643,-0.13658705,-0.13812426,-0.11957738,-0.34509373,-0.2607649,-0.12341395,-0.20670483,0.44860178],[0.2653898,0.11794162,0.0586769,-0.29888266,-0.07236296,0.48301482,0.4273818,-0.15168345,0.3236072,0.36543584,-0.4120506,0.41679484,0.18569309,-0.07397577,0.17414898,-0.45308992,0.37148947,-0.49689358],[-0.10130474,0.29563636,-0.27462918,-0.086681336,-0.25837463,0.48542726,-0.016030073,-0.115400076,-0.07596892,0.079698086,0.3705572,-0.42842168,-0.39460775,-0.23727801,-0.4616199,-0.49172974,-0.4991602,-0.090872884],[-0.11197552,-0.32714537,0.43697846,0.051625848,0.29907137,-0.006375164,-0.2465651,0.06687474,0.1513707,0.057534516,0.16388857,0.42450815,0.49227506,0.17447734,0.32813448,-0.417678,-0.19350931,0.28394705],[0.4987976,0.30495107,0.37044436,-0.3481184,0.30766624,-0.23145834,-0.39483804,0.3150918,0.31117922,-0.3984401,-0.033442557,-0.027545154,0.43290335,0.06319147,-0.08828935,-0.15255836,0.4307546,-0.18084246],[0.19718218,0.24717873,0.4957065,0.48566395,0.20558524,0.47787946,0.3849272,-0.08813566,-0.27588862,0.013326466,0.46047127,0.48371625,0.0441218,-0.39287195,0.19613034,-0.09417987,-0.10937479,-0.2481263],[0.3707645,-0.35963356,0.44890982,0.016943336,0.35135835,-0.4543637,-0.3275298,0.28929973,0.07191628,-0.47648117,-0.08512151,0.010676026,0.18655187,0.15503234,0.42866927,0.45219475,-0.24497572,-0.06887522],[-0.42753088,0.21167535,0.3538099,0.16123956,0.49213833,0.3130105,0.06855875,-0.3041582,-0.223687,-0.2851494,-0.23438978,0.24814808,-0.47171426,0.16806614,0.26483184,-0.464003,-0.06030631,0.28359914],[0.077895045,0.44210052,-0.3216762,0.36630815,0.12934148,-0.3369453,-0.48956138,-0.40052086,-0.12373862,-0.03949696,-0.29447973,0.19044888,0.33949876,0.3470537,0.14320064,0.37662,0.03360164,0.11439401],[0.45804775,0.02482313,0.39843756,0.052045584,0.18241423,-0.27783602,0.14614475,-0.13963014,-0.25346798,0.46696097,0.07660341,-0.015453547,0.14085722,0.4637838,-0.47970307,-0.0101187825,0.32093632,0.2159754],[-0.31172493,-0.16749164,0.47547174,-0.4351571,-0.13551086,-0.49408278,-0.19225067,-0.43265456,0.35001165,-0.0744113,0.24829674,-0.15331867,-0.073049694,-0.33565548,-0.31588924,-0.18698463,0.45901102,0.07046592],[-0.024739474,0.27925313,-0.2717806,0.4099958,-0.33106184,-0.083202034,-0.47772118,0.11881262,0.023792267,0.41930872,-0.26413587,0.18161672,-0.38486108,0.02360338,-0.15714207,0.06899464,0.1686486,-0.46451575],[0.01878649,-0.35019654,0.22043067,0.053845882,-0.23976141,-0.41784698,0.3445229,-0.4201681,0.30240119,-0.09780541,0.3935879,-0.27707946,0.33015823,-0.39677864,0.332622,0.4736423,0.47420812,0.1014691],[0.33014333,0.2851162,0.17294449,-0.15997589,0.09782058,-0.052767098,0.15819407,-0.37005502,-0.2427181,-0.099551916,0.2639895,-0.33359605,-0.07051325,-0.040503085,0.2557779,-0.012113601,0.17692053,0.28196317],[0.26778412,-0.36801386,-0.45085487,-0.14606851,-0.28720212,-0.2374756,-0.013380587,-0.1578424,0.36020535,-0.2979681,0.16230178,-0.49921557,-0.1412752,-0.006755382,0.26118553,-0.4427324,0.09518206,-0.21391195],[-0.3377862,0.13242942,-0.45539773,0.13299805,-0.19811878,0.41754168,0.044295788,-0.16711366,-0.09494004,-0.24327418,-0.42720127,-0.042284817,0.31660497,-0.27180135,-0.17713702,0.23916161,0.000013411045,0.06639612],[0.49314493,-0.43240556,-0.38579756,-0.12198615,0.1208868,-0.08276528,-0.3136296,-0.13811502,-0.22344851,0.3535022,0.20361722,0.22062755,0.0052099824,0.31260937,-0.22595581,-0.28750187,0.43115234,0.045861542],[0.2336033,0.057052553,0.17073208,-0.36691117,0.46696347,-0.038704693,-0.43471634,0.12202948,0.093473434,0.42975575,0.49643773,0.0077390075,0.17855346,0.097923875,0.3475839,0.32510728,0.18792832,0.18077666],[-0.49808568,-0.43724617,-0.19430101,0.21458328,-0.27255595,-0.36497796,-0.2734441,-0.44125235,-0.29621843,0.38979995,0.45052636,-0.11465123,0.3137071,0.38435835,-0.21890193,0.35726714,-0.49683282,0.49045634],[0.018177867,0.35747498,-0.3662301,-0.33743325,0.33095104,0.4930427,-0.3935983,-0.095849484,0.44005442,0.23947352,-0.1905354,0.46586388,-0.027970701,0.26840144,-0.029287577,-0.2971595,-0.269423,-0.38388014],[-0.46993995,-0.03421983,-0.24308959,-0.10716954,0.011443615,0.11233765,-0.13109955,-0.14689162,0.06523985,0.4895857,0.1595869,0.123147726,-0.48228264,0.20480502,-0.3602547,-0.25694287,0.44305754,0.4078474],[-0.37598905,-0.0007838309,0.25068825,0.050033927,-0.041483343,0.14368111,-0.21512827,-0.45116544,0.1550324,-0.48561305,0.33058333,0.33488953,0.22904152,-0.3976472,-0.15674114,-0.2695493,-0.18498886,0.1417979],[-0.20509243,0.375176,-0.022742838,0.098983526,0.2168774,-0.4280452,-0.088514894,0.29416007,-0.36107236,0.22043103,-0.4992579,0.3289631,0.07798618,-0.038399875,-0.28495288,0.20212865,-0.013880283,-0.20395312],[0.43231076,0.36569303,-0.14669505,-0.09838897,0.0571481,-0.15888086,-0.086351395,-0.15790737,0.34338266,0.13436592,0.37142318,0.12989974,-0.106746346,0.26125896,-0.110734195,0.4557504,0.44016415,0.42275602],[0.4387629,-0.41719526,-0.34019843,0.13258809,0.0097462535,0.40098393,0.31094003,0.08918822,0.3250953,0.18022907,-0.29161114,-0.04298538,0.2457912,-0.3580528,0.081763685,0.48192626,0.104979634,-0.13474461],[-0.26126468,-0.48477665,0.28365225,-0.048492044,-0.099460095,0.43567616,0.39229083,0.17043936,-0.37811399,0.4856531,-0.34069133,-0.05466935,0.4915148,-0.49192804,-0.15702605,0.36129797,0.15897405,0.2930683],[0.43027914,0.42299467,-0.28395224,0.4692837,0.48428035,-0.37400937,-0.16086936,0.47435892,0.33660346,0.30643868,0.3919382,-0.32172224,0.1815713,0.3897863,0.1845926,0.35531658,-0.118054,0.104848266],[0.38239026,0.30456078,0.27445978,-0.4575119,0.28378713,-0.16791946,-0.28783357,-0.07433662,0.19184113,0.2069388,-0.29847956,-0.35084537,0.24413174,0.35032398,0.0527308,0.100533366,-0.44865853,-0.19336772],[-0.13725999,-0.062778115,0.0024264455,-0.16827267,0.08666259,0.4393943,-0.4910905,0.12487751,0.2885102,-0.31693652,-0.30699053,-0.10947618,-0.36691555,0.3087017,-0.047619283,-0.00032952428,0.09603006,0.16387844],[-0.17922652,0.13011497,-0.056614965,0.027826548,-0.025345623,-0.12930739,-0.38712135,-0.009414732,-0.3913198,-0.14539668,-0.39152318,0.006062329,0.26708627,0.3682536,0.43295532,0.1597082,-0.07842323,-0.46683908]],[[0.17803729,0.42762846,-0.1957123,-0.29087335,-0.103004456,-0.18617103,-0.35508272,-0.05718136,-0.016421497],[0.13985217,-0.13066494,-0.29377383,0.46009815,0.18724716,-0.1842314,0.21135801,0.29155213,0.21089232],[0.3585928,0.4498207,-0.473601,-0.24243537,0.119570196,-0.23121691,-0.41103637,-0.039010644,0.04830128],[-0.4072857,0.08283478,0.09400606,-0.46154436,0.40350014,0.24009639,0.28035742,0.44271517,-0.3177786],[0.06103295,0.17341298,0.037184536,-0.017720133,0.32334673,-0.33746195,-0.4664623,0.19675863,0.09423703],[0.16453451,-0.46630478,0.10193151,-0.3931234,-0.37269747,-0.49461114,0.3612495,0.19398922,-0.43424308],[0.2962076,-0.27217305,-0.42573157,-0.093294084,0.11770141,-0.002817154,0.024442494,-0.28862637,-0.35205102],[-0.15436319,0.28073657,-0.26665038,0.18807536,-0.4251456,0.08380544,-0.46929377,0.46951878,0.39834946],[-0.31414464,-0.3420412,-0.03556359,0.35366726,-0.16878402,-0.15514019,-0.1903747,-0.3028633,-0.46163812],[-0.45695058,-0.09998155,-0.06327072,0.49269205,-0.4417178,-0.08121589,-0.2569118,-0.38187632,-0.118629366],[-0.2715156,-0.07297251,-0.20755267,0.04804206,-0.42108577,0.121245444,0.12161225,0.063908935,0.40640312],[-0.17674819,-0.44289517,0.15587223,-0.07648596,-0.28139216,-0.49225584,0.16601992,0.15397859,-0.35766977],[0.2240755,0.06844604,-0.2913274,0.4462782,-0.0672895,-0.35885426,0.02349174,0.20915246,0.24643213],[-0.26038045,0.37648207,-0.054581672,0.0043780208,0.49953967,0.13391411,-0.05156949,0.1134817,-0.47728664],[0.47067028,0.09128171,-0.3888613,0.24348998,0.46725297,0.31986243,0.37406588,-0.009948552,0.40431058],[0.32535923,0.1895343,0.27413726,0.45352346,0.06860536,-0.12292147,-0.11103985,0.24692291,-0.40514895],[0.43362987,0.32509142,-0.16537967,-0.3371257,0.096131206,-0.37972718,0.11630428,-0.4461319,-0.49188802],[0.007070422,0.49500835,-0.28427953,0.43210274,-0.42084664,0.097381055,0.19470108,0.15889055,-0.06687796]],[[0.3209601],[0.12263411],[-0.1230897],[-0.08322212],[-0.2682222],[-0.342994],[0.3453247],[0.16931152],[-0.16488773]]],"bias":[[-0.24022478,0.49629265,-0.06565231,-0.005370468,0.10895747,0.117263734,0.46398365,0.14558184,-0.005976796,-0.2949728,0.39777124,-0.070865184,0.30542076,-0.08019453,0.28415984,-0.22687438,0.15448552,0.26226258,0.15392214,-0.49702412,0.24017769,0.3583426,-0.23800969,-0.18660441,-0.36408776,0.23897552,0.023701608,0.13398367,0.11164987,0.15832055,-0.33457524,0.1096881,0.3624159,-0.37831149,-0.15324658,-0.15806288],[-0.42727345,0.29345095,-0.064936996,-0.29475164,-0.339678,0.0052641034,0.34996337,-0.23801458,-0.45000193,-0.3361215,0.09716064,0.38360286,0.3462975,-0.035815597,-0.15905875,-0.0007351935,0.47428805,0.13850343],[-0.47243747,0.27744985,-0.34544486,0.31065166,-0.46125782,-0.30146927,0.462184,-0.41290823,0.090708494],[0.17430848]],"activation-funcs":["sigmoid","sigmoid","sigmoid","sigmoid"],"comment":"mines sweeper model , isnt that perfect but it kinda works"}
