{"weights":[[[-0.26220626,-0.11995791,0.014314803,-0.43054208,-0.019115202,-0.042297788,0.25294238,-0.13351418,-0.13278623,-0.25334114,-0.025477443,-0.35764647,-0.18060423,0.40278503,0.1392633,0.4501296,0.028297275,0.27495563,-0.6133594,0.24726449,0.20597166,-0.064104654,0.10294987,0.4838568,0.20304172,-0.1254286,-0.18340868,-0.1049236,0.35584506],[0.272542,0.10079179,0.29591784,-0.13104373,0.3168596,-0.47077802,0.17283288,-0.15420243,0.18650894,0.036631957,0.20084374,-0.009108454,-0.30557156,-0.29650757,-0.3194296,0.1101367,-0.45894018,0.34517172,0.46157014,-0.047144145,-0.29246026,-0.2191054,0.22400989,0.14663011,0.32063428,0.48390645,-0.35809454,-0.06539721,-0.45683733],[0.49677932,0.25197986,0.13657847,-0.47872397,0.37765405,0.12201783,-0.033506833,0.4760598,0.07259101,0.07409431,0.38049436,-0.021454573,-0.47930986,-0.12111169,-0.97469217,0.21158957,0.11413264,0.43238512,0.14238809,-0.041441694,0.22070153,0.20332,0.3637744,-0.09174242,-0.28981724,0.121391855,0.3285104,-0.4086991,0.2975458],[0.38505447,0.48804796,-0.25189283,-0.40248874,0.18185359,-0.32580295,0.43618104,-0.17693987,-0.30599096,0.42012766,-0.6036565,-0.12268022,0.14620315,0.052566536,0.16323629,-0.31756696,-0.65483594,-0.09431899,-0.34141323,-0.06847747,-0.3388548,-0.42677304,0.13282649,-0.07402653,-0.056990203,0.27950853,0.10198571,0.1428161,-0.09357431],[0.33916587,-0.28014013,-0.29664195,-0.45165765,0.2293175,0.19685721,0.32180458,-0.11724372,-0.5087219,-0.008066999,0.15509973,-0.017395645,0.30724964,-0.09057198,-0.1923225,-0.03175629,0.51776624,-0.053676266,0.075171255,0.19200681,-0.17562011,-0.06626973,-0.04203053,0.009881899,-0.20001942,0.420986,-0.025170801,0.30430597,-0.13853124],[-0.27504715,-0.34754965,0.29247287,-0.44855875,0.42128897,-0.2792518,0.48421162,-0.11472837,-0.33028936,-0.10287652,-0.2269092,-0.09388101,0.43345723,-0.49488595,0.08056422,-0.15869579,-0.0061400733,-0.41957396,0.45469835,0.3610791,0.08318915,-0.39194918,0.30566835,0.40645552,0.015618357,0.06934052,0.47020316,0.39637566,-0.10948921],[0.28078893,0.21683173,-0.54927194,-0.2971564,-0.31560054,0.28236714,-0.07940174,0.2260297,0.72824335,-0.21353732,0.52671957,0.19101626,0.38293734,0.37553298,-0.4523096,-0.40505967,0.7642388,-0.15058725,-0.0401867,-0.09822583,0.49209088,-0.14595804,-0.47630098,-0.17565031,0.035598952,-0.12854187,0.08767591,-0.117343195,-0.31910598],[-0.2712155,0.1821002,-0.26183566,0.22559457,0.31305036,-0.57088417,0.023486465,-0.089257345,0.1033008,-0.08938391,0.2772153,0.06173116,-0.50613415,0.69732445,-0.21940462,-0.039385684,0.34433982,-0.18701361,0.4943721,0.41380298,0.41358528,-0.2402973,-0.40198618,-0.056334425,-0.15824361,0.50769436,0.017288381,-0.40452373,-0.17346655],[0.08688735,-0.42164084,-0.18159525,0.16484416,-0.027424756,-0.45631987,-0.13122256,-0.21896473,-0.20157243,0.3358193,0.61706424,0.17878008,-0.33472323,-0.09128829,-0.14729342,0.36558586,1.1602103,-0.3209766,-0.96706426,0.33336353,-0.3447455,-0.0274942,-0.60821736,0.40292397,-0.1915139,0.13597949,-0.13672094,0.026583979,-0.41778353],[-0.22363003,0.40972367,0.26291174,0.39720634,0.22415167,-0.20272847,-0.45583662,0.41359168,0.23073374,-0.47261328,-0.20088,-0.25608343,0.24149805,-0.0029576344,0.3766919,0.24863595,-0.47956303,0.07832371,0.7722,0.38745213,0.28092936,0.29279593,0.24820179,0.40356755,-0.3410069,0.6102057,0.23541857,0.28789672,-0.31648448],[-0.11681399,-0.024422402,-0.34889898,0.32712486,0.24192584,-0.05456262,-0.19212386,-0.35297355,-0.26144344,-0.36362892,0.3848192,0.16448838,-0.112502836,-0.16044885,0.47786012,0.46739867,-0.21796565,0.2916931,-0.4450248,-0.2503566,-0.32882002,-0.19895186,0.092495464,0.07452169,0.04854951,0.16099365,0.40370852,0.2688344,0.47252834],[0.19407167,0.0034255397,0.12077856,-0.3213514,-0.65377134,0.01142107,-0.31221014,0.23763183,0.0034010268,-0.020343713,-0.2878144,-0.08427659,-0.02825781,0.8047858,0.25081527,-0.20106044,0.09194234,0.013162156,-0.40306085,0.22571494,0.41004786,-0.24801143,-0.017502306,0.16918066,0.028434468,-0.422678,0.04452418,-0.34019384,-0.4904824],[0.37347674,-0.18134996,-0.35606757,-0.3454361,-0.28791848,-0.0404239,-0.2260217,0.41011882,0.35094625,-0.4910475,-0.32253578,0.052746534,-0.45704243,0.086593926,-0.47937235,0.25896513,0.34304756,0.37920207,0.10186273,0.08980316,0.18419218,-0.45710227,-0.26225585,0.20933312,0.46749884,-0.1704911,0.20333338,-0.2964678,-0.16039938],[0.3325317,-0.05429603,-0.28477308,0.46201354,-0.0629851,0.4175929,-0.036457106,0.2549904,-0.5828706,-0.04958503,0.42754698,-0.4572896,-0.38217783,0.5330173,0.15857384,0.49629572,0.23440096,0.2604114,0.35822544,-0.20811945,0.46027285,-0.41251463,0.25673744,0.14064242,0.13373548,-0.25932854,0.23702568,-0.24073794,-0.049835104],[-0.34543216,0.33269045,-0.25290826,-0.18655859,-0.28858465,-0.13801369,0.09700221,-0.092255734,-0.4684412,0.0040791924,-0.26035458,-0.0073729753,-0.4989291,-0.035352908,-0.20470876,0.2967984,0.30785275,0.20768555,0.20499435,-0.415584,0.15218964,0.51139265,0.19414441,-0.3994848,0.103801996,-0.20601544,-0.0948377,0.312207,-0.010445117],[-0.04800629,0.3696297,0.33501822,0.19837137,-0.14244127,0.2827962,0.2140329,-0.06719802,-0.36456388,0.19991675,-0.46477273,-0.40869835,0.4751849,-0.58846444,0.53369826,0.22416575,-0.2839655,0.29756865,0.06215812,-0.33929026,0.49442053,-0.07110341,-0.0026184414,0.5529024,-0.17984681,-0.35818443,0.5153022,-0.34310448,0.44161236],[-0.253817,-0.25579754,-0.12836535,0.26213732,-0.47461796,0.12300732,0.32827628,-0.6040381,0.29551953,0.19701457,0.31854028,-0.24406397,0.5233136,0.7404251,-0.12472803,-0.4108721,0.7630482,0.17355405,-0.41619492,0.15536556,0.32042292,-0.065665916,-0.1893936,-0.25706688,0.22781754,0.116967335,-0.24346778,-0.29279718,0.024585979],[0.44009218,0.3853631,0.3262843,0.19126472,0.49894232,-0.12540156,0.3967615,0.17431995,0.22697802,0.36460814,0.5867681,-0.4984344,-0.32259884,0.7544127,-0.36773744,-0.21772203,0.24445327,0.38494143,-0.29445013,-0.105493866,-0.5071786,0.44180208,-0.40634388,-0.21494469,-0.49666426,0.30448025,-0.06586584,0.4029096,-0.10260332],[-0.12137333,-0.34676206,-0.67089623,-0.17096466,-0.68961865,-0.2702541,0.14752738,0.39848882,-0.57215565,-0.12681442,0.30372393,0.23403037,-0.19037458,0.36791608,-0.6161726,0.46593547,0.72959894,0.14940624,-1.1070156,-0.46466884,-0.09120495,-0.016528532,-0.18861564,0.3666171,-0.44697213,-0.47495463,0.33869937,-0.49803752,0.11765523],[-0.41145012,-0.38421345,-0.065133706,0.19442621,0.4263268,-0.29632506,-0.40756902,-0.044318687,0.40646997,-0.124865584,0.19471115,-0.41535002,0.33523753,0.0063359146,-0.27244264,-0.30873615,-0.5491664,-0.32276502,-0.3239753,0.22140202,0.059752252,-0.36806673,0.4593118,0.20060092,0.49143544,0.09665691,-0.25333488,-0.30201516,-0.30893192],[-0.49131003,0.5411265,0.035311904,-0.10515675,0.46726084,0.26946476,0.24691568,-0.4176978,0.34505987,-0.38678527,-0.16723318,0.3240505,-0.2951288,-0.23365155,-0.24714334,-0.011755153,0.50506085,0.38804612,-0.38316426,-0.40036845,0.42710206,0.40964442,-0.14421277,0.08977373,0.18270601,-0.031799026,-0.108666666,0.009435593,0.14232731],[-0.38058752,0.0035702817,0.019267097,0.027873883,-0.58134604,0.3559884,0.24577473,0.269008,-0.54340714,0.16106592,-0.17666543,0.046490252,0.06966337,-0.19929896,-0.26524332,0.44796318,-0.24691568,-0.3428798,0.44261482,-0.21085058,0.011487784,0.5120094,0.43102938,0.4778576,-0.114512116,0.51154166,0.37470186,0.014772737,0.08598251],[0.12396352,0.39260122,-0.26540884,0.24303643,0.26549038,0.10208504,-0.06963761,-0.0794091,-0.11904578,-0.31436813,-0.16530333,-0.07796222,0.46675774,0.39291903,0.21901721,0.3000268,-0.19901486,-0.17182218,0.29770413,-0.48678985,0.23600462,-0.3988571,0.0017986072,0.32500672,-0.22799955,-0.21291025,0.3767203,0.43104422,-0.12131063],[-0.0009963015,0.50333655,-0.39925405,0.018719798,0.18458962,0.28293115,-0.21017006,-0.37003455,-0.4177519,-0.32332265,-0.3890551,0.22599918,-0.33385822,-0.12682505,0.56528574,-0.19614905,-0.123807356,0.3136756,0.15546945,-0.34020936,0.4746989,0.4361971,-0.06960671,-0.36495876,0.32541054,0.16232997,-0.24994703,0.18615824,0.1968459],[0.40425077,0.49345756,-0.04749119,0.29569334,0.3829528,-0.35905406,-0.28515977,0.0016896832,-0.18293916,0.2488553,0.08266924,-0.25940228,0.4440808,-0.12088391,0.20860568,-0.33582246,0.077594176,-0.26350045,0.19986781,-0.032680478,0.29324666,-0.38759565,0.38936606,0.29903528,0.045155566,0.4368735,-0.10140033,0.0997653,0.21880628]],[[-0.12816381,0.018998502,0.10051932,-0.26426622,-0.13612561,0.24920495,0.12204597,-0.3472261,-0.20184714,0.19466884,-0.3306265,0.21972866,-0.16452153,-0.31242126,0.1278333,-0.008127207],[0.120633125,-0.33052832,-0.009533946,0.4365959,0.008007795,0.30671635,-0.13852501,-0.06771125,-0.37227798,0.17763843,0.25956756,-0.47373843,0.45976076,0.3865445,-0.47017956,0.33287552],[0.6461166,-0.058957715,0.47039023,-0.224803,-0.4571427,-0.16041043,-0.067717716,0.10866984,-0.43515036,0.14064555,-0.40335616,0.70973766,0.19919662,0.2923839,-0.18692861,0.18122165],[-0.25393572,-0.21039736,0.22415757,0.16583385,-0.43505096,0.42102912,0.2901568,-0.07053253,-0.33759496,-0.09148202,0.4234072,-0.41215894,0.42870653,0.027836675,0.32804328,0.29777044],[0.14967862,0.09328256,0.35697466,-0.12016203,-0.5427131,0.058454152,-0.020665329,-0.041766018,-0.16816011,-0.21382424,0.079500526,0.8013766,-0.4923846,0.25514862,0.36867297,0.25383392],[-0.38649705,0.4856407,-0.1508953,0.25971642,0.03345469,0.2257575,-0.21412462,0.1758904,-0.48861796,-0.02814907,0.07859483,-0.007731616,-0.24072805,0.3542343,0.34265593,0.3066993],[0.44957075,-0.031896688,-0.04556803,-0.02587136,0.32495007,0.047815535,0.2660855,-0.2830248,-0.061017513,0.5896024,0.07548644,0.7089582,-0.26420566,0.1305253,-0.050200187,-0.0019923751],[0.10026834,-0.06426739,0.23005348,0.32954746,0.5355378,-0.15403582,0.1661875,-0.25950924,0.45289737,-0.06640806,0.10993935,0.23045163,0.75611866,0.10670627,-0.35661247,-0.2665671],[0.17468123,-0.37947148,0.22074011,0.4514216,0.98266053,0.521499,-0.042751674,0.1325523,0.3190481,0.18070745,0.30584985,-0.05374467,-0.27776504,-0.3618185,-0.20040774,-0.24331579],[-0.4942538,-0.19111937,0.366135,-0.35262328,-0.4039627,-0.27386284,-0.4869162,-0.34509125,-0.009653211,0.44108516,0.020203412,0.4008807,0.33483756,-0.09846681,0.4297963,-0.19817184],[0.20513959,-0.458885,0.37431002,0.04605839,0.552757,0.4797561,0.22489569,0.46512675,-0.43756554,0.44635022,0.22939903,0.1321853,0.13820167,0.18327513,-0.5625958,0.2749283],[-0.48555088,-0.25580567,-0.33370474,-0.31195778,-0.3112425,0.26969826,-0.106196076,-0.1986402,-0.099148095,-0.30825853,-0.13519093,-0.22844991,-0.14059114,-0.3792252,0.33653343,0.16121924],[-0.44372165,0.013102535,0.13729098,0.3379299,0.2681975,0.22317962,0.2732317,0.042874426,0.35602158,-0.30685425,-0.44074106,0.49982077,-0.07803425,-0.1630007,-0.046100385,-0.31281218],[-0.58793867,0.42394572,0.39342734,0.15864244,0.8881313,0.6307039,-0.35603812,0.539562,0.22940785,0.09772002,0.45505613,-0.06247281,0.25934225,0.48230097,-0.18266574,0.09983582],[0.07397659,0.01792214,0.08439082,0.15299943,-0.5863249,-0.41537428,0.7609073,0.10118543,0.11503881,0.4127961,-0.4992985,0.5150151,0.06530046,0.046527155,0.29821292,-0.4433772],[0.007170963,-0.076094724,0.15871681,0.062516615,0.42585438,0.025841143,-0.023378577,-0.020692574,-0.29622078,-0.48548806,0.4619761,0.34470075,-0.018071674,-0.42485818,0.112602785,0.057724264],[-0.75191635,0.27164507,0.2736207,-0.4082957,0.686423,0.5275091,-0.13231082,0.24708806,-0.14396635,0.50703245,0.02169165,-0.3086739,0.40063426,0.040133327,-0.20770882,-0.27740124],[0.12862636,0.30728638,-0.20986792,-0.120725505,0.4603016,-0.3331884,0.29793966,-0.22295369,-0.3803237,-0.46240455,0.2811185,0.28383568,-0.45395923,0.20603964,0.40613663,-0.39298198],[0.6332181,0.16941701,0.41437215,-0.2925523,-0.64048344,-0.35261083,0.29021576,0.09160032,0.24680018,0.3688369,-0.4976585,0.620283,-0.46026963,-0.3347689,0.40684384,0.27110934],[-0.14171332,0.10621057,0.34346282,-0.3113781,-0.13823384,0.25960112,-0.42815572,-0.38250604,-0.4763408,-0.28426933,0.10079056,-0.06101011,0.33331102,0.21530946,0.43480918,0.20385182],[-0.34728786,0.12624249,0.19247541,0.063590266,0.22430098,0.21848495,0.14344166,-0.26922148,0.22955239,-0.3227273,-0.4318958,0.14624663,-0.40433222,0.32401195,-0.31805366,-0.21641731],[-0.020449655,-0.17392324,0.37340683,-0.24521652,0.2148432,0.3521027,-0.27007362,0.052494414,0.22669262,0.36640617,-0.39717013,-0.07914601,0.29917067,-0.05194507,0.34057525,-0.22828558],[0.15327768,0.7156773,0.2798351,-0.2677837,-0.13377975,-0.053218547,0.87888616,0.39050537,-0.43835023,-0.10433354,0.06313576,0.4579004,0.1585695,0.009054675,0.2920485,0.25015587],[0.3859691,-0.31335035,-0.17588088,-0.10733123,0.56166774,0.1364903,0.3691403,0.4590732,-0.22021502,0.043866713,-0.36057135,0.11275314,0.45904657,0.1910456,0.14209014,0.19155256],[0.39159426,0.2523867,-0.29053017,-0.43400928,-0.33508042,0.4713935,-0.46245787,-0.2107309,0.34020853,-0.39694342,-0.12305358,0.42269415,-0.38378653,-0.10310837,-0.09044556,-0.18151686],[-0.18536142,0.41252863,-0.33663318,-0.18968761,-0.340605,-0.358841,-0.18024161,-0.11583957,-0.1870822,0.6166005,0.168289,0.00032147064,-0.10472413,0.060541045,0.275492,-0.016395992],[-0.3816132,0.18703204,0.056034498,-0.4392381,-0.049201064,-0.21501483,0.120379396,0.1914502,0.22358847,0.15369265,0.35429734,-0.2896601,0.40577132,-0.17213441,0.109161235,-0.4659681],[-0.013730964,0.022412384,0.49081925,-0.040629502,0.48691544,0.32468835,0.036147095,0.022465853,-0.43157923,0.3750271,-0.47851458,-0.43823797,-0.063004,0.19107015,-0.5107976,-0.08865731],[-0.21331406,0.44622925,-0.35243922,-0.21856363,-0.17774826,-0.39198732,0.2111249,0.2721836,0.4114076,-0.41624618,0.20809169,0.23754628,0.29457203,-0.49585468,-0.26026285,-0.24989536]],[[-0.6338102,0.47215632],[0.010781709,0.23564988],[0.23850787,-0.11687373],[-0.46388724,-0.21617505],[0.8051474,-0.7917093],[0.58783305,-0.3267177],[-0.006135984,0.13787584],[0.05201255,-0.22139096],[-0.19421,0.36277205],[0.2876271,-0.012920209],[0.40014848,-0.2389325],[0.068329304,0.20633176],[0.36829147,-0.28033546],[0.04946195,-0.3090181],[-0.2501407,-0.037606433],[-0.02452981,-0.048307657]]],"bias":[[-0.41405234,-0.38758007,0.35067642,-0.060690556,0.209753,-0.016789407,0.65413934,-0.003349381,0.122077316,-0.10021645,-0.117308915,-0.18767351,-0.033506256,-0.28045788,0.25238127,-0.3945799,-0.06266778,-0.37681195,0.28619164,-0.00796595,-0.53298944,-0.23385724,0.8852302,-0.43538317,-0.20823638,0.55123925,-0.33465284,-0.2734589,-0.32380784],[-0.39513668,0.5208682,-0.007741074,-0.13454759,0.5355912,0.30488116,1.0928527,-0.1767744,-0.42273283,0.4349265,0.3862172,0.6422218,0.05542562,-0.30766925,-0.05174474,0.113363564],[-0.33064178,0.04484011]],"activation-funcs":["relu","relu","tanh"],"comment":"It doent work that well but it kinda works"}
