{"weights":[[[-0.020542903,-0.37132645,0.116964415,-0.35317913,-0.05226971,0.14266907,-0.25467366,0.3979038,0.08984422,-0.3273013,-0.18862705,0.25332034,-0.10654592,0.49759138,-0.24812947,-0.19265625,-0.23118071,-0.15498874,-0.03401454,-0.39857075,-0.027122702,0.104323104,-0.03086151,0.09329298,0.17739086,0.31389505,0.05022111,0.4009026,-0.015116449,-0.34291333,0.49928367,-0.29918233,-0.35823125,-0.23542418,-0.11878516,-0.26288265],[0.3469707,-0.40749082,0.3602237,-0.4228304,0.41016605,0.28124294,-0.47051573,0.2658538,0.45648587,0.19288805,-0.46406317,0.033732533,-0.33826593,0.08108637,0.15367937,0.17956662,0.36262262,0.15199028,-0.3727333,0.04531851,0.19928749,-0.030081434,0.48203394,-0.45694908,0.49399018,-0.16841212,-0.44889343,-0.2911078,-0.14964569,-0.36106434,-0.16768987,-0.28607598,-0.39084542,-0.044978175,-0.46507385,-0.3857738],[-0.4183369,-0.17739794,0.2488521,-0.15404804,0.1275588,-0.33394304,-0.44612864,0.4023257,0.20829001,-0.34836724,0.4041352,0.6439811,-0.10650413,-0.1808718,-0.5717239,-0.2917677,0.46764863,0.07321247,-0.35360432,-0.34906712,-0.45374998,0.12015889,-0.107310236,0.3864164,0.4884587,0.12780876,0.15798159,0.33258,0.50000507,-0.13128608,0.12662141,-0.0018815986,0.00707985,-0.25429177,-0.16080852,0.32610115],[-0.19901958,-0.33747897,-0.0811829,-0.48546916,-0.4434133,0.18330339,0.04773807,0.24289301,-0.33544627,0.43038186,-0.23226556,0.21639405,-0.24428144,0.4432343,0.1898451,-0.13016218,0.45080358,-0.34848696,0.081916004,-0.41909957,-0.37196392,0.02281625,-0.020810336,0.16370116,0.30056944,0.11792135,0.48615736,-0.17760491,0.18156555,-0.2409089,0.016314894,0.39643124,-0.302013,-0.34809285,-0.26121902,0.01875693],[-0.029116442,-0.5,-0.2886824,0.0090492135,-0.40089333,0.3850736,0.40143123,0.3350384,-0.12124138,-0.21993189,-0.17726472,0.28010604,-0.09798602,0.004329266,-0.07860643,0.30194128,-0.095747724,0.07370742,0.25003886,-0.3872794,-0.3189753,0.10254037,0.09299728,-0.3524329,0.24507515,0.18643895,0.29707214,-0.14841925,-0.2507323,0.45915642,-0.18088043,-0.015501469,-0.43472067,-0.42344016,0.29526266,-0.5331996],[0.13457105,-0.14553677,-0.07705956,0.1744204,0.19261822,0.48658174,-0.57080734,0.2612182,0.34841555,-0.1834051,0.40319082,-0.016679855,0.32163987,0.39746663,0.14732972,-0.3393347,0.1416509,-0.13910027,0.42269462,-0.23108433,0.32764772,0.12075567,-0.018675132,-0.16633159,0.08370054,0.3137418,0.39038104,0.3412767,0.19071248,0.09236205,0.16087577,-0.088940054,0.0068771923,0.36425608,0.30588248,-0.37702578],[0.14544344,0.44160712,0.21360451,-0.42840347,0.25202462,0.30335996,0.0007621539,-0.15021749,-0.50006473,0.06141664,-0.49743763,0.26977998,-0.04217793,0.17195176,0.095779635,0.13132448,0.35403556,0.29025835,0.3200804,-0.218854,-0.46093777,-0.045439705,-0.03791493,-0.15376589,0.38625783,0.15195265,-0.36285523,0.053652357,0.0044121644,-0.620091,0.35934806,-0.48089924,-0.38224986,0.47883457,0.34129626,-0.06006622],[0.2234682,-0.45710838,-0.3753226,-0.2623491,-0.45701665,0.48896122,-0.44686475,0.38111895,0.05349105,0.27929184,0.4365744,0.11825625,-0.109044254,-0.27586198,-0.3703603,-0.49320313,-0.14313589,0.32537982,-0.2527171,-0.09239002,-0.40298238,-0.18844433,0.09183134,0.44767714,0.35251573,-0.45525265,-0.16588312,-0.22881559,-0.13760465,0.3284687,-0.2970966,0.04222311,-0.4809281,0.2270464,-0.23699276,0.3500245],[-0.23952788,-0.39745992,-0.4521086,0.10386601,-0.18210742,0.3755033,0.106409594,-0.012911728,-0.18260531,-0.47704026,-0.21825817,-0.34670827,-0.20916189,0.42360446,-0.19220567,-0.35474795,-0.41813922,0.26272333,0.26255983,0.48334652,0.029312216,-0.18455498,0.13203819,-0.4102253,0.44654107,0.37172222,-0.42933774,0.2791867,0.49546418,-0.5797036,0.51959157,0.023344707,0.0029263275,0.004965425,-0.22517622,-0.6268466]],[[-0.08341455,-0.4841549,0.22128855,-0.017173873,0.39479777,0.2836929,-0.22401899,0.21148364,-0.43948963,0.2465492,0.15283479,-0.028472014,-0.40375876,0.0976151,-0.3045168,-0.4318912,-0.38619417,-0.44258243,0.3967766,0.010748396,-0.062879466,0.40294635,0.3491836,0.16218407,-0.19560523,-0.42301607,-0.28443632,-0.30894774,-0.41594145,0.10340909,0.48698118,0.11756641],[0.006379802,0.3637651,0.11698043,-0.2944737,0.4329043,-0.09786646,0.41393065,-0.27611092,-0.3961129,-0.072856106,-0.4591404,-0.41727024,-0.38297683,-0.19488005,0.13770294,-0.24523373,-0.18750627,0.21260989,-0.2847815,0.3275596,-0.049759857,-0.024033848,0.124371774,0.06971048,-0.12976122,0.16445217,0.0619701,-0.2981431,-0.3197997,0.4640591,0.2712505,-0.11588414],[0.50000405,0.14465755,-0.25346932,0.45957857,-0.16352835,0.13753492,0.30876008,0.0049935626,-0.28716388,-0.19995834,-0.3298541,0.34181693,0.2960303,-0.33289438,0.4666943,0.28860927,0.042316716,-0.2116741,-0.10765384,-0.1312018,0.18071645,-0.4532789,0.11223991,0.14161544,0.28135204,0.28192014,0.16902988,0.47961277,0.29924423,0.46930137,-0.09375914,0.30041263],[0.47660533,0.34892458,-0.22611438,-0.3028625,0.481974,0.33510312,-0.17441332,-0.28873563,0.21291268,0.25673977,0.33467633,0.08855998,-0.4984761,-0.21839266,-0.18717557,-0.49812055,-0.054579865,0.08583952,0.4699078,0.2982207,0.1524923,0.256516,0.1646025,-0.11075311,-0.009569634,-0.26853815,-0.13735588,0.39381906,-0.11307065,0.48813647,-0.13761754,0.23820545],[0.28540134,0.1704785,0.53516966,0.02395503,-0.348411,0.2193039,-0.03145994,0.20492479,-0.24004476,0.3733042,0.42107108,-0.4811008,0.22782028,0.48387316,-0.4391773,-0.2264816,-0.09086524,0.38343114,-0.2784933,0.09467135,0.48241135,-0.36521214,-0.10139318,-0.36901268,-0.033726044,-0.2958283,-0.1546024,-0.48586172,0.24053541,0.25897998,0.30764925,0.24203052],[-0.46645272,0.39927617,0.13966745,0.2960756,-0.375886,-0.20066763,0.13629104,-0.42640615,-0.13618425,0.31773037,-0.32349572,0.03626127,0.2995687,-0.082319476,0.238953,0.45355752,-0.10675344,0.31447238,-0.2892577,0.2423745,-0.27879316,-0.05160841,0.26034904,-0.12238642,-0.17998369,0.12945975,0.33755183,-0.1724006,0.20561296,0.350772,0.29866934,-0.20071676],[-0.3759333,0.34467357,-0.0907199,0.10734013,-0.37947965,-0.3686918,0.16945085,-0.19169715,-0.0034286906,0.12428821,-0.59933704,-0.2500061,0.08640391,0.3958683,-0.18800138,-0.5237145,-0.060013827,-0.09716745,0.045802016,-0.1663322,-0.31766972,0.50465584,-0.14559717,-0.0958355,-0.050059997,0.28153923,0.22729133,-0.4561409,-0.27236253,0.48548022,-0.017427031,0.2626042],[0.4672005,-0.12156215,-0.10829473,-0.23418532,0.09244484,-0.32130456,-0.27752954,-0.34787795,-0.14779747,0.33246663,0.47091872,-0.23062064,-0.045583185,-0.22194625,0.16438074,-0.21827342,-0.30454183,0.07390019,-0.30181706,-0.11328396,0.259074,-0.31514776,0.35544795,-0.45646217,-0.028746555,0.37354785,-0.26342022,0.20549898,0.080545835,0.40580493,0.42420137,-0.057458818],[0.47056293,0.37223995,0.378734,0.30055836,0.43570322,-0.07768053,-0.11883227,-0.51702183,0.27097252,0.19870253,0.023086365,0.049907282,-0.21256761,0.108184494,0.17791732,0.18509103,-0.35300156,0.49451825,0.4527571,-0.3485992,0.301082,0.29206035,-0.3402693,-0.021298375,0.4654641,-0.13933298,-0.4248546,0.008735359,0.08114147,0.45222735,0.19575839,-0.45989522],[0.32700598,-0.30672523,0.36856115,0.38753134,-0.29003915,-0.017887238,-0.14423667,0.58792454,-0.25367823,0.44596523,0.20884928,-0.4965893,0.24928406,-0.21390443,-0.34922192,0.13541137,-0.44773057,-0.033330854,0.39327186,-0.0010091161,0.031366434,-0.43423942,0.09160518,-0.13114917,-0.15744883,0.036550026,0.17394638,-0.27179813,0.11840452,-0.26883233,-0.13872713,0.3925355],[0.17405273,-0.42088735,-0.42718977,0.32222137,0.4577327,0.06787443,-0.20236579,-0.059184067,0.21420877,-0.21741287,0.09037155,-0.4181864,0.015648762,-0.2455202,-0.36876792,0.38009256,0.3080917,-0.35904098,0.26625624,-0.21255158,0.0025895739,0.16661586,-0.092397995,0.22572625,-0.3368531,0.35561168,-0.32566434,-0.3364811,-0.1278987,-0.10233829,0.18554996,0.048811506],[-0.4279089,0.3459321,-0.3284642,0.19192386,0.059869137,-0.45340088,-0.42593607,0.112610064,-0.31022906,-0.14066099,0.009112602,0.44635788,0.4814017,-0.47402835,0.14268516,0.24003863,0.24546178,0.28117308,-0.29380903,-0.32126388,-0.23235492,-0.009054293,0.37682095,0.040718075,0.07563428,-0.34570983,-0.028647292,0.27826643,-0.25000426,-0.46009573,0.06157644,-0.50555116],[-0.15270764,-0.4875404,0.115122855,-0.31948817,0.48704767,0.37589738,-0.24619053,-0.32891634,-0.14670557,0.13730025,0.14463967,0.026589653,0.33799598,-0.30033144,0.31838152,0.33960798,-0.47704,-0.39763495,-0.04256033,-0.098919705,-0.4759242,0.058360875,0.03480537,0.4017766,-0.2852728,0.48480758,-0.47687906,-0.30799466,0.13924171,-0.16531827,-0.42237124,0.30044377],[0.39723676,-0.31195858,-0.37608764,-0.12510669,0.08090439,-0.21096154,0.17909679,-0.09483781,-0.34980652,-0.13347287,-0.19757971,-0.3084827,-0.05775104,-0.45845464,-0.018732918,0.077064104,0.23395963,-0.3406583,0.10548968,0.16988713,-0.29398802,-0.47646046,0.18060422,-0.11538612,0.4209645,-0.42709744,0.53049743,0.30311325,0.17356524,0.14389011,0.30398962,0.08409988],[-0.031867284,0.33955687,-0.4435223,0.25058034,0.056907073,-0.33614513,-0.22607239,-0.12317431,-0.37945378,0.41586766,-0.38076577,-0.14340162,-0.34544033,0.015913416,-0.4339707,-0.027020019,-0.2704424,0.28769645,0.37449074,-0.4470421,-0.20343375,0.16476282,-0.05948912,0.37555787,0.3119292,0.055351976,-0.17503612,0.056601632,0.44270143,-0.07625621,-0.055508137,-0.28907433],[0.2806073,-0.10202916,0.3116178,0.09195742,0.2600094,0.13956349,-0.3486016,-0.2781848,-0.58120966,-0.014147031,-0.34597966,-0.30622357,-0.41386336,0.50543123,-0.43601677,0.13908884,0.17748637,0.2878859,0.43559667,-0.22601004,-0.13756976,0.24556808,-0.09754129,-0.27786636,-0.29057413,0.022140065,0.10239343,-0.04368892,-0.49333233,-0.08427253,0.29586974,-0.42612758],[-0.09929063,-0.18481393,0.0119259795,0.1137657,-0.38788107,0.47675857,0.19719936,-0.52315134,-0.0375687,-0.3769836,0.4190427,0.49627796,0.22555955,0.4716788,-0.35401326,-0.36353004,-0.09966616,-0.3383037,-0.0461432,0.464114,0.024471259,-0.36254176,-0.17176552,0.2348418,-0.40399316,0.26008773,-0.22108962,0.36253753,-0.1663504,0.41933113,-0.38419792,-0.40657315],[0.24056414,-0.0631754,-0.47005394,-0.17099795,0.5617062,-0.24465683,0.43932065,-0.23087625,-0.29793057,0.2245605,-0.19396697,0.111184895,0.23588216,-0.30103192,0.4509956,0.065123685,0.40185764,0.39275217,0.4275487,0.2060254,0.42598623,-0.29510856,-0.43340504,0.46054232,0.009110161,0.038259633,-0.49865007,-0.27712372,-0.1908504,0.14982606,0.4095022,-0.42932335],[-0.09055957,0.35232404,0.4488927,-0.026513852,0.39223737,-0.49355647,-0.08033771,-0.5217548,-0.07768349,0.0025451826,0.10816446,-0.21446957,-0.29405436,-0.20518257,0.47905064,0.44180796,-0.27845573,0.4841069,-0.41575214,-0.43775138,0.3819177,0.13787477,-0.3415541,0.034750752,0.36429986,0.21844178,-0.46175516,0.24356566,-0.24758837,0.061650548,0.0675253,0.041217368],[0.3840057,0.06563897,0.21580912,0.18566954,-0.34292847,0.31527364,-0.17038855,0.031765144,-0.0047221943,0.21838517,-0.2879447,-0.30012298,0.20595905,0.045130562,-0.065676674,0.23840252,0.012726946,0.36805552,-0.057553962,0.0901519,0.0992408,-0.061295338,0.2964181,-0.058452234,0.29910293,-0.007549237,-0.06519548,0.035354204,0.09116771,0.46442696,0.096888214,-0.38490617],[0.06819594,-0.23218137,0.4880779,-0.25978673,0.011325787,-0.21774876,0.14358883,-0.37585095,-0.4254785,0.18708172,-0.25774392,0.074586116,-0.5542816,0.49228382,-0.1078863,0.34617215,0.23055196,0.004691726,0.40441987,-0.49351066,0.11765817,0.1514682,-0.12012393,0.13995172,0.31215513,0.4936936,0.31988707,0.28542125,-0.021583911,0.21516548,0.03960421,0.30350333],[-0.017486662,-0.23803534,-0.46583414,0.27587414,-0.51849705,0.38033,-0.45888546,0.2078863,-0.30790552,-0.053722505,0.33418515,0.34586567,-0.1960314,0.123018324,-0.36124673,0.15183271,-0.3780325,-0.1559229,0.10230428,0.41098207,-0.056668248,-0.2977266,0.3936719,-0.15663308,-0.25000456,0.32635468,-0.21638131,0.4525728,-0.35259968,0.34368452,0.423627,-0.068747014],[-0.1673607,0.35019523,-0.24196757,0.101143055,-0.05297013,0.11044221,-0.32926464,-0.14315327,-0.24418576,0.45692408,0.29006103,-0.44229442,0.488118,-0.42230013,0.1904556,-0.24950774,-0.26311532,-0.058683567,0.112469256,0.18121928,-0.05697009,-0.28684133,-0.05624469,0.21342483,-0.0021355103,0.09687226,0.36064816,-0.029963193,-0.15697962,0.13235977,-0.23395304,0.35803393],[-0.32786614,-0.24592367,-0.18146457,0.46435216,0.25000787,0.28104398,-0.17829002,0.15877175,0.24252047,0.27782115,0.09428436,-0.41441765,0.05341691,-0.46721742,0.18420722,0.37158498,-0.41119364,0.47007707,0.44768026,0.23429425,0.18475339,-0.28272903,0.22827286,0.13466722,-0.15041932,-0.14288959,0.051806863,0.4384915,-0.49953356,0.47184554,0.24580643,-0.32032385],[0.17391463,-0.13418448,0.046797432,-0.51250434,0.15276434,0.40454012,0.381313,0.16039659,0.4899459,-0.16555157,0.5981588,-0.015372708,0.47966507,0.17994629,-0.21902443,-0.18425244,0.39656785,0.22100069,-0.46308967,0.3031071,-0.38145977,0.2736785,-0.07083087,-0.5797807,0.14495014,-0.29414555,-0.021454344,0.15348974,0.33476952,-0.10718523,-0.14007367,-0.2472351],[0.36338887,0.17630108,0.12466634,0.0031367168,-0.4699142,-0.24424979,-0.07125571,0.21677148,-0.033631377,-0.27648976,-0.31751558,0.4885481,0.24527569,0.14381362,-0.43715838,0.17004205,0.14658138,-0.24334715,0.27327812,-0.2700062,-0.27009258,-0.19962803,0.06010322,-0.23211043,0.35050568,0.37872607,0.4031319,0.073448226,0.018416008,-0.15317106,0.5442104,0.45437133],[0.4070136,-0.089546025,-0.24559693,0.031520937,0.4155702,-0.45895866,-0.069485776,-0.08062299,0.31543973,-0.17187302,0.18986993,-0.1153753,0.0732234,0.40277722,0.35378942,-0.47450352,0.09377424,0.15778238,-0.24122542,0.22139594,0.2461024,0.24065031,-0.25212985,0.454981,0.50000453,0.12270424,-0.35938156,-0.28880548,-0.31128708,-0.5128159,0.22683169,0.44376203],[0.24985997,-0.41968924,0.19150533,-0.5518289,-0.01661824,-0.2984373,0.20210966,0.2783022,-0.23988934,-0.056850873,-0.16142027,-0.15877879,-0.0827402,0.37471578,-0.23573199,0.28207222,0.09736026,0.43297312,0.1559413,-0.039356176,-0.040834967,-0.30390185,-0.2236575,-0.2030957,0.24909581,0.023078522,-0.15984376,0.4323096,-0.29524723,-0.0814668,0.12268385,-0.19511802],[0.47416517,-0.12081357,0.21598184,0.08519185,-0.43064776,0.45655832,-0.06459817,-0.57020617,-0.15683666,0.06263189,0.06495185,-0.14596544,0.41037723,0.15787871,0.17542234,0.33586395,0.18775451,-0.04850742,0.20962575,0.0066007236,-0.30252033,-0.4460985,0.08465009,0.41631523,0.01796683,0.19045807,0.4976365,0.4412585,0.27286914,-0.093613654,0.4110403,-0.4060786],[0.4738616,0.35769886,-0.067175575,0.3083337,0.13161755,0.39781967,-0.501514,-0.34500772,0.35291168,-0.20558676,-0.5104261,-0.18496273,-0.46473858,0.10623369,0.0077306526,-0.14147729,0.37927014,-0.30060387,0.06657912,0.01692097,-0.04693623,-0.026653472,0.117919385,-0.28280717,0.11813445,-0.033931702,0.060327426,-0.33634594,-0.20656867,0.47483262,-0.39045256,-0.3304947],[0.04263702,-0.21071711,-0.5294107,-0.37549603,0.43248653,-0.05337987,0.44113246,-0.4492711,0.1809336,0.28561914,0.400114,-0.19290833,-0.40579247,0.21499926,0.08372845,0.1760829,-0.2443775,0.14676428,0.42902237,0.08641493,-0.37736875,-0.19922239,-0.33840856,0.17397472,-0.020408237,0.1343418,0.24170983,-0.37211594,-0.49984863,-0.0032266132,-0.30654347,-0.42557883],[-0.18918808,0.35997203,0.16926344,0.11858418,0.07797517,0.21133325,-0.16475768,0.34276444,-0.14170997,-0.3859831,-0.4117701,0.18713126,0.14621167,-0.30614114,-0.055477902,-0.19311154,0.45540893,0.12703957,0.15572761,-0.1967383,0.020794664,-0.16763888,0.20343238,0.058413036,0.18950889,0.3022419,0.4187568,-0.31424603,-0.025750052,0.12029909,0.29915404,0.14881471],[-0.34880182,-0.16737852,-0.07676501,0.075287834,-0.4751145,-0.18355028,0.18236235,0.4509765,0.38808542,0.028029736,-0.04068054,0.37233618,-0.50649285,-0.013384533,-0.033951916,-0.160624,-0.32508355,-0.21210998,-0.44097257,0.30840406,-0.40629542,-0.16083063,-0.100358605,0.34976432,0.4177545,0.4526037,-0.53037846,0.20721614,-0.42170954,0.21035825,-0.24725299,0.21972351],[0.49701074,0.3704832,-0.13483605,0.097751826,0.37599894,-0.10947946,-0.28074047,0.06178153,0.42762345,0.34222814,0.17760697,0.0935923,-0.37145227,0.4429787,0.47350684,0.036381453,-0.4288723,0.2997495,0.24304588,-0.48155132,-0.31929705,-0.0014225886,-0.3903961,-0.37637502,-0.14622547,0.27807018,0.22701529,-0.5067263,-0.18208636,-0.3467771,0.43634388,0.28930256],[0.4675247,-0.16081412,0.28241417,0.1295443,0.2662741,-0.06505435,0.03175593,0.042934183,0.3378741,-0.33418313,-0.3053192,0.44823408,0.012565237,0.18894179,-0.38644344,0.15364566,0.22431526,0.35945135,0.20578445,0.111862764,-0.27918807,-0.21204361,-0.34288332,0.13379316,0.37834767,-0.10460636,0.3388515,0.21444984,0.21671356,-0.026525013,0.43458572,-0.20853397],[-0.13736086,-0.33906847,-0.17011122,-0.16190192,0.22046989,-0.069351904,0.23091304,0.20023161,-0.4649998,0.3577318,0.05212111,0.3140199,-0.32261166,-0.17410459,-0.37227008,-0.4513301,-0.44911176,-0.30147514,-0.3896892,-0.21835959,-0.32872084,0.33259296,-0.5003162,0.28722998,0.15579847,0.022224123,-0.29249725,0.0815775,-0.25533158,-0.028580796,-0.53723526,0.44433448]],[[0.1112255],[0.13770323],[0.3659191],[0.15020916],[-0.076370925],[0.11455647],[-0.40096882],[0.46385223],[-0.026573744],[-0.18065792],[-0.5069629],[-0.23087151],[-0.36554983],[0.24954566],[-0.13855866],[-0.4281726],[-0.40930074],[-0.4503143],[0.56236094],[-0.22701594],[-0.20482917],[0.28527126],[-0.07190189],[0.34313488],[0.23146725],[0.37008518],[-0.26965362],[-0.18940918],[0.23514889],[0.15375732],[-0.3727569],[0.0052521774]]],"bias":[[0.14383115,-0.3489756,0.2979693,0.14954688,0.3251434,0.03772894,0.29722506,-0.07271542,0.22800499,-0.029364718,0.10242104,-0.19689012,0.01634528,-0.3571242,-0.12315293,-0.29321828,0.056198407,0.29967624,0.13512136,0.1903687,0.087630875,-0.14288615,-0.19722237,-0.51008344,0.2554885,-0.38461307,0.20341435,0.05704931,-0.24324463,0.03946886,-0.3640519,0.2229256,-0.18750991,-0.20761003,-0.37444386,-0.0924414],[-0.3454718,0.016964093,-0.29115406,0.20873182,0.1675987,-0.05694106,-0.08255344,0.022318607,-0.35188094,-0.42468023,-0.35913604,-0.46187618,-0.48476595,-0.258937,-0.51542044,0.03524615,-0.33118716,0.35593218,-0.32540533,0.17062142,0.30166078,-0.36514863,0.4214876,0.37742504,0.092496276,-0.093532935,0.2534143,0.21297993,0.6049637,0.20097317,0.26272476,-0.46833187],[0.23600546]],"activation-funcs":["tanh","tanh","tanh","tanh"],"comment":"mines sweeper model , isnt that perfect but it kinda works"}
