{ 

    "activation-funcs": [
        "tanh",
        "tanh",
        "tanh"
    ],
    "bias": [
        [
            -4.507224123660136,
            1.9096127278378145,
            0.6711584636592434
        ],
        [
            0.3123871470208512,
            -0.7344093691956982,
            0.3353440786306513,
            0.21855270084860215,
            0.047895739294059075,
            -0.08485875659492342,
            0.5055269497919616,
            0.0331377383833831,
            -0.15706183428186685
        ],
        [
            -0.49150005136385744
        ]
    ],
    "weights": [
        [
            [
                2.6562206388582363,
                -0.08387438925606061,
                -3.299096888348523
            ],
            [
                2.657483057961063,
                0.04994921242416503,
                -3.2900540190041037
            ]
        ],
        [
            [
                -0.10085885720096395,
                -2.0415901283182434,
                1.3184028980948246,
                -1.3921957856690426,
                1.2057728743070377,
                -0.6646182348129059,
                1.0565399732986,
                1.1790430460267127,
                -0.7393608364454255
            ],
            [
                -0.046924386714238715,
                0.33010605116955494,
                0.010424553789198652,
                0.06715939313815092,
                -0.36930532764467616,
                0.4802658652997136,
                -0.5126530265295859,
                -0.008929848522667505,
                0.401496107873474
            ],
            [
                -2.1345888617862077,
                -0.5973595828186696,
                1.083769691781506,
                -0.3770844405848712,
                0.45387027372450667,
                -0.5706264676537572,
                0.919678446056834,
                0.834907861941187,
                -1.2104485428885166
            ]
        ],
        [
            [
                0.9136849943589761
            ],
            [
                0.7374262911227679
            ],
            [
                -0.17501032981353695
            ],
            [
                0.19938795038599327
            ],
            [
                -0.08128187533747708
            ],
            [
                0.07921746699734458
            ],
            [
                -0.05230313599072721
            ],
            [
                -0.11907176486459335
            ],
            [
                0.21920762941752325
            ]
        ]
    ]
}